{
    "total_evaluated": 80,
    "ai_results": [
        {
            "id": 1,
            "score": 360,
            "steps": 921,
            "network_weights": [
                [
                    [
                        -0.5554676870175373,
                        -0.8231194984568915,
                        0.16942347694693694,
                        0.8387518795583258,
                        -0.3634215195043642,
                        -0.45545414178166355,
                        0.19526974289683385,
                        0.70673236621746,
                        -0.47440965592687356,
                        -0.12650738922080867,
                        0.596787313408512,
                        0.24569705320087354,
                        -0.404896168421903,
                        0.46217323780202424,
                        0.17113939445539827,
                        -0.37507950671163437,
                        -0.5845506722641354,
                        0.10006156046827641,
                        0.8401708898263853,
                        0.2564147301960975
                    ],
                    [
                        -0.04667202153190021,
                        0.4920204889155096,
                        0.2139478596734067,
                        0.4541736501662266,
                        0.4425740776119389,
                        0.6768256389536345,
                        -0.577716574964888,
                        0.543571160233947,
                        0.08484696963138971,
                        -0.6588077988498533,
                        -0.5116237190584274,
                        -0.7017993681155699,
                        -0.31167459717720164,
                        -0.46421678470124106,
                        0.49420995978841065,
                        0.5065197496163278,
                        -0.7551288727667549,
                        -0.8067935389362094,
                        -0.6572877193822522,
                        0.7039406516509208
                    ],
                    [
                        -0.34227935318608105,
                        -0.0256744412281239,
                        -0.8609524646685296,
                        -0.13930243838743261,
                        -0.7201237504124138,
                        0.8882489375572917,
                        0.8740154837556913,
                        0.2422943322025688,
                        0.6782055936839743,
                        -0.9122911465754546,
                        0.27349902289463746,
                        -0.7389329296457701,
                        0.3645051160988644,
                        -0.7361969358766454,
                        -0.45483409594586455,
                        -0.9566166865169334,
                        -0.42526073782058593,
                        -0.35572019923186304,
                        -0.10017308280219339,
                        0.2876384443197004
                    ],
                    [
                        -0.7548027208472801,
                        -0.8646209902886987,
                        -0.23019550604554606,
                        0.004253564120736478,
                        0.16216648714256987,
                        0.9540188233188647,
                        -0.9692933250124589,
                        -0.6563150251535874,
                        0.5688364122433407,
                        0.9699439734636301,
                        0.5500808543988829,
                        0.3368291330087184,
                        0.1639516323976864,
                        -0.5409043832441311,
                        -0.4511513173990018,
                        -0.710425181411087,
                        0.3824068517383665,
                        0.5903441061313139,
                        -0.1995457179855411,
                        0.9910140802378491
                    ],
                    [
                        -0.8271197140306532,
                        0.37374452042973294,
                        -0.2490242712887487,
                        0.548717586832763,
                        -0.14806890676266304,
                        0.682306585053515,
                        -0.94500782262235,
                        0.5725595515228568,
                        -0.9697560429875351,
                        -0.5020916575581533,
                        -0.8356287757814707,
                        -0.2678055583645725,
                        0.6018935392382183,
                        -0.9901431443076205,
                        -0.07593047716449375,
                        0.47178177607039307,
                        0.47662197098184067,
                        0.6454411327260343,
                        -0.052610385256959075,
                        -0.027051795816189772
                    ],
                    [
                        0.6040502654742295,
                        0.5226594284537185,
                        0.5521846822096728,
                        0.9992961799300388,
                        -0.4241018624913597,
                        0.7297147376865307,
                        0.37727068815808584,
                        -0.549713741732174,
                        0.2777990762866933,
                        -0.35199290783791315,
                        -0.2356147232320649,
                        -0.4907625978332943,
                        0.06463275836929427,
                        0.18917087559762336,
                        -0.624860703827713,
                        0.33149474759744235,
                        -0.7160672517901535,
                        -0.517344410793532,
                        0.5176806449164255,
                        0.31517588374465716
                    ],
                    [
                        -0.7987737468108032,
                        -0.4492252213797694,
                        -0.2317722124002833,
                        0.24541547674246902,
                        0.7108565414011084,
                        -0.7411350062503046,
                        0.14297182957247023,
                        -0.09545061424181994,
                        0.8722471975687662,
                        -0.6229446263137111,
                        0.8503926789137806,
                        -0.18259374125949868,
                        0.5501039853878155,
                        0.5204804700073192,
                        0.5356876424551869,
                        0.14896408764169888,
                        -0.3282698681751679,
                        -0.8631892524623348,
                        0.962160981186711,
                        0.5042213121974548
                    ],
                    [
                        -0.5794777040779513,
                        -0.21094418480244453,
                        0.014078149635214643,
                        -0.3823141015933311,
                        0.5194046707016455,
                        0.5531930014272743,
                        0.702549055273944,
                        0.7508377883811034,
                        -0.025156435660384835,
                        -0.7133879905291169,
                        -0.5896558761305019,
                        0.9860345797622179,
                        0.1258402049970586,
                        0.12035041291319037,
                        -0.8076886064597479,
                        -0.9587584585044,
                        0.8455131396461024,
                        -0.8836390833957837,
                        0.5648940175089525,
                        0.7684581738295604
                    ],
                    [
                        0.489837648746962,
                        -0.7002955093880607,
                        -0.35012622530288073,
                        0.9981448654205076,
                        0.895900029891179,
                        -0.9245607274521068,
                        -0.7411647030248716,
                        -0.2816455055008582,
                        0.6112617921509971,
                        0.15096619443157544,
                        0.3717697075719973,
                        0.7512454540825231,
                        0.7273037069268142,
                        0.43735168428131965,
                        -0.4522617761347334,
                        -0.13127821326063072,
                        -0.1005037970627447,
                        -0.09948836947412909,
                        0.23544907626429024,
                        0.07953061699629023
                    ],
                    [
                        0.3556334415745319,
                        0.8560421981033284,
                        0.1496524656010978,
                        0.3016272193773719,
                        0.0034074322575572413,
                        0.9454334303663348,
                        -0.867358417164553,
                        -0.5134283365553445,
                        0.4551740123984607,
                        -0.26177856323731463,
                        -0.6028559206716462,
                        -0.022859736339136155,
                        0.45343212560086404,
                        0.5698774879966457,
                        -1.0324794166775892,
                        0.22224078703297856,
                        -0.4518769356965253,
                        -0.18999970472881003,
                        -0.6968803932764566,
                        0.2726207878518714
                    ],
                    [
                        -0.05258494442660089,
                        -0.9445017365476676,
                        -0.21827330902200237,
                        -0.7427342176639062,
                        0.5375871099495952,
                        0.2079006692930828,
                        -0.9537876908567516,
                        0.9298555088236836,
                        0.44933236971179036,
                        0.5521529848818056,
                        0.6290424171429452,
                        -0.395251528492494,
                        -0.987352940983742,
                        0.3379890547071591,
                        -0.9410944301128159,
                        -0.20842263668059768,
                        -0.5349507429529652,
                        0.2579610902918199,
                        0.04132425596788036,
                        0.4084303454562316
                    ],
                    [
                        -0.8624941640778736,
                        0.3731654282305807,
                        -0.14204143615562925,
                        0.9395202401433054,
                        0.60015555365949,
                        0.8745365298989671,
                        -0.8957012623958791,
                        0.6904872829581092,
                        -0.5550631966041837,
                        0.3832686973646289,
                        0.7964718916864191,
                        0.8306233155076865,
                        -0.5550061466905952,
                        0.7530548379200503,
                        1.1419154565906549,
                        -0.766192532753174,
                        -0.9767338276612318,
                        -0.8326723202221471,
                        -0.20874583373121758,
                        0.21663086500950143
                    ],
                    [
                        -0.5330945993244041,
                        -1.030208816222468,
                        -0.15462037313241384,
                        0.7769237047175187,
                        -0.8499151625462522,
                        -0.3698614816514001,
                        -0.631504350855236,
                        -0.9541900155330756,
                        -0.1760504349323868,
                        -0.45972184869540755,
                        1.1382441196350355,
                        -0.7223294970041796,
                        1.0528543700079802,
                        0.8643977868301138,
                        0.40622658568482395,
                        0.5737617843975249,
                        0.7697515840868787,
                        -0.017735326568759424,
                        -0.6310118424482587,
                        -0.9510250745629794
                    ],
                    [
                        0.17328739873810006,
                        0.9394289059297039,
                        -0.5666921833200085,
                        -0.9305615412704842,
                        -0.2092728796096631,
                        0.8410482801699681,
                        0.25550899486507617,
                        -0.35440409751618906,
                        0.02325267402148088,
                        -0.7603683486259889,
                        0.47981801014543335,
                        0.24747466937187124,
                        0.524493133248942,
                        -0.5472276662516649,
                        0.9540589253851062,
                        0.5093018689030069,
                        0.9990564262884074,
                        -0.5047907189235963,
                        0.08543913948868953,
                        -0.12689254162137398
                    ],
                    [
                        0.22249545841234575,
                        0.9742227350272405,
                        -0.6291281468963288,
                        0.3305954261410453,
                        0.558018218823298,
                        0.3728927225610521,
                        -0.7148263709507243,
                        -0.38551864609260056,
                        -0.6424123390990104,
                        0.001292951436761447,
                        -0.01606836585469895,
                        0.028076475897270872,
                        0.35101491638929705,
                        -0.4814938720787503,
                        0.3009099068872101,
                        -0.2934108210333666,
                        -0.0460519854271344,
                        0.35019838848282236,
                        -0.581964904188482,
                        -0.36453492243422003
                    ],
                    [
                        0.9044113109007044,
                        -0.7071611157011066,
                        0.273310179535576,
                        0.402719816837533,
                        0.6948477573596585,
                        -0.09242312896189353,
                        -0.27964463117723826,
                        -0.038607590125285585,
                        0.290506173459707,
                        1.139455295131541,
                        1.071653831735001,
                        -0.6421497790653676,
                        0.3164950037153045,
                        0.3897331353404325,
                        -0.20524386427483154,
                        0.05606996814811849,
                        0.16034424786515822,
                        0.8612557510435328,
                        -0.39132217281557913,
                        0.44952927070207793
                    ],
                    [
                        -0.39598923187525226,
                        -0.8225615451872668,
                        -0.335099326757893,
                        0.39313842090172185,
                        -0.1205456597897967,
                        0.9327257613961886,
                        -0.5411743935636064,
                        -0.831020298096561,
                        0.01652024599050539,
                        0.5300270169572088,
                        -0.22376877687206975,
                        0.3026489242673911,
                        0.21456044452314438,
                        0.6972723974583173,
                        0.730790615864282,
                        0.3441735792467351,
                        -0.5787525236293295,
                        -0.45995838575105746,
                        0.7119039939457494,
                        -0.04121338726292888
                    ],
                    [
                        0.1424049173820645,
                        -0.9999138901545286,
                        0.2776773969587434,
                        -0.4921609205772252,
                        -0.38313909296449533,
                        0.7150498916424048,
                        -0.787473452450618,
                        0.3416418084164602,
                        0.6968853603511749,
                        0.5713387058076503,
                        0.2751176077437232,
                        0.08771234004600578,
                        0.14975972160259787,
                        -0.6999427360618291,
                        0.7058974270823146,
                        0.8412580720601319,
                        -0.6548550601494711,
                        -0.08305021366321497,
                        0.4303851702027681,
                        -0.17718739007527695
                    ],
                    [
                        0.31445491730006614,
                        0.5175577427729505,
                        0.4261204608403846,
                        -0.6315691922248804,
                        -0.4038345396423859,
                        -0.1736711239947779,
                        0.7486437796335077,
                        0.8933229148119999,
                        -0.8840284345173587,
                        0.43438220339940314,
                        0.4746962241282202,
                        -0.5014578972042925,
                        -0.37338052814365863,
                        0.8053264627533208,
                        -0.837225609151665,
                        0.32272992871327233,
                        -0.5067257772572729,
                        -0.10496914683274516,
                        0.6837441580457191,
                        -0.02353857261179848
                    ],
                    [
                        0.0879218615775692,
                        -0.3839386778119005,
                        -0.722411132887965,
                        -0.11507472076022363,
                        0.6036517833424784,
                        -0.20117980853980133,
                        -0.06423548488696507,
                        -0.6395226504520761,
                        0.5716863352829302,
                        -0.11951287024659152,
                        0.7050707453363985,
                        0.7436345190640592,
                        -0.026407887101794758,
                        0.0011065016632129526,
                        0.3236119958764654,
                        -0.5499243741263615,
                        0.10007382347503424,
                        -0.7541808966075718,
                        -0.6255295888371806,
                        -0.23288379225802347
                    ],
                    [
                        0.8164872197635149,
                        -0.5112184961189399,
                        -0.1234726764450862,
                        0.3149883783575327,
                        0.07245730864588817,
                        -0.5306874697638624,
                        -0.8942875730774682,
                        -0.7946485928250095,
                        -0.9675548040473145,
                        0.3119615494277682,
                        -0.799653229922276,
                        0.3055594330873559,
                        0.43346699641118747,
                        -0.7686209393608325,
                        0.4149959062430858,
                        -0.12342691691292917,
                        -0.9002567509449995,
                        0.2935129848138507,
                        0.9269801557358598,
                        -0.8851807750111214
                    ]
                ],
                [
                    [
                        0.7141154414996846,
                        0.6887677069637534,
                        -0.4207272020345243,
                        0.8097967802078119,
                        -0.6503251896352585,
                        0.625253855698494,
                        0.047848058120349896,
                        -0.8287603822044096,
                        0.8185202143630861,
                        0.3075031793438976
                    ],
                    [
                        -0.6099320686871745,
                        0.6088659769903964,
                        -0.5400396160644867,
                        -0.05492695227483435,
                        0.6445488454337722,
                        -0.6123473438711233,
                        -0.6415649683655105,
                        -0.23885930088878793,
                        -0.3566145871486306,
                        0.6964251121580043
                    ],
                    [
                        0.5379179240026317,
                        0.5349005834766904,
                        0.9380746583682211,
                        -0.45607531808650004,
                        0.23998634247756123,
                        0.5090193477991066,
                        -0.6093234966462924,
                        0.8532162284945664,
                        0.6918314597343931,
                        -0.7232977046726636
                    ],
                    [
                        -0.46592572292631074,
                        -0.3285543061070979,
                        0.59270672955688,
                        -0.3639145495273211,
                        0.6640504285223572,
                        0.8782431346563904,
                        0.6269746003817787,
                        -0.5299061846191642,
                        -0.6123523325990688,
                        1.0007151341197784
                    ],
                    [
                        -0.26734512026894275,
                        0.3049320776529276,
                        -0.4661820660916134,
                        0.4848784254315297,
                        0.5528440730663156,
                        0.05048865424324034,
                        0.10210609813975274,
                        0.18212189612750873,
                        -0.18423448250486008,
                        -0.5775710702809097
                    ],
                    [
                        0.697532715834937,
                        -0.5669627924739993,
                        -0.06386153257960925,
                        -0.3357124294588729,
                        0.7418782240884879,
                        0.542326371233427,
                        -0.8314216660173721,
                        0.8174630599713633,
                        -0.4621304834515103,
                        0.012386351561821884
                    ],
                    [
                        0.11588414360835708,
                        -0.019617948851371428,
                        -0.7055580320323369,
                        0.18502394766325803,
                        0.799334260527391,
                        -0.34373338342395504,
                        -0.21386608821579678,
                        -0.9678528506406798,
                        -0.9626347196633032,
                        -0.07142577047184484
                    ],
                    [
                        0.1401898545332252,
                        -0.6020658829262648,
                        0.20310733586294405,
                        0.18158714111619134,
                        -0.32896783780406946,
                        -0.4350504327750697,
                        -0.26287250975471754,
                        0.6954390700388602,
                        -0.4515017216212267,
                        -0.5493109510045489
                    ],
                    [
                        -0.1942416087583727,
                        -0.17173513404499818,
                        -0.07977388374580541,
                        -0.783711541842268,
                        0.5370632436097691,
                        0.856694244344194,
                        -0.2243491631980276,
                        -0.7154473577076677,
                        -0.533468792130908,
                        0.4784667431308822
                    ],
                    [
                        0.8469617855000868,
                        0.7655701696700401,
                        0.26125322494888437,
                        0.015743813455895816,
                        0.9666129575288936,
                        0.5574629503173771,
                        -0.454006190293601,
                        -0.2883100388966197,
                        -0.5136837355401218,
                        -0.26762060080201233
                    ],
                    [
                        -0.7104138242306399,
                        -0.14277929270009748,
                        0.18058809372529616,
                        -0.26491423015053317,
                        -0.8365767551116414,
                        -0.5639873737429837,
                        -0.04292072314850293,
                        0.1798502911045441,
                        0.280631471603102,
                        0.4718780102205741
                    ],
                    [
                        -0.4089528805174063,
                        -0.8563318616111837,
                        -0.5134534380460343,
                        -0.9493850891773514,
                        0.921093596163381,
                        -0.09214596456482704,
                        0.28599910678578466,
                        -0.1296958114957143,
                        0.005774891999349441,
                        -0.26883890156894535
                    ],
                    [
                        0.6516655932266793,
                        0.5067460149635526,
                        -0.15662828020132946,
                        0.4703535257053477,
                        0.534237760064378,
                        -0.4727010504697866,
                        -0.4012641078130772,
                        0.6569226226830336,
                        0.9198773340671655,
                        0.12147785423294044
                    ],
                    [
                        -0.20599747112795197,
                        -0.7449153502373369,
                        0.5200377286218294,
                        0.39525860367584964,
                        -0.9550953785986724,
                        0.6085417492358685,
                        -0.39736373292819405,
                        -0.8788683834973574,
                        0.886880408678955,
                        -0.7640429070380363
                    ],
                    [
                        0.6912988489158067,
                        0.2996859041379547,
                        0.23480196960813404,
                        0.7047209603285713,
                        -0.5283664245518891,
                        0.7517227408464924,
                        0.7207895428560485,
                        0.5023279285677877,
                        0.4648651297549049,
                        0.7772875268891224
                    ],
                    [
                        0.4483293823023519,
                        0.6787016200535212,
                        -0.39805273208975245,
                        0.3740595685206809,
                        -0.8964955283517213,
                        0.1178193719788129,
                        0.4154642434271718,
                        0.709352305773916,
                        0.23035236086698085,
                        0.9759306729828632
                    ],
                    [
                        -0.7668735984122885,
                        0.9251214719595653,
                        -0.7145479179467992,
                        -0.2262290163085776,
                        -0.02030893352061984,
                        0.8001292512238354,
                        -0.5069395923439854,
                        -0.72735648872308,
                        0.698261261447628,
                        0.3070390198045616
                    ],
                    [
                        -0.8137956622220404,
                        -0.4270924927857114,
                        -1.088724462826236,
                        0.12201477853639209,
                        0.9123016610065728,
                        0.4866193767981184,
                        -0.14170015585004012,
                        -0.7151685721253407,
                        -0.9735376930709712,
                        -0.7070582201112264
                    ],
                    [
                        -0.733072316628725,
                        0.049039782459128434,
                        0.762558826001429,
                        -0.8361928268917784,
                        -0.9269098429597002,
                        -0.7090360907576343,
                        0.8303840474456232,
                        -0.2168211323371968,
                        0.8800386628292317,
                        0.5461885226655216
                    ],
                    [
                        0.7948204749013321,
                        -0.6802148348444507,
                        0.8678379573583201,
                        0.16297452711463167,
                        -0.22947483939173874,
                        0.6772423910543561,
                        0.4709515143662675,
                        -0.2783641817644573,
                        -0.17401704101001836,
                        -0.3018365044586797
                    ]
                ],
                [
                    [
                        -0.621720854707644,
                        0.043446221768048465,
                        0.1200542744477624,
                        -0.29852213358104085
                    ],
                    [
                        -0.20438893605770286,
                        0.8470984646188886,
                        0.6445687195148097,
                        0.2639705318097463
                    ],
                    [
                        0.7439693081857971,
                        0.9049302329496847,
                        0.35978134820201246,
                        -0.9239978003119154
                    ],
                    [
                        0.33349737044172567,
                        0.07171444802520847,
                        0.36286022890796626,
                        0.029768372758756545
                    ],
                    [
                        0.4381087190855113,
                        0.41624478413854926,
                        0.9607712363363214,
                        -0.15315278091029355
                    ],
                    [
                        -0.663936953955494,
                        0.6543010654449575,
                        0.4704841657477694,
                        0.8359674857339123
                    ],
                    [
                        0.006110767042455834,
                        -0.8201691609738198,
                        -0.6291991829385529,
                        -0.7249436071341135
                    ],
                    [
                        -0.41949610440497165,
                        -0.7916922232681336,
                        -0.0979700360430833,
                        0.0026176699811091275
                    ],
                    [
                        -0.3279297608451244,
                        -0.024169376903069972,
                        0.18274511291065276,
                        0.6415736310729099
                    ],
                    [
                        0.370461054948122,
                        0.6148102342283086,
                        -0.33847284154092927,
                        0.22579386953214198
                    ]
                ]
            ]
        },
        {
            "id": 2,
            "score": 270,
            "steps": 904,
            "network_weights": [
                [
                    [
                        -0.5893021187232862,
                        -0.4692623424770156,
                        0.13393556089519576,
                        0.8387518795583258,
                        0.9863770686158595,
                        0.7234356486573787,
                        -0.20482155468311158,
                        0.5263631026253515,
                        -0.1842590169137721,
                        -0.02267815983390653,
                        0.596787313408512,
                        0.24569705320087354,
                        0.7502130786597612,
                        0.9893750120525362,
                        -0.025467672306091815,
                        -0.37507950671163437,
                        -1.0486235836250948,
                        0.9140139195632647,
                        0.5669897050893054,
                        0.7009688870695874
                    ],
                    [
                        -0.14728994585876531,
                        0.38814050875971096,
                        0.2139478596734067,
                        -0.0792843978332729,
                        0.4425740776119389,
                        0.550500886838156,
                        -0.7525734501434733,
                        0.543571160233947,
                        0.042111148215333793,
                        -0.6588077988498533,
                        -0.5116237190584274,
                        -0.7017993681155699,
                        -0.3668649762472733,
                        -0.46421678470124106,
                        0.2832712485526343,
                        0.5065197496163278,
                        -0.7551288727667549,
                        -0.3811812152388332,
                        -0.6572877193822522,
                        0.7039406516509208
                    ],
                    [
                        0.3819479837029873,
                        -0.03145332506497173,
                        -0.8609524646685296,
                        0.3031510258499055,
                        -0.7201237504124138,
                        0.8882489375572917,
                        0.8923610181271671,
                        0.2422943322025688,
                        0.5552270554936829,
                        -0.9122911465754546,
                        0.27349902289463746,
                        0.42857469641265844,
                        0.3645051160988644,
                        0.006686446227778729,
                        -0.45483409594586455,
                        -0.9566166865169334,
                        -0.42526073782058593,
                        -0.35572019923186304,
                        -0.10017308280219339,
                        0.4945730150526064
                    ],
                    [
                        -0.7548027208472801,
                        0.8448516637821251,
                        -0.23019550604554606,
                        0.7471710923928776,
                        -0.3652801959882924,
                        0.1481604102775067,
                        -0.9692933250124589,
                        -0.6338473937648247,
                        -0.9341173399584188,
                        0.9699439734636301,
                        0.5468451266210987,
                        -0.7003539514219842,
                        0.3070683833584138,
                        0.23301512454506412,
                        -0.3546768535043636,
                        -0.41662467157500715,
                        0.8933815692674429,
                        0.6438583135766202,
                        0.8910008506396785,
                        0.9910140802378491
                    ],
                    [
                        -0.8271197140306532,
                        0.40096292903852815,
                        -0.13542013587053492,
                        0.548717586832763,
                        -0.14806890676266304,
                        0.5046122680913683,
                        -0.94500782262235,
                        0.5725595515228568,
                        -0.9697560429875351,
                        -0.498035171365671,
                        -0.632574542727239,
                        -0.20615366124742013,
                        0.6018935392382183,
                        -0.8576043858239804,
                        -0.04336680070223231,
                        0.47178177607039307,
                        -0.7328605424471157,
                        0.6454411327260343,
                        -0.5547123031457315,
                        -0.027051795816189772
                    ],
                    [
                        0.6040502654742295,
                        -0.09009993007267411,
                        0.5521846822096728,
                        0.9992961799300388,
                        -0.3760283037242401,
                        0.09152954144484537,
                        0.1667850947282039,
                        -0.4813525305665174,
                        0.2777990762866933,
                        -0.4660743718436735,
                        -0.46269882563476594,
                        -0.5727836860681936,
                        0.15120386713172113,
                        -0.6875362834624501,
                        -0.624860703827713,
                        0.33149474759744235,
                        -0.7160672517901535,
                        -0.5274819881608341,
                        0.1476505824113803,
                        0.38301341224501506
                    ],
                    [
                        -0.7987737468108032,
                        -0.4492252213797694,
                        -0.14426864081567592,
                        0.8598171966532591,
                        0.8800281447882514,
                        -0.014076652964381098,
                        -0.8307019439335395,
                        0.666156445628266,
                        0.9635296646202247,
                        -0.7301839108334232,
                        0.8503926789137806,
                        -0.18259374125949868,
                        0.07357107879022395,
                        0.5204804700073192,
                        0.5356876424551869,
                        0.14896408764169888,
                        0.30746918144331903,
                        -0.6435102038996479,
                        0.7791952376531741,
                        0.6313183862109041
                    ],
                    [
                        0.1286231257831152,
                        -0.36059461303046375,
                        0.11028426487673126,
                        -0.3778504249280761,
                        0.5194046707016455,
                        0.5531930014272743,
                        0.702549055273944,
                        0.7508377883811034,
                        -0.025156435660384835,
                        0.5910740588343966,
                        -0.8397033162557916,
                        -0.355035581700621,
                        0.057494180340616916,
                        0.0738074947487288,
                        0.8724786246647452,
                        -0.9587584585044,
                        0.9307147711086055,
                        -0.8836390833957837,
                        0.5648940175089525,
                        0.7684581738295604
                    ],
                    [
                        0.489837648746962,
                        -1.030385352057732,
                        -0.35012622530288073,
                        0.9981448654205076,
                        0.895900029891179,
                        -0.9245607274521068,
                        -0.7411647030248716,
                        0.2468354209306547,
                        0.6112617921509971,
                        0.15096619443157544,
                        0.795357613090904,
                        -0.22912386688937314,
                        0.7273037069268142,
                        0.43735168428131965,
                        -0.30964035853680494,
                        0.6967670219709241,
                        -0.11785029455573248,
                        -0.09948836947412909,
                        0.41029196654376054,
                        0.07953061699629023
                    ],
                    [
                        0.3556334415745319,
                        0.32284213034883047,
                        0.04312302354756316,
                        0.3016272193773719,
                        -0.005379221244407706,
                        0.9324496454476462,
                        0.6839601407950588,
                        -0.5134283365553445,
                        0.48463880833638395,
                        -0.3247468147626651,
                        -0.6028559206716462,
                        0.9514361722520277,
                        -0.5097432637495434,
                        -0.4618803833566154,
                        0.15141957978138598,
                        0.30519020986778345,
                        -0.4518769356965253,
                        0.2888183911296601,
                        -0.6968803932764566,
                        0.2726207878518714
                    ],
                    [
                        0.7217266887213616,
                        -0.8504197681509593,
                        -0.21827330902200237,
                        0.2474758179902652,
                        0.29441562306175595,
                        0.21918751230703404,
                        -0.9537876908567516,
                        0.8293410528715419,
                        -0.13572448537487025,
                        0.4123511656057559,
                        0.01278771193301085,
                        -0.395251528492494,
                        -0.987352940983742,
                        0.2770203810155598,
                        0.2799085601683411,
                        -0.20842263668059768,
                        0.4280289626744014,
                        0.2579610902918199,
                        -0.2707718521360316,
                        0.2979255154203232
                    ],
                    [
                        -0.8624941640778736,
                        -0.18308530688251246,
                        -0.14204143615562925,
                        0.9673055442788389,
                        -0.6690826335386284,
                        0.8745365298989671,
                        -0.8957012623958791,
                        0.6900957608963305,
                        -0.5410406800136844,
                        0.3529041996649305,
                        0.7964718916864191,
                        0.9410215523306378,
                        -0.18477599175188208,
                        0.7530548379200503,
                        0.9193764917784804,
                        -0.6035551319574681,
                        0.24357888520911142,
                        -0.2364164438957697,
                        -0.20874583373121758,
                        0.23679262824042052
                    ],
                    [
                        -0.13458960820509325,
                        -0.9860149049136597,
                        -0.24212201191085458,
                        0.6731207006050046,
                        -0.2889145339929837,
                        0.5206701941317906,
                        -0.631504350855236,
                        -0.10521913815655903,
                        -0.7963816266683874,
                        -0.45972184869540755,
                        0.244233959786087,
                        0.6201326596588241,
                        1.0087814160752657,
                        -0.9684942029950862,
                        0.6155581558206786,
                        0.8777934589884295,
                        0.7697515840868787,
                        0.6643067578020814,
                        -0.6310118424482587,
                        -0.9510250745629794
                    ],
                    [
                        0.17328739873810006,
                        0.5498225967278356,
                        -0.8443526764892553,
                        -0.9746966385224276,
                        -0.2092728796096631,
                        0.8410482801699681,
                        0.40954266193852373,
                        0.9862997403706353,
                        -0.04691635866801258,
                        -0.6315155789418405,
                        0.47981801014543335,
                        0.24747466937187124,
                        0.524493133248942,
                        0.18879709820015078,
                        0.9540589253851062,
                        -0.9000662844469686,
                        0.9990564262884074,
                        0.7774107896754519,
                        0.08543913948868953,
                        -0.12689254162137398
                    ],
                    [
                        -0.6522121681233517,
                        0.9742227350272405,
                        -0.6291281468963288,
                        0.3305954261410453,
                        0.573643917973917,
                        0.3728927225610521,
                        0.3103880865592985,
                        -0.38551864609260056,
                        -0.6424123390990104,
                        0.8672955291000979,
                        0.12431452187889214,
                        0.028076475897270872,
                        0.9563778612416571,
                        -0.4814938720787503,
                        -0.7023293322561144,
                        0.07123835853614,
                        0.6918282007081926,
                        0.0377102669293079,
                        -0.581964904188482,
                        -0.36453492243422003
                    ],
                    [
                        0.6421250452391025,
                        -0.7071611157011066,
                        -0.623182176215952,
                        0.402719816837533,
                        0.35231461748488635,
                        -0.09242312896189353,
                        -0.27964463117723826,
                        -0.5573245565509699,
                        -0.51193849055415,
                        0.539467857890638,
                        -0.4469126109985869,
                        -0.711452829016983,
                        0.3164950037153045,
                        -1.0165193044628684,
                        -0.4735432176052863,
                        -0.4054945402378145,
                        0.16034424786515822,
                        0.8612557510435328,
                        -0.39132217281557913,
                        -0.5462191733572599
                    ],
                    [
                        -0.517336056763988,
                        -0.8225615451872668,
                        0.8352702915936923,
                        0.39313842090172185,
                        -0.04367222661955239,
                        0.9327257613961886,
                        -0.5411743935636064,
                        -0.7414588655475152,
                        0.01652024599050539,
                        0.5300270169572088,
                        -0.7744455826348334,
                        0.2500312396471266,
                        0.39678008837117673,
                        0.9462467804554757,
                        0.31147367038815954,
                        -0.6476017387879596,
                        0.47149799765965317,
                        -0.6252910480802348,
                        0.8192957505217112,
                        -0.04121338726292888
                    ],
                    [
                        -0.843658206031723,
                        -0.9999138901545286,
                        0.2776773969587434,
                        -0.8015498365295438,
                        -0.38313909296449533,
                        -0.4584282554708681,
                        0.25917816764351365,
                        0.5229813992830086,
                        -0.5243772034505727,
                        0.8262441919307473,
                        -0.002379343064439876,
                        -0.03943270827642623,
                        1.1046102968739382,
                        -0.6999427360618291,
                        -0.8926677789141154,
                        0.12543933801681972,
                        -0.5852282982936553,
                        0.09918125799553862,
                        0.022646654748468054,
                        -0.17718739007527695
                    ],
                    [
                        0.31445491730006614,
                        0.30890051510055705,
                        0.4261204608403846,
                        -0.43025527157014953,
                        -0.4038345396423859,
                        -0.08800904592359245,
                        0.7486437796335077,
                        0.8933229148119999,
                        -0.8705710699474669,
                        0.43438220339940314,
                        -0.7152022609800723,
                        -0.5014578972042925,
                        -0.4051088933000946,
                        0.8053264627533208,
                        -0.837225609151665,
                        0.32272992871327233,
                        -0.5067257772572729,
                        -0.10496914683274516,
                        0.6480989373500412,
                        0.01995033186109696
                    ],
                    [
                        -0.8876579635348525,
                        -0.9105487267271855,
                        -0.722411132887965,
                        -0.11507472076022363,
                        -0.32036507015513216,
                        0.5714484687659958,
                        -0.06423548488696507,
                        -0.6395226504520761,
                        0.5377256600761953,
                        -0.11951287024659152,
                        0.7050707453363985,
                        0.7436345190640592,
                        0.025035861619030042,
                        0.01835918328133923,
                        0.3236119958764654,
                        0.7260872625420137,
                        0.10007382347503424,
                        -0.7118424459415014,
                        -0.33886678684060456,
                        -0.40131412741325173
                    ],
                    [
                        0.8164872197635149,
                        -0.5112184961189399,
                        -0.1234726764450862,
                        0.3149883783575327,
                        0.07245730864588817,
                        0.07720069697425669,
                        -0.9262589886683565,
                        -0.3805653547984671,
                        -0.21491463596533378,
                        0.3119615494277682,
                        -0.6766583578529489,
                        0.8738000917367278,
                        0.43346699641118747,
                        -0.7686209393608325,
                        -0.07209168546860001,
                        -0.0798564846560851,
                        -0.9002567509449995,
                        0.2935129848138507,
                        0.8355531932262859,
                        -0.7729975806635485
                    ]
                ],
                [
                    [
                        -0.5427067892865585,
                        -0.9337493211187982,
                        -0.616475439612177,
                        -0.40335755762011916,
                        -0.36730949942836744,
                        -0.7384329123675257,
                        0.14321723316685428,
                        -0.8311579503352733,
                        0.8185202143630861,
                        0.4633559763601904
                    ],
                    [
                        -0.4965974171149177,
                        0.6088659769903964,
                        -0.5400396160644867,
                        -0.22621601684809078,
                        0.6445488454337722,
                        0.45561485627048026,
                        0.747474167578523,
                        0.6151363767075324,
                        -0.3566145871486306,
                        0.7883456862801892
                    ],
                    [
                        0.5764696041634536,
                        0.7584616515342797,
                        0.9380746583682211,
                        0.5327377895096923,
                        0.5871146952443329,
                        0.4776544028743577,
                        -0.23400501864875145,
                        0.8939635929946587,
                        0.6918314597343931,
                        -0.7232977046726636
                    ],
                    [
                        -0.08684387509597857,
                        -0.23017966943445667,
                        0.59270672955688,
                        -0.26645031675979447,
                        0.34894748349961613,
                        0.8782431346563904,
                        0.8553176784577667,
                        -0.5299061846191642,
                        0.8724238174003274,
                        0.8721244449616508
                    ],
                    [
                        -0.26734512026894275,
                        0.3049320776529276,
                        -0.5978697642252202,
                        0.3447050075334892,
                        0.834649691692962,
                        0.05048865424324034,
                        0.05028599714395049,
                        0.17151295122411359,
                        -0.019874115132976135,
                        -0.17790133942677044
                    ],
                    [
                        0.03608293766463655,
                        -0.5669627924739993,
                        -0.03947017935734451,
                        -0.3357124294588729,
                        0.7418782240884879,
                        0.542326371233427,
                        0.3051842194449996,
                        0.8174630599713633,
                        0.8575692313702787,
                        0.3359242492664003
                    ],
                    [
                        0.04562454271113951,
                        0.07424066467151191,
                        -0.867114408536533,
                        -0.9710192708194494,
                        0.799334260527391,
                        -0.42315302534432897,
                        -0.21386608821579678,
                        0.812106258867429,
                        -0.5840505501318272,
                        -0.07142577047184484
                    ],
                    [
                        0.1401898545332252,
                        -0.6020658829262648,
                        -0.8864355476317163,
                        -0.6342545233235084,
                        -0.3626409125863596,
                        -0.020708668927051477,
                        -0.26287250975471754,
                        0.6954390700388602,
                        0.4236182684704208,
                        -0.5493109510045489
                    ],
                    [
                        -0.1942416087583727,
                        -0.17173513404499818,
                        -0.14252205565597387,
                        -0.8175756866463753,
                        0.7977921865166453,
                        0.6207452923052101,
                        -0.2243491631980276,
                        -0.6948439780583937,
                        -0.5365533624612675,
                        0.4129180349786703
                    ],
                    [
                        0.8469617855000868,
                        0.7346746847863406,
                        0.6394783142886122,
                        0.015743813455895816,
                        0.3075003770569371,
                        0.5574629503173771,
                        -0.454006190293601,
                        -0.9342597033338429,
                        -0.5912363785103144,
                        -0.26762060080201233
                    ],
                    [
                        -0.7104138242306399,
                        0.5917953677831811,
                        0.18058809372529616,
                        -0.344321298590264,
                        -0.8365767551116414,
                        0.4713145188424688,
                        -0.22309483218654622,
                        0.1862340792557297,
                        -0.6943314457439878,
                        -0.6109095648118601
                    ],
                    [
                        -0.4089528805174063,
                        -0.8563318616111837,
                        -0.6432325089253097,
                        -0.9493850891773514,
                        0.7402999966888544,
                        0.976604158862598,
                        0.22288287540583274,
                        -0.19915658370830203,
                        -0.16573324694620983,
                        -0.41436400204208756
                    ],
                    [
                        0.5528365829463455,
                        0.055731473754874236,
                        -0.6669651105920711,
                        -0.05515511073186885,
                        0.527326388858602,
                        -0.4727010504697866,
                        -0.4012641078130772,
                        -0.4175803007506127,
                        0.9198773340671655,
                        -0.29031236054022314
                    ],
                    [
                        -0.37955068286918725,
                        0.6500116390096944,
                        0.5200377286218294,
                        0.39525860367584964,
                        -0.9550953785986724,
                        0.46400789301868484,
                        -0.3622132057922934,
                        -0.8788683834973574,
                        0.886880408678955,
                        -0.7640429070380363
                    ],
                    [
                        -0.543997905715897,
                        0.2996859041379547,
                        0.23480196960813404,
                        0.506740341477494,
                        -0.03868492291363146,
                        0.7628588752857837,
                        0.6448463673157367,
                        0.3351669203543628,
                        0.1692015710407362,
                        0.7772875268891224
                    ],
                    [
                        0.4483293823023519,
                        0.6787016200535212,
                        -0.24092334389746095,
                        0.21152875458436027,
                        -0.8645963396529408,
                        0.05858170067303092,
                        0.4154642434271718,
                        -0.20148705102253262,
                        -0.01784744148591988,
                        0.9102625736322547
                    ],
                    [
                        -0.7668735984122885,
                        0.9251214719595653,
                        -0.6871874058313792,
                        -0.2262290163085776,
                        -0.8805194767782023,
                        -0.5843575783467201,
                        -0.650333450403259,
                        -0.2779149352544916,
                        0.7070978418153812,
                        0.727327336884785
                    ],
                    [
                        -0.8164825598299738,
                        0.6249274131766042,
                        0.30594304800011196,
                        0.12201477853639209,
                        -0.17497271503463696,
                        0.4866193767981184,
                        -0.2916705680665547,
                        -0.5552540074868166,
                        -0.9735376930709712,
                        -0.9100937412642061
                    ],
                    [
                        0.6021961362758101,
                        0.049039782459128434,
                        -0.11766083750661466,
                        -0.8361928268917784,
                        0.8965926892168581,
                        -0.24806018579078892,
                        0.8303840474456232,
                        0.14290619401432858,
                        0.4830578494103035,
                        0.552449089309717
                    ],
                    [
                        0.7948204749013321,
                        -0.7831020624756908,
                        -0.5781563522368938,
                        0.16297452711463167,
                        -0.14067816031045596,
                        0.31071013478287024,
                        -0.8227679144089701,
                        0.6642689795796226,
                        -0.17401704101001836,
                        -0.3018365044586797
                    ]
                ],
                [
                    [
                        -0.6634487384786738,
                        0.043446221768048465,
                        -0.47170523648356544,
                        -0.539947463078509
                    ],
                    [
                        -0.20438893605770286,
                        0.8470984646188886,
                        0.551587715976048,
                        0.07911133944293591
                    ],
                    [
                        -0.8026446937987417,
                        0.9049302329496847,
                        -0.9461079166064321,
                        -0.9239978003119154
                    ],
                    [
                        -1.0272851513763852,
                        -0.6863397504538007,
                        0.36113107876417394,
                        0.053801890612164144
                    ],
                    [
                        0.4381087190855113,
                        0.18270539912268058,
                        0.9607712363363214,
                        -0.3076715571170466
                    ],
                    [
                        -0.663936953955494,
                        0.7156247505578879,
                        0.4704841657477694,
                        0.8359674857339123
                    ],
                    [
                        0.6403052622416576,
                        -0.8201691609738198,
                        0.22779933717302314,
                        -0.035166031468808034
                    ],
                    [
                        -0.41949610440497165,
                        0.2331825770564071,
                        -0.6565344545859686,
                        0.0026176699811091275
                    ],
                    [
                        -0.8944554212428024,
                        0.89867567658129,
                        0.2335826606032429,
                        -0.2777186098107167
                    ],
                    [
                        0.370461054948122,
                        0.6148102342283086,
                        -0.3414598561473855,
                        0.22579386953214198
                    ]
                ]
            ]
        },
        {
            "id": 3,
            "score": 240,
            "steps": 859,
            "network_weights": [
                [
                    [
                        -0.6065722739047612,
                        -0.5112154879836912,
                        0.16942347694693694,
                        0.7517180161965008,
                        0.9863770686158595,
                        0.6552139318332268,
                        0.19526974289683385,
                        0.70673236621746,
                        -0.1842590169137721,
                        -0.02267815983390653,
                        0.596787313408512,
                        0.24569705320087354,
                        -0.404896168421903,
                        0.46217323780202424,
                        0.17113939445539827,
                        -0.37507950671163437,
                        0.44466928428480124,
                        0.8382733353968876,
                        0.7497354167096666,
                        0.7009688870695874
                    ],
                    [
                        -0.14728994585876531,
                        0.4822939068969939,
                        -0.2231873912900016,
                        -0.0792843978332729,
                        0.4425740776119389,
                        0.6768256389536345,
                        -0.577716574964888,
                        0.4680466461850616,
                        0.08484696963138971,
                        -0.6588077988498533,
                        -0.5116237190584274,
                        -0.7017993681155699,
                        -0.28686316757210667,
                        -0.45860244989501814,
                        0.37993679514307666,
                        0.18640813228291897,
                        -0.7551288727667549,
                        -0.8401278871118276,
                        -0.6572877193822522,
                        0.7039406516509208
                    ],
                    [
                        0.3819479837029873,
                        -0.10629638925525264,
                        -0.287615736222973,
                        -0.12445584623320777,
                        -0.3526969554061339,
                        0.8882489375572917,
                        0.8740154837556913,
                        0.9409755623054362,
                        0.5622361618991314,
                        -0.8614482625733648,
                        0.27349902289463746,
                        -0.7389329296457701,
                        0.3645051160988644,
                        -0.7361969358766454,
                        -0.581496356218818,
                        -0.9566166865169334,
                        0.08392582607482679,
                        -0.35572019923186304,
                        -0.07329267000734818,
                        0.612907967176446
                    ],
                    [
                        -0.7548027208472801,
                        -0.8646209902886987,
                        -0.19263777771681845,
                        0.004253564120736478,
                        -0.3652801959882924,
                        0.1481604102775067,
                        -0.9692933250124589,
                        -0.6804019257597269,
                        0.32683231194605145,
                        -0.8379571715690651,
                        0.5500808543988829,
                        0.6202481149021359,
                        0.1639516323976864,
                        0.23301512454506412,
                        -0.09107798004812051,
                        0.8399028584915318,
                        0.3824068517383665,
                        0.5903441061313139,
                        -0.1995457179855411,
                        0.9910140802378491
                    ],
                    [
                        -0.7084939331294149,
                        0.34248576454671975,
                        -0.2490242712887487,
                        0.548717586832763,
                        -0.7760460038004413,
                        0.5046122680913683,
                        -0.94500782262235,
                        0.6336719499145662,
                        -0.9697560429875351,
                        -0.5020916575581533,
                        -0.7378241539769235,
                        -0.09365903114486906,
                        0.6018935392382183,
                        -0.8576043858239804,
                        -0.07593047716449375,
                        -0.3307544852588846,
                        -0.7328605424471157,
                        -0.6917790952144259,
                        -0.052610385256959075,
                        -0.22460874484907767
                    ],
                    [
                        0.6040502654742295,
                        -0.10594187976701819,
                        0.5521846822096728,
                        0.9992961799300388,
                        0.5861732495265124,
                        0.7297147376865307,
                        0.1667850947282039,
                        -0.6401532488583019,
                        0.2777990762866933,
                        -0.4660743718436735,
                        -0.46269882563476594,
                        -0.5727836860681936,
                        0.15120386713172113,
                        0.18917087559762336,
                        -0.624860703827713,
                        0.33149474759744235,
                        -0.7251337340766393,
                        -0.517344410793532,
                        0.5176806449164255,
                        0.31517588374465716
                    ],
                    [
                        -0.7987737468108032,
                        -0.4492252213797694,
                        -0.14918607973265113,
                        0.24541547674246902,
                        0.8645832971297249,
                        -0.8160043522376832,
                        -0.5389489085791619,
                        -0.03385641620970126,
                        0.8722471975687662,
                        -0.6229446263137111,
                        -0.3671363877170817,
                        -0.18259374125949868,
                        0.051087268812442306,
                        0.6071309364830382,
                        0.5356876424551869,
                        0.14896408764169888,
                        -0.3282698681751679,
                        -0.7912841559169029,
                        0.962160981186711,
                        0.5265293601238756
                    ],
                    [
                        0.1286231257831152,
                        -0.21094418480244453,
                        0.11028426487673126,
                        -0.3778504249280761,
                        0.5194046707016455,
                        0.5531930014272743,
                        0.702549055273944,
                        0.7508377883811034,
                        -0.025156435660384835,
                        -0.6318133740868572,
                        -0.7903212466418914,
                        1.1448198550016317,
                        0.1258402049970586,
                        0.0738074947487288,
                        -0.7227117569614476,
                        0.9695159389250243,
                        1.016033769628717,
                        -0.8836390833957837,
                        0.5098145131030203,
                        0.7684581738295604
                    ],
                    [
                        0.489837648746962,
                        -0.7002955093880607,
                        0.8627344944223165,
                        0.9693811169397516,
                        0.895900029891179,
                        -0.9245607274521068,
                        -0.7411647030248716,
                        -0.8003694566737356,
                        0.6112617921509971,
                        0.15096619443157544,
                        0.3717697075719973,
                        -0.060304416897823204,
                        0.7273037069268142,
                        0.2995232310136873,
                        -0.2631757305134439,
                        -0.13127821326063072,
                        -0.11785029455573248,
                        0.06265613091521882,
                        0.23544907626429024,
                        -0.00819978912721897
                    ],
                    [
                        0.3556334415745319,
                        0.8560421981033284,
                        0.1496524656010978,
                        0.3016272193773719,
                        -0.17484855852652226,
                        0.9324496454476462,
                        -0.867358417164553,
                        -0.5134283365553445,
                        0.48463880833638395,
                        0.286617875672851,
                        -0.5520211148839617,
                        -0.022859736339136155,
                        -0.6949023827373533,
                        0.5698774879966457,
                        -0.903730301497071,
                        0.22224078703297856,
                        -0.5234173117112638,
                        0.3506206962352524,
                        -0.6780809022800482,
                        -0.9678125914559422
                    ],
                    [
                        -0.05258494442660089,
                        -0.9445017365476676,
                        -0.21827330902200237,
                        0.2474758179902652,
                        0.5375871099495952,
                        0.15271981781384558,
                        -0.9836865068231124,
                        0.8293410528715419,
                        0.44933236971179036,
                        -0.39599679329993653,
                        -0.2658934545149165,
                        -0.395251528492494,
                        -0.9391440208609635,
                        0.2770203810155598,
                        -0.9410944301128159,
                        -0.20842263668059768,
                        -0.5349507429529652,
                        0.2579610902918199,
                        0.11313273616303086,
                        0.40051505604838167
                    ],
                    [
                        0.08331769825425583,
                        0.250321697920282,
                        -0.14204143615562925,
                        1.0200338356455345,
                        -0.8516672384026667,
                        0.8745365298989671,
                        -0.8957012623958791,
                        0.6900957608963305,
                        -0.5550631966041837,
                        0.3832686973646289,
                        0.7964718916864191,
                        0.9410215523306378,
                        -0.5550061466905952,
                        0.8678411886949515,
                        0.9111084526967552,
                        -0.766192532753174,
                        -0.9767338276612318,
                        -0.2364164438957697,
                        -0.20874583373121758,
                        0.21663086500950143
                    ],
                    [
                        -0.13458960820509325,
                        -0.2842514536424905,
                        -0.15462037313241384,
                        0.6731207006050046,
                        -0.8499151625462522,
                        0.5206701941317906,
                        -0.631504350855236,
                        -0.026591266187663744,
                        -0.8062344297442389,
                        -0.45972184869540755,
                        0.9045224211903582,
                        -0.7223294970041796,
                        1.0528543700079802,
                        0.8643977868301138,
                        0.40622658568482395,
                        0.5737617843975249,
                        0.7697515840868787,
                        -0.017735326568759424,
                        -0.6310118424482587,
                        -0.9510250745629794
                    ],
                    [
                        0.17328739873810006,
                        0.8341630770108723,
                        0.25213470537977467,
                        -0.9305615412704842,
                        -0.2092728796096631,
                        0.8410482801699681,
                        0.25550899486507617,
                        0.9862997403706353,
                        -0.014357687326076896,
                        -0.6315155789418405,
                        -0.07689242596206669,
                        0.24747466937187124,
                        0.524493133248942,
                        0.18879709820015078,
                        -0.12375092976001212,
                        0.6538462238872336,
                        0.9990564262884074,
                        0.7774107896754519,
                        0.08543913948868953,
                        -0.12689254162137398
                    ],
                    [
                        0.22249545841234575,
                        -0.8761911022377553,
                        -0.6291281468963288,
                        0.3305954261410453,
                        0.573643917973917,
                        0.3728927225610521,
                        0.8682947407100147,
                        -0.38551864609260056,
                        0.5324441404870223,
                        0.8672955291000979,
                        0.12431452187889214,
                        0.028076475897270872,
                        0.35101491638929705,
                        -0.4814938720787503,
                        -0.7023293322561144,
                        0.07123835853614,
                        0.8388539327696183,
                        0.26849077990934855,
                        0.19037284895316542,
                        -0.36453492243422003
                    ],
                    [
                        0.6421250452391025,
                        0.4302147024969176,
                        0.273310179535576,
                        -0.49322271439674004,
                        0.6948477573596585,
                        -0.09242312896189353,
                        -0.27964463117723826,
                        0.8458509737284228,
                        0.290506173459707,
                        1.0083088277355174,
                        -0.5302549400461685,
                        -0.6421497790653676,
                        0.3164950037153045,
                        0.09711904182999564,
                        -0.14539293931659542,
                        0.05606996814811849,
                        0.5914290247460159,
                        0.8612557510435328,
                        -0.3479600596437824,
                        0.44952927070207793
                    ],
                    [
                        -0.39598923187525226,
                        -0.8225615451872668,
                        0.30614863393230163,
                        0.9735681849173907,
                        -0.1205456597897967,
                        0.9327257613961886,
                        -0.5411743935636064,
                        -0.7915640407848696,
                        0.01652024599050539,
                        -0.7907398218894159,
                        -0.22376877687206975,
                        0.2500312396471266,
                        0.21456044452314438,
                        0.6972723974583173,
                        0.730790615864282,
                        -0.6476017387879596,
                        0.47149799765965317,
                        -0.7645813945026105,
                        -0.0942553083093883,
                        -0.04121338726292888
                    ],
                    [
                        -0.843658206031723,
                        0.41794272957464385,
                        0.2776773969587434,
                        -0.6192044890965276,
                        -0.38313909296449533,
                        0.8368143221390858,
                        -0.787473452450618,
                        0.3416418084164602,
                        0.6064423510481608,
                        0.8262441919307473,
                        -0.002379343064439876,
                        -0.045306838424660656,
                        0.14975972160259787,
                        -0.7322791630534093,
                        -0.8016621334156029,
                        0.8412580720601319,
                        -0.5828527996859255,
                        -0.08305021366321497,
                        0.4303851702027681,
                        -0.17718739007527695
                    ],
                    [
                        -0.8329414591483404,
                        0.5175577427729505,
                        0.4261204608403846,
                        -0.5191207701635973,
                        -0.4038345396423859,
                        -0.1736711239947779,
                        0.7486437796335077,
                        0.8933229148119999,
                        -0.8705710699474669,
                        -0.060411612181883845,
                        -0.7152022609800723,
                        -0.5014578972042925,
                        -0.37338052814365863,
                        0.8053264627533208,
                        -0.837225609151665,
                        0.500988365108717,
                        -0.5283049087856575,
                        -0.10496914683274516,
                        0.6480989373500412,
                        -0.02353857261179848
                    ],
                    [
                        0.0879218615775692,
                        -0.3839386778119005,
                        -0.722411132887965,
                        -0.5811141179809614,
                        0.6036517833424784,
                        -0.20117980853980133,
                        -0.06423548488696507,
                        -0.7669771003227279,
                        0.5404560150700637,
                        -0.11951287024659152,
                        0.7050707453363985,
                        0.23778550861561976,
                        0.025035861619030042,
                        0.0011065016632129526,
                        0.3236119958764654,
                        -0.5499243741263615,
                        0.10007382347503424,
                        -0.5929942297201469,
                        -0.6255295888371806,
                        -0.6937596999819695
                    ],
                    [
                        -0.21573721712697536,
                        -0.5112184961189399,
                        -0.1234726764450862,
                        0.3149883783575327,
                        0.005323148235047592,
                        -0.5306874697638624,
                        -0.8942875730774682,
                        -0.7946485928250095,
                        -1.0567569934797767,
                        0.17827233751564617,
                        -0.7872330101717453,
                        0.8738000917367278,
                        0.9134839914464346,
                        -0.8424531712210455,
                        0.47785969712565945,
                        -0.12342691691292917,
                        -0.9002567509449995,
                        0.2935129848138507,
                        0.23250297688690713,
                        -0.8851807750111214
                    ]
                ],
                [
                    [
                        -0.4073519051763921,
                        0.7197220650933545,
                        -0.4207272020345243,
                        -0.40335755762011916,
                        -0.6689603079870539,
                        -0.4380240463907086,
                        0.14321723316685428,
                        0.3591280166822326,
                        0.8185202143630861,
                        0.3075031793438976
                    ],
                    [
                        0.2750634616901224,
                        0.6088659769903964,
                        -0.38945506789792617,
                        -0.05492695227483435,
                        0.6445488454337722,
                        0.45561485627048026,
                        -0.6415649683655105,
                        -0.2645662137233167,
                        -0.2949627644734406,
                        0.7883456862801892
                    ],
                    [
                        -0.9307617908957266,
                        0.7966178110121793,
                        0.8562468292779777,
                        -0.45607531808650004,
                        0.5871146952443329,
                        0.4776544028743577,
                        -0.6093234966462924,
                        0.8532162284945664,
                        0.6918314597343931,
                        -0.7232977046726636
                    ],
                    [
                        -0.7069946244791048,
                        0.7040033541195843,
                        0.59270672955688,
                        -0.26645031675979447,
                        0.6640504285223572,
                        0.8782431346563904,
                        0.7327887613612971,
                        -0.5299061846191642,
                        0.8724238174003274,
                        0.8721244449616508
                    ],
                    [
                        -0.26734512026894275,
                        0.4459572935628269,
                        -0.4661820660916134,
                        0.4848784254315297,
                        0.12913066396904083,
                        0.05048865424324034,
                        -0.6069218921280974,
                        -0.3524583064418295,
                        -0.18423448250486008,
                        -0.5654045152320799
                    ],
                    [
                        0.6806835917553951,
                        -0.8373355084183396,
                        -0.06386153257960925,
                        -0.36931849418065155,
                        0.7418782240884879,
                        0.542326371233427,
                        -0.8314216660173721,
                        0.8174630599713633,
                        0.8575692313702787,
                        0.012386351561821884
                    ],
                    [
                        0.15993112198058945,
                        0.07424066467151191,
                        -0.867114408536533,
                        0.005338833497463558,
                        0.799334260527391,
                        -0.5388763766109244,
                        -0.21386608821579678,
                        -0.9678528506406798,
                        -0.5840505501318272,
                        -0.6197767320985879
                    ],
                    [
                        0.1401898545332252,
                        -0.6020658829262648,
                        0.20310733586294405,
                        0.18158714111619134,
                        0.5438371823400063,
                        -0.4350504327750697,
                        -0.26287250975471754,
                        0.6954390700388602,
                        0.4236182684704208,
                        -0.2304178105871484
                    ],
                    [
                        -0.1942416087583727,
                        -0.17173513404499818,
                        0.7156751310910976,
                        -0.6987140387291201,
                        0.7471339107364418,
                        0.856694244344194,
                        -0.2243491631980276,
                        0.3797966326686423,
                        -0.5365533624612675,
                        0.3288362701449865
                    ],
                    [
                        0.8469617855000868,
                        0.7346746847863406,
                        0.8278514229741921,
                        0.015743813455895816,
                        -0.43371539053414665,
                        0.5574629503173771,
                        -0.454006190293601,
                        -0.7194239956638295,
                        0.8799904829763625,
                        -0.37974075492962256
                    ],
                    [
                        -0.7104138242306399,
                        -0.14277929270009748,
                        0.18058809372529616,
                        -0.26491423015053317,
                        -0.7943378869823328,
                        -0.5639873737429837,
                        -0.9970174832086365,
                        -0.6996426710120858,
                        0.280631471603102,
                        -0.6109095648118601
                    ],
                    [
                        -0.4089528805174063,
                        -1.0343883402725103,
                        -0.5134534380460343,
                        -0.9493850891773514,
                        -0.46743297485153823,
                        0.9879634578505001,
                        0.9665273935241043,
                        -0.1296958114957143,
                        0.005774891999349441,
                        0.5280227189288994
                    ],
                    [
                        0.5056820741457999,
                        0.14149193192570286,
                        -0.15662828020132946,
                        0.4703535257053477,
                        0.534237760064378,
                        -0.4727010504697866,
                        -0.7909710087433235,
                        0.6569226226830336,
                        0.9393797068050436,
                        -0.29031236054022314
                    ],
                    [
                        -0.20599747112795197,
                        0.8419415271303954,
                        0.5200377286218294,
                        0.39525860367584964,
                        -0.9550953785986724,
                        0.6085417492358685,
                        -0.47817711996954637,
                        -0.8788683834973574,
                        0.886880408678955,
                        -0.7640429070380363
                    ],
                    [
                        -0.543997905715897,
                        0.21025122738947055,
                        -0.1575953627306479,
                        0.7047209603285713,
                        -0.5283664245518891,
                        0.6646475670216972,
                        -0.40021719241451725,
                        0.3351669203543628,
                        0.4739523507322694,
                        -0.36158317951699637
                    ],
                    [
                        0.4483293823023519,
                        0.6787016200535212,
                        -0.24092334389746095,
                        0.21152875458436027,
                        -0.8964955283517213,
                        0.7099332649583145,
                        0.08595095673652486,
                        -0.5160335112268919,
                        -0.03739502816497153,
                        0.6435122829453372
                    ],
                    [
                        -0.7668735984122885,
                        0.9251214719595653,
                        -0.826708153040203,
                        -0.2262290163085776,
                        -0.02030893352061984,
                        0.7766421374283856,
                        -0.650333450403259,
                        -0.2779149352544916,
                        0.9217644118752455,
                        0.6833687745929956
                    ],
                    [
                        -0.8137956622220404,
                        -0.4270924927857114,
                        -0.6557784613079707,
                        0.4823566541969056,
                        -0.17497271503463696,
                        0.4866193767981184,
                        -0.6304011533593208,
                        -0.5881891810246644,
                        -0.9735376930709712,
                        -0.9100937412642061
                    ],
                    [
                        -0.733072316628725,
                        0.049039782459128434,
                        0.9675576945477976,
                        -0.8361928268917784,
                        0.8965926892168581,
                        -0.24806018579078892,
                        0.8303840474456232,
                        -0.17900284426941893,
                        0.991853004084839,
                        0.552449089309717
                    ],
                    [
                        0.7948204749013321,
                        -0.6802148348444507,
                        -0.5781563522368938,
                        -0.485971662286513,
                        -0.4373976008769829,
                        0.31071013478287024,
                        -0.8797890044084187,
                        -0.2783641817644573,
                        -0.18440381164154168,
                        0.4315779636689987
                    ]
                ],
                [
                    [
                        -0.621720854707644,
                        0.043446221768048465,
                        0.1200542744477624,
                        -0.29852213358104085
                    ],
                    [
                        -0.20438893605770286,
                        0.8470984646188886,
                        0.4139754738334316,
                        0.07911133944293591
                    ],
                    [
                        -0.9142034201390257,
                        0.9049302329496847,
                        -0.9461079166064321,
                        -0.9239978003119154
                    ],
                    [
                        -1.1144931999602157,
                        -0.6489997673782606,
                        0.36113107876417394,
                        0.029768372758756545
                    ],
                    [
                        0.4381087190855113,
                        0.41624478413854926,
                        0.9323188329577758,
                        -0.15315278091029355
                    ],
                    [
                        -0.663936953955494,
                        0.6543010654449575,
                        0.4704841657477694,
                        0.8579463128153908
                    ],
                    [
                        0.6403052622416576,
                        -0.8201691609738198,
                        0.22779933717302314,
                        -0.7249436071341135
                    ],
                    [
                        -0.41949610440497165,
                        -0.46106956586517145,
                        0.6811184876999787,
                        0.0026176699811091275
                    ],
                    [
                        -0.3279297608451244,
                        0.89867567658129,
                        0.18274511291065276,
                        0.687263819988138
                    ],
                    [
                        0.370461054948122,
                        0.6148102342283086,
                        -0.33847284154092927,
                        0.22579386953214198
                    ]
                ]
            ]
        },
        {
            "id": 4,
            "score": 200,
            "steps": 634,
            "network_weights": [
                [
                    [
                        -0.5554676870175373,
                        -0.45689687663018264,
                        0.13393556089519576,
                        0.8387518795583258,
                        -0.5180257533192669,
                        0.7234356486573787,
                        -0.20482155468311158,
                        0.5263631026253515,
                        -0.1842590169137721,
                        -0.02267815983390653,
                        0.596787313408512,
                        0.24569705320087354,
                        0.7716304754115596,
                        0.46217323780202424,
                        -0.025467672306091815,
                        -0.6053293661669223,
                        -0.9843350036855798,
                        0.10006156046827641,
                        0.7497354167096666,
                        0.7009688870695874
                    ],
                    [
                        -0.14728994585876531,
                        0.11680251365689816,
                        -0.089035371732188,
                        0.4541736501662266,
                        0.5083321106763441,
                        0.8185269313546564,
                        -0.7380157677026464,
                        0.543571160233947,
                        0.042111148215333793,
                        -0.4744149674443223,
                        -0.4830971947809841,
                        -0.6380555952213101,
                        -0.366699349620049,
                        -0.46421678470124106,
                        0.49420995978841065,
                        0.5065197496163278,
                        -0.7551288727667549,
                        -0.8401278871118276,
                        -0.6572877193822522,
                        0.7039406516509208
                    ],
                    [
                        0.3819479837029873,
                        -0.03145332506497173,
                        -0.287615736222973,
                        -0.13930243838743261,
                        -0.14240356894351613,
                        0.8882489375572917,
                        -0.19225055925477474,
                        0.2422943322025688,
                        0.23309537164896832,
                        -0.9122911465754546,
                        0.27349902289463746,
                        -0.9641140132976149,
                        0.3645051160988644,
                        0.006686446227778729,
                        -0.3348417595364245,
                        -0.9566166865169334,
                        0.08392582607482679,
                        -0.35572019923186304,
                        -0.10017308280219339,
                        0.2876384443197004
                    ],
                    [
                        -0.7548027208472801,
                        -0.8135356158038525,
                        -0.331841961269312,
                        -0.07342326255789788,
                        0.210303768698406,
                        0.1481604102775067,
                        0.9734526754413717,
                        -0.626601800564718,
                        -0.7232345437631404,
                        0.9806414647122721,
                        0.5500808543988829,
                        0.3368291330087184,
                        0.1639516323976864,
                        0.2024403407069748,
                        -0.4511513173990018,
                        -0.07529019789375117,
                        0.8933815692674429,
                        0.8588523609721186,
                        0.7817272699874543,
                        0.9910140802378491
                    ],
                    [
