{
    "total_evaluated": 80,
    "ai_results": [
        {
            "id": 1,
            "score": 300,
            "steps": 844,
            "network_weights": [
                [
                    [
                        -0.3150048304135583,
                        -0.42874611579571753,
                        0.09213264498699801,
                        -0.5333672992182035,
                        0.9387543086159678,
                        -0.6542371157349758,
                        0.6556752261415731,
                        -0.8529558492684612,
                        -0.6753014783607809,
                        0.9731486359314618,
                        0.7469798947389474,
                        -0.43965849692183645,
                        -0.3476767708813635,
                        0.9431608715883577,
                        0.9447647952136375,
                        0.9735144525380777,
                        -0.5201561832839414,
                        0.8513672581431616,
                        -0.7367747675837384,
                        -0.38778547222651527
                    ],
                    [
                        0.204467166622059,
                        -0.6955539160027919,
                        0.2494796310617753,
                        0.786919479442745,
                        -0.016595869654093445,
                        0.5688984295900543,
                        0.11619985859642656,
                        -0.3729515366773768,
                        -0.12521432570554925,
                        -0.5788017577299256,
                        0.7274773813184812,
                        -0.7882410404683862,
                        0.8731446323356938,
                        -0.3555680492468707,
                        -0.2683050485723524,
                        -0.8404628587145793,
                        0.43510595040751165,
                        -0.44831654051773406,
                        -0.12513599784583485,
                        -0.8221279068783719
                    ],
                    [
                        0.3648443070350953,
                        0.7239051678476023,
                        -0.039353232238060976,
                        -0.22261634993277918,
                        0.8465389079165764,
                        0.6986119905168111,
                        0.36351907527585126,
                        -0.6723568886094806,
                        -0.42990371228051444,
                        0.9196829173891115,
                        -0.9444609632952121,
                        -0.6768472875492596,
                        -0.05703970226746491,
                        0.508004576907205,
                        -0.9927402112915402,
                        -0.8034907360773599,
                        -1.09264632709881,
                        0.6191807972910206,
                        -0.5443372489263101,
                        -0.1336649871004052
                    ],
                    [
                        -0.4732307041263253,
                        0.5810015337720336,
                        -0.4305627972600876,
                        -0.6856358128688358,
                        -0.595355610788213,
                        -0.09251768804146909,
                        -0.793494977819164,
                        -0.14008837277827402,
                        -0.7220883735991797,
                        0.6653777323337677,
                        -0.6003818785652677,
                        0.23972233457493508,
                        0.2025586637214265,
                        0.6607119476043308,
                        0.7965017924380118,
                        0.04946664346004592,
                        0.8090872227106607,
                        0.5757879985141965,
                        0.5378119206219363,
                        0.4827407791176985
                    ],
                    [
                        0.244069954811158,
                        0.7046510864520992,
                        0.25501615220324303,
                        -0.05177048311707955,
                        -0.8837083156810239,
                        -0.5731208622254111,
                        -0.023387887663568696,
                        -0.0599948376226882,
                        -0.3972182384204066,
                        -0.6371996373020468,
                        -0.9845060585007912,
                        0.8931265395481489,
                        -0.8163241871741517,
                        -0.5419449024353609,
                        0.054348656943552065,
                        -0.13823588626559258,
                        -0.29735688293123785,
                        -0.12435448728070053,
                        0.9051810420995869,
                        -0.45423415736981787
                    ],
                    [
                        0.059690877748141524,
                        0.8844656601579872,
                        0.7228778153530915,
                        0.6459577917675305,
                        -0.727714122719324,
                        0.6695112681437412,
                        -0.9976020786614088,
                        0.48125058889296013,
                        0.5253114948769981,
                        -0.9638886789885455,
                        -0.02115720549197464,
                        0.8895318940323995,
                        0.385964552244519,
                        -0.6305523300172022,
                        0.9227894957388068,
                        -0.9771026554390854,
                        -0.08135516967642853,
                        -0.7466985595459432,
                        -0.1961427616453001,
                        0.9719443564069383
                    ],
                    [
                        0.05289587854534353,
                        -0.0380438909235135,
                        0.5677671123975623,
                        -0.9497136753836781,
                        0.6396990249477654,
                        0.2073795975403372,
                        -0.2799084655225681,
                        -0.35025117508215287,
                        -0.2401872626976031,
                        -0.26450068224004997,
                        0.9596287831918875,
                        -0.10567447191248469,
                        0.39663955109631693,
                        0.030259571439877897,
                        -0.14974354805724646,
                        -0.4636777196696809,
                        0.15261754190551913,
                        -0.06702197110092256,
                        0.4301418892346762,
                        0.6317215194186789
                    ],
                    [
                        0.9988876502311288,
                        -0.1790041139448324,
                        0.2987361252475471,
                        -0.2209410789259938,
                        -0.37411192552795347,
                        0.5326159847141063,
                        0.472914210678556,
                        0.17957672555486104,
                        0.3117686051848314,
                        0.04230118085494237,
                        -0.9192087863404845,
                        0.6404736016588586,
                        0.9506580281362165,
                        0.8613619460914224,
                        0.5227732001888785,
                        0.6192660321904815,
                        -0.5402142401772652,
                        0.8194860503475214,
                        -0.3223562138423677,
                        0.8738389166864564
                    ],
                    [
                        -0.43791297093824055,
                        -0.4758584349919872,
                        0.438582979492409,
                        -0.2108033668196545,
                        0.37395119989997605,
                        -0.7608866898055362,
                        0.9879792444221311,
                        0.2729357796418057,
                        0.6309539762498498,
                        -0.9456180412840408,
                        -0.088538075269325,
                        -0.9313468960523832,
                        -0.6487554086489262,
                        -0.6587195561753667,
                        -0.6909089494290139,
                        -0.17312525588742367,
                        -0.4623812548188839,
                        0.99129181229283,
                        -0.256356231120614,
                        -0.15528927765392142
                    ],
                    [
                        0.13207735302033563,
                        -0.18832045830227595,
                        0.11037358371394723,
                        0.7625359148597644,
                        -0.4932496354467877,
                        -0.26748710346905624,
                        0.6452033747424124,
                        0.9937473419571734,
                        0.7943473605607727,
                        -0.10461981074407711,
                        -0.2966063195723949,
                        0.9018191090085217,
                        -0.9967624951177207,
                        0.27159491537085945,
                        -0.6612870066483707,
                        0.8256748468739925,
                        -0.4047235646561169,
                        0.5837536371604259,
                        0.8104859724877898,
                        -0.6522289974938978
                    ],
                    [
                        -0.20192003807988712,
                        -0.6320958189195302,
                        -0.847369981285353,
                        -0.23368167004704876,
                        -0.5856713071991404,
                        0.12499745813823804,
                        0.07260244745940692,
                        0.18829060893181992,
                        0.6057592109162462,
                        -0.24143425477881153,
                        -0.6169583035780934,
                        -0.7589517847904359,
                        0.9731132091932126,
                        -0.1069142184381622,
                        -0.40461595588928256,
                        0.27073663035111023,
                        -0.16849166357784456,
                        0.10539429629937111,
                        -0.8231645866272783,
                        0.8009901523136849
                    ],
                    [
                        -0.06964216544840318,
                        0.08100148581993438,
                        -0.20130863798892773,
                        -0.4043272831379172,
                        0.5516186377667782,
                        0.9172713556890559,
                        0.4048254650238199,
                        -0.7996342769901494,
                        0.30862183180305247,
                        -0.785695272928329,
                        0.9158580039659678,
                        0.5741269790786667,
                        0.2501406310115677,
                        -0.8755607250258344,
                        -0.7602662586849147,
                        -0.21076137525691974,
                        0.0606937731313014,
                        -0.10171444018574949,
                        0.3236346931766292,
                        0.6074550867093305
                    ],
                    [
                        0.4734901179712625,
                        -0.09042161700433837,
                        -0.11378897572349778,
                        0.4051704284612432,
                        -0.492379460178731,
                        0.5993889163369395,
                        0.8122247466488743,
                        0.18324721223577511,
                        0.46405843321889784,
                        0.2030843597179426,
                        0.800536465925906,
                        0.6708991365243429,
                        -0.5854108839411525,
                        -0.881871720753083,
                        0.7517925938975069,
                        -0.0049464263865348634,
                        -0.8144901816409598,
                        -0.6380016669859512,
                        0.9472952511690027,
                        -0.5670526564561686
                    ],
                    [
                        -0.1892311727324572,
                        0.5458906987503851,
                        0.5436905083847832,
                        0.22910457034231846,
                        0.5250950559030103,
                        0.2124424388361834,
                        -0.13871807152948068,
                        0.1542951706384934,
                        -0.5803573729367575,
                        0.03138258469762212,
                        -0.5974387155274095,
                        0.47710789302106615,
                        -0.4053515219471091,
                        0.4572462742650618,
                        0.5158780939226559,
                        -0.9834668093672583,
                        0.5920459928341388,
                        0.38220261100035513,
                        -0.29013936599920415,
                        0.3256880593769742
                    ],
                    [
                        -0.7073333837696203,
                        -0.7031929104961165,
                        -0.625302520454625,
                        -0.13479504065158943,
                        0.6465716853319845,
                        -0.5006269045077342,
                        0.7616248673120893,
                        0.37876908996327874,
                        0.524731749866151,
                        -0.21083576945916582,
                        -0.19186906556334815,
                        -0.9957621955614095,
                        0.47264858593109066,
                        0.9436072718123856,
                        -0.9554181214421968,
                        -0.7006196915645342,
                        -0.8435206797965387,
                        -0.7455464960819354,
                        -0.3831029098688661,
                        0.7710311773295174
                    ],
                    [
                        -0.8098196318517199,
                        0.2293087845526076,
                        0.0018183963706015216,
                        0.7557250089021674,
                        0.18937544108675497,
                        -0.7944304209081197,
                        0.9712337035736882,
                        0.28017947463362725,
                        -0.7813913973214128,
                        0.6038031522790464,
                        -0.04514404745555023,
                        -0.5498208735931832,
                        0.8424135055330642,
                        -0.30019729061198897,
                        0.6884436669656201,
                        0.7312513037695847,
                        -0.8999967747482014,
                        0.09983878144791969,
                        -0.947346582080719,
                        0.5992661085865403
                    ],
                    [
                        0.32122533278914034,
                        -0.03350559023258737,
                        0.8336039576043399,
                        -0.45675889053100827,
                        -0.7214837887067871,
                        0.9237267000540097,
                        0.16534197187098898,
                        -0.9353263525174376,
                        0.3680448171872175,
                        -0.07171769790232774,
                        0.8283684551503514,
                        0.9108259781080752,
                        -0.29454619016149264,
                        -0.39728001915564626,
                        0.2809768890601647,
                        -0.46061263741336433,
                        -0.6510907632074368,
                        -0.6017418693029644,
                        -0.22967975127149454,
                        0.6734941611780461
                    ],
                    [
                        -0.6785007410762118,
                        -0.9391720914719446,
                        -0.7094645518320831,
                        -0.08614602131925855,
                        -0.8465773890333136,
                        0.12210328128011638,
                        -0.7288092557521775,
                        -0.39761446068637407,
                        -0.18040405187695943,
                        0.39046785144112794,
                        -0.4730031104680865,
                        -0.2822996532727966,
                        0.8220647643760808,
                        0.41022136526033526,
                        0.7623114158402859,
                        -0.09254563735474997,
                        -0.9977800992961552,
                        -0.7278776001728644,
                        0.9437476058464495,
                        -0.7278164914692264
                    ],
                    [
                        0.204990949002281,
                        -0.9588542537058542,
                        -0.1863375257799107,
                        -0.6335757541037768,
                        0.7137905418952677,
                        0.750868835291888,
                        0.25846475994970675,
                        0.5040175216254092,
                        0.09469110894629873,
                        -0.7956463687328832,
                        0.15430501790883566,
                        0.3385785505161661,
                        -0.6878362498948689,
                        0.08292423540963045,
                        0.3231759849583393,
                        -0.3772862673679894,
                        0.9246894105993584,
                        0.09153742136382825,
                        0.6777778812129411,
                        0.2526285385275413
                    ],
                    [
                        -0.1606894477583798,
                        0.2777118456039872,
                        0.48481006469585286,
                        -0.5494345752466891,
                        -0.7142538040576172,
                        -0.11282923845074055,
                        -0.12642083184509068,
                        0.0038632361699890705,
                        -0.769925412714356,
                        0.7646407593478635,
                        0.5873328185483173,
                        -0.2819931578227761,
                        0.13156453379440824,
                        -0.9944221681628523,
                        0.5174416601175411,
                        0.7384728381586079,
                        -0.5729365401800937,
                        0.7886940654592489,
                        0.7053979275038993,
                        -0.8377829541900688
                    ],
                    [
                        0.9574792737556677,
                        -0.4923496052281966,
                        -0.20528646893674818,
                        -0.6387395937763721,
                        -0.5026671275717862,
                        -0.8656873746375572,
                        0.7298702353100854,
                        -0.8873625426295657,
                        0.6215117018495564,
                        0.7386505957907283,
                        0.5549591136772645,
                        -0.17189482560452812,
                        -0.11012059193037693,
                        0.789972568677297,
                        0.2954637546530424,
                        -0.368619426470955,
                        -0.09507902814934033,
                        0.7578312666889475,
                        0.12734582564161623,
                        -0.9548098183773187
                    ],
                    [
                        0.9680595182373344,
                        0.38499189916849796,
                        0.8220556792832796,
                        -0.9987430024594823,
                        -0.6170876983873115,
                        -0.044774732149363894,
                        -0.7528906748876056,
                        0.04355772520257277,
                        -0.4772204281352179,
                        0.008761311232094338,
                        0.05173647265068342,
                        -0.5849278333010921,
                        -0.5366552453704398,
                        -0.039130929463060474,
                        -0.6214445588254685,
                        -0.12236936694637679,
                        0.3251734921560878,
                        0.6449811139366608,
                        -0.974274042852328,
                        -0.0016910347983418728
                    ]
                ],
                [
                    [
                        -0.8158322783289149,
                        -0.0639966821150415,
                        -0.902617421235925,
                        0.7042172846062409,
                        0.8697228349874497,
                        0.12387674890311184,
                        0.987501678109562,
                        0.5992594783390153,
                        -0.4074402372218262,
                        0.031114739920834286
                    ],
                    [
                        -0.2870190092619791,
                        -0.4024689154294163,
                        -0.1945555738009812,
                        -0.4383577829667682,
                        -0.07679628093651547,
                        0.014535091677994272,
                        0.7945693731026583,
                        -0.6907378080434041,
                        0.45524834727069363,
                        -0.2886373046388899
                    ],
                    [
                        -0.8482787693383829,
                        -0.2720115316858298,
                        -0.5796780512367563,
                        -0.4972905987148668,
                        -1.120368436237293,
                        -0.8583822703309474,
                        -0.004124600559353597,
                        0.2884108326322181,
                        0.3658268461780861,
                        0.22003132723002986
                    ],
                    [
                        0.4480413930362859,
                        0.39660118404135836,
                        -0.8732782507493455,
                        -0.7370670791665945,
                        0.48484655866173787,
                        -0.3911065225645527,
                        0.48119589681948494,
                        -0.6725833190009196,
                        0.4447730992491239,
                        0.1397853109026601
                    ],
                    [
                        -0.02830775104493788,
                        0.4125690246389495,
                        -0.6603141838492768,
                        -0.003599381104061772,
                        -0.6470468577096697,
                        0.34338728359092197,
                        -0.17954092401202493,
                        -0.20124146196562331,
                        0.15827114237092088,
                        -0.7415551641321725
                    ],
                    [
                        0.8050714628027584,
                        0.13081119971685262,
                        -0.32738150427914553,
                        0.38667161142191486,
                        0.9530357051204279,
                        -0.8731434720789453,
                        0.9533776285758668,
                        -0.8002509468776613,
                        0.042906420326180514,
                        -0.4042387101554801
                    ],
                    [
                        0.8354374184242248,
                        0.305259561407174,
                        -0.8509184590829324,
                        -0.8216591095985069,
                        -0.7062000237230613,
                        0.858339232297672,
                        0.6140335228719431,
                        -0.17887340466244184,
                        -0.5970671534325802,
                        0.6269116579865976
                    ],
                    [
                        0.8269168199710875,
                        -0.2393322333681731,
                        -0.6092883464906119,
                        0.4644423898710437,
                        0.6464485790284558,
                        -0.5716822271890112,
                        0.3176063362863364,
                        -0.3033585248759441,
                        0.29674577181473105,
                        0.7015576368513881
                    ],
                    [
                        -0.6395825158417787,
                        -0.15438292182187086,
                        -0.5883097197714349,
                        0.14894390444969607,
                        -0.30427925021838087,
                        0.2315233960940326,
                        0.5458462590166491,
                        -0.7984232296851861,
                        -0.9877624765244626,
                        -0.24649144219506258
                    ],
                    [
                        0.18245031853408022,
                        0.31928730673558015,
                        0.19224214834219466,
                        0.8656493382497765,
                        -0.6006695125444201,
                        -0.3876406939042487,
                        0.07904131355363408,
                        0.8643949412863632,
                        0.04814825281170235,
                        0.09248838136117743
                    ],
                    [
                        0.5466153895732111,
                        -0.20277298314158337,
                        0.9964680521378804,
                        0.39013439528498584,
                        0.42761959674931194,
                        0.22542147819815272,
                        -0.5297728071983919,
                        0.0158083904662647,
                        0.7333850140317353,
                        0.4034667015332376
                    ],
                    [
                        0.2588455114077084,
                        -0.4726315714037308,
                        0.759673725077546,
                        0.8350713125262397,
                        0.9694841155771572,
                        0.7713956785332213,
                        0.7798417385350445,
                        -0.5488578641216423,
                        0.8339572146914132,
                        0.3858517155456787
                    ],
                    [
                        -0.13461879772165197,
                        0.8993269831192625,
                        0.09726880850383424,
                        0.7764763168878925,
                        0.10091243445381459,
                        -0.9785753043555241,
                        -0.05553111552395307,
                        -0.8026794624907874,
                        0.6305061490133892,
                        -0.6368278665432634
                    ],
                    [
                        0.7865068703480564,
                        0.2218325481982737,
                        0.7781396245073298,
                        -0.0258929383464388,
                        0.31134794165868374,
                        -0.10164523503443212,
                        -0.12027787486101596,
                        -0.7231421679770904,
                        0.858447746289071,
                        -0.13992926289525615
                    ],
                    [
                        0.12820957343138684,
                        -0.6850025539421405,
                        -0.1821478376779967,
                        -0.4812406016722657,
                        -0.029997029996957192,
                        0.20545618857092163,
                        -0.9940921619830283,
                        -0.7041211867320628,
                        0.4680123809231449,
                        -0.23632190973484146
                    ],
                    [
                        0.3925122019506091,
                        0.7176756507958957,
                        -0.23333754859857403,
                        -0.27957288791341584,
                        0.28485883179351323,
                        0.3422680618590952,
                        -0.44208775014188806,
                        -0.182330289054798,
                        -0.5481790550842094,
                        -0.09979931561246924
                    ],
                    [
                        -0.6926681245871408,
                        -0.2615321847589525,
                        -0.5348925806853535,
                        0.3399513301344148,
                        -0.39259937046952453,
                        0.3373528249123119,
                        -0.3783617480913032,
                        0.2341226065465488,
                        0.07747586746749424,
                        0.49245447549762145
                    ],
                    [
                        -0.6356336135950365,
                        -0.9318310325436079,
                        -0.9211421206259522,
                        0.048199168062738273,
                        -0.9424403761025395,
                        0.9813437550147106,
                        -0.8458227075334233,
                        0.9255231163217119,
                        -0.6089577771796657,
                        -0.15165165579320172
                    ],
                    [
                        -0.6573145820574438,
                        0.5311709375446898,
                        0.6153336957547919,
                        -0.40586985810062415,
                        0.8086945116560202,
                        0.15645750707983286,
                        0.4723615167752695,
                        -0.18641265215600678,
                        -0.6753487730686433,
                        0.4871797860891982
                    ],
                    [
                        0.17051875772380848,
                        1.1186072191059384,
                        -0.36602044747831597,
                        -0.014451454396589486,
                        0.6411973774837262,
                        0.012379282209818501,
                        0.6088397747256374,
                        -0.4307657418573976,
                        -0.6018374748211841,
                        0.18023010116392446
                    ]
                ],
                [
                    [
                        -0.8589408992800827,
                        -0.29967302433139853,
                        0.9188986318693426,
                        0.2324731342329984
                    ],
                    [
                        0.25902243057144436,
                        0.5291886630240838,
                        -0.14132880727650707,
                        0.5172839574365588
                    ],
                    [
                        0.48518898204516914,
                        -1.0358509267951845,
                        0.8597785375621873,
                        -0.017071928763932265
                    ],
                    [
                        -0.7057360324171653,
                        0.7285383312106217,
                        0.9507383791701485,
                        -0.6424341733211885
                    ],
                    [
                        -0.5791619668747467,
                        -0.8603144944823036,
                        -0.14923274317110846,
                        -0.5322935162215576
                    ],
                    [
                        -0.608837370726713,
                        0.1644411569604651,
                        -0.11324922355790235,
                        0.8418852582211724
                    ],
                    [
                        -0.3988526231567029,
                        -0.6668279195960701,
                        -0.541122056410122,
                        -0.33997410679976725
                    ],
                    [
                        0.8744939840024268,
                        0.6912757700134646,
                        -0.16518951710987695,
                        -0.8968238832292812
                    ],
                    [
                        -0.29010888246332356,
                        0.7851975847292396,
                        0.48532513904066965,
                        0.6235350789592355
                    ],
                    [
                        -0.007865690098927791,
                        -0.1287733277446128,
                        0.9563085240728559,
                        0.03892845935135947
                    ]
                ]
            ]
        },
        {
            "id": 2,
            "score": 290,
            "steps": 859,
            "network_weights": [
                [
                    [
                        0.3162381880359731,
                        0.20617247978124542,
                        0.9173515651867012,
                        -0.8634300274814144,
                        0.9062724537851918,
                        -0.09653350228614177,
                        0.5331994263397344,
                        0.6071092277783816,
                        -0.12462712878025696,
                        -0.5087754069156736,
                        0.45167355111888874,
                        0.26533690432925017,
                        0.7929800369740272,
                        0.618563382518623,
                        -0.3942384030582895,
                        0.16612605636774092,
                        -0.12629585443019814,
                        -0.24287225822119107,
                        -0.4924434849741819,
                        0.802465424622441
                    ],
                    [
                        0.9794554122160701,
                        -0.37382522631202575,
                        -0.3178850274031131,
                        -0.3350883511081302,
                        0.7593922909044915,
                        -0.42859306205259706,
                        -0.9262720674087206,
                        -0.3817005501477848,
                        -0.8462188452017461,
                        0.8831754006212449,
                        -0.3388745710653145,
                        0.6675276088765159,
                        0.7752173573849963,
                        0.31192566391342846,
                        0.7352090129500781,
                        -0.14310240484197578,
                        -0.2688034153033416,
                        0.9163803377047127,
                        -0.8050481965406471,
                        -0.11738274509682922
                    ],
                    [
                        0.03975432480397956,
                        0.0021381111655540685,
                        0.6649415133151193,
                        0.1443425060325183,
                        0.34200359230363575,
                        -0.9158591660990989,
                        0.17392949771912636,
                        -0.4535196858546444,
                        -0.7741264653808426,
                        0.7836174844051053,
                        0.2119299019840737,
                        0.9823933776208689,
                        0.5377285521656197,
                        -0.6923071118053086,
                        0.3017079907670126,
                        0.18922991730700112,
                        -0.9156249485719463,
                        -0.18413177226529598,
                        -0.3733262103934245,
                        -0.81892421793785
                    ],
                    [
                        -0.8807367373902861,
                        -0.5772144482056285,
                        0.7421314320624119,
                        0.1694047661061533,
                        -0.21625234631912726,
                        0.9236754830087959,
                        0.31364043686798415,
                        0.6370777122176154,
                        0.9678934528541422,
                        -0.48674431774256743,
                        -0.9296197908420619,
                        -0.6581450246256395,
                        0.6027679721580133,
                        1.0588000605779258,
                        -0.07617342997262866,
                        -0.6812927700302238,
                        -0.9169087187806002,
                        0.8553887253498726,
                        -0.9583490529243286,
                        -0.5921265695519142
                    ],
                    [
                        -0.05245191047365183,
                        -0.14280616114204925,
                        -0.9196224525463901,
                        -0.6515075742310452,
                        -0.6307075894609333,
                        -0.020231043819154415,
                        -0.4182210950859617,
                        -0.2647872457064966,
                        -0.9646211323678697,
                        -0.06452522092708013,
                        -0.09255526394396929,
                        -0.5300808677971929,
                        -0.507486224232341,
                        0.23653495114482317,
                        -0.006688851129325046,
                        0.49715265428944844,
                        0.48776501607469025,
                        0.3223656972284341,
                        0.28246214481982945,
                        0.5186567533632882
                    ],
                    [
                        0.5082242111464206,
                        0.7476186911760763,
                        0.9228533411871247,
                        -0.35661819397343075,
                        0.7454610839226365,
                        0.660875315359448,
                        0.3172506291151478,
                        0.4467183275833832,
                        -0.8291239694913572,
                        0.8045468587033174,
                        0.971768655959057,
                        -0.16135275422956097,
                        -0.33310506226394754,
                        0.019594682192581647,
                        0.9593475645473895,
                        0.19840793888261365,
                        -0.4680699673598434,
                        -0.6613974371365902,
                        0.7381826777074012,
                        0.4254850662395291
                    ],
                    [
                        0.5805326300756597,
                        0.3647072842169051,
                        0.8130089707892121,
                        -0.948736512092395,
                        -0.001512650256262349,
                        -1.057444783580922,
                        -0.8473317037104839,
                        -0.8370278000410878,
                        0.44815712053831414,
                        -0.3895074616757054,
                        -0.8125152990900352,
                        0.3130456193081941,
                        0.27470740238811864,
                        -0.19610083418807944,
                        -0.18757106405422902,
                        -0.49181983402848384,
                        -0.6409689254497666,
                        -0.5414125257981284,
                        0.5461918970681563,
                        0.5580299618885545
                    ],
                    [
                        -0.18861127820326273,
                        -0.3873094025027546,
                        0.8937677348848916,
                        0.1449872494610882,
                        0.8354030380767166,
                        -0.9275981942616502,
                        0.4136364724009318,
                        0.5427638208379866,
                        -0.3549883286062545,
                        0.9739316380370449,
                        -0.39115001789431136,
                        0.753411030522197,
                        -0.7175462204777627,
                        -0.07236153799351164,
                        0.7322314013867346,
                        0.03169200244952397,
                        0.5663436959137866,
                        0.1420818635038823,
                        0.2647586819336276,
                        0.7850215680653077
                    ],
                    [
                        0.3676989108593841,
                        -0.8631581016448038,
                        -0.5726585333006025,
                        -0.5673732374422992,
                        -0.23540170496135052,
                        0.8649763777634543,
                        0.8526728321305737,
                        0.23402538984171214,
                        -0.6945455310442614,
                        -0.574442517783166,
                        -0.11379615225954172,
                        -0.895973701965254,
                        0.5887651439420156,
                        -0.04624811168093146,
                        -0.3030981403415367,
                        -0.7662437312487034,
                        0.5795376610717278,
                        -0.49211321124991564,
                        0.5399542040462153,
                        0.5680348138821671
                    ],
                    [
                        0.13207735302033563,
                        -0.18832045830227595,
                        -0.013430868644811342,
                        0.7625359148597644,
                        -0.4932496354467877,
                        -0.26748710346905624,
                        0.45727172442512554,
                        0.8211601251420492,
                        0.7943473605607727,
                        -0.10461981074407711,
                        -0.2966063195723949,
                        0.9018191090085217,
                        -1.0242337163798931,
                        0.27159491537085945,
                        -0.6612870066483707,
                        0.8256748468739925,
                        -0.4047235646561169,
                        0.5837536371604259,
                        0.8104859724877898,
                        -0.688718907021636
                    ],
                    [
                        -0.20192003807988712,
                        -0.5310581636118339,
                        -0.9089839923093639,
                        -0.23368167004704876,
                        -0.5856713071991404,
                        0.12499745813823804,
                        0.07260244745940692,
                        0.18829060893181992,
                        0.5117139288394901,
                        -0.24143425477881153,
                        -0.6169583035780934,
                        -0.9319429543845941,
                        0.9731132091932126,
                        -0.15742886566480752,
                        -0.40461595588928256,
                        0.3451617877540052,
                        -0.07756786513219671,
                        0.23185272328577833,
                        -0.8619095343128326,
                        0.8009901523136849
                    ],
                    [
                        -0.0003637915805110442,
                        0.08100148581993438,
                        -0.20130863798892773,
                        -0.4043272831379172,
                        0.6597166978683625,
                        0.9172713556890559,
                        0.4048254650238199,
                        -0.7996342769901494,
                        0.30862183180305247,
                        -0.7427673314826132,
                        0.88105631359115,
                        0.5741269790786667,
                        0.2501406310115677,
                        -0.8755607250258344,
                        -0.8039193979207597,
                        -0.21076137525691974,
                        0.0606937731313014,
                        -0.10171444018574949,
                        0.3236346931766292,
                        0.39932021950514995
                    ],
                    [
                        0.4734901179712625,
                        -0.0059248080924934055,
                        -0.11378897572349778,
                        0.4051704284612432,
                        -0.492379460178731,
                        0.7099136568968056,
                        0.8122247466488743,
                        0.18324721223577511,
                        0.46405843321889784,
                        0.2030843597179426,
                        0.800536465925906,
                        0.6708991365243429,
                        -0.5854108839411525,
                        -0.881871720753083,
                        0.7517925938975069,
                        -0.0049464263865348634,
                        -0.8144901816409598,
                        -0.675214255935931,
                        0.9472952511690027,
                        -0.3953564619318828
                    ],
                    [
                        -0.1892311727324572,
                        0.5458906987503851,
                        0.5436905083847832,
                        0.22910457034231846,
                        0.44185972267966683,
                        0.2124424388361834,
                        -0.13871807152948068,
                        0.1542951706384934,
                        -0.43873204485257,
                        0.03138258469762212,
                        -0.5974387155274095,
                        0.47710789302106615,
                        -0.4639299148461747,
                        0.4572462742650618,
                        0.5158780939226559,
                        -0.9834668093672583,
                        0.5863506254019468,
                        0.38220261100035513,
                        -0.20883653698282695,
                        0.3256880593769742
                    ],
                    [
                        -0.7243076986273894,
                        -0.7031929104961165,
                        -0.625302520454625,
                        -0.13479504065158943,
                        0.6465716853319845,
                        -0.5327358369254906,
                        0.7616248673120893,
                        0.37876908996327874,
                        0.524731749866151,
                        -0.21083576945916582,
                        -0.10105020815150062,
                        -0.9957621955614095,
                        0.5828926915213067,
                        0.9436072718123856,
                        -0.9554181214421968,
                        -0.7006196915645342,
                        -0.8435206797965387,
                        -0.7380707055969504,
                        -0.3831029098688661,
                        0.6420053261095207
                    ],
                    [
                        -0.8098196318517199,
                        0.2293087845526076,
                        0.0018183963706015216,
                        0.8388584737108483,
                        0.18937544108675497,
                        -0.7944304209081197,
                        0.9712337035736882,
                        0.28017947463362725,
                        -0.7813913973214128,
                        0.6038031522790464,
                        -0.04514404745555023,
                        -0.48838094487536865,
                        0.8424135055330642,
                        -0.2629547567854704,
                        0.8471437441999881,
                        0.7312513037695847,
                        -0.8999967747482014,
                        0.05307452181419503,
                        -0.947346582080719,
                        0.5992661085865403
                    ],
                    [
                        0.32122533278914034,
                        -0.03350559023258737,
                        0.8336039576043399,
                        -0.45675889053100827,
                        -0.7214837887067871,
                        0.9237267000540097,
                        0.16534197187098898,
                        -0.9353263525174376,
                        0.3680448171872175,
                        -0.07171769790232774,
                        0.6901855843507492,
                        0.9108259781080752,
                        -0.34577570316841966,
                        -0.39728001915564626,
                        0.2809768890601647,
                        -0.46061263741336433,
                        -0.49846195349157835,
                        -0.6017418693029644,
                        -0.22967975127149454,
                        0.6734941611780461
                    ],
                    [
                        -0.6233241384749959,
                        -0.9382189943786747,
                        -0.7105187490022324,
                        -0.10902087343306695,
                        -0.8465773890333136,
                        0.12210328128011638,
                        -0.7288092557521775,
                        -0.39761446068637407,
                        -0.02390649971357295,
                        0.42731746459079534,
                        -0.4730031104680865,
                        -0.2822996532727966,
                        0.8220647643760808,
                        0.41022136526033526,
                        0.5482022534210365,
                        -0.09254563735474997,
                        -0.9977800992961552,
                        -0.546271588623358,
                        0.9592964532043786,
                        -0.7278164914692264
                    ],
                    [
                        0.204990949002281,
                        -0.9588542537058542,
                        -0.1863375257799107,
                        -0.5464062367337641,
                        0.7137905418952677,
                        0.750868835291888,
                        0.22260195768942787,
                        0.5040175216254092,
                        0.09469110894629873,
                        -0.7956463687328832,
                        0.15430501790883566,
                        0.41603452158483045,
                        -0.7973151451958772,
                        0.08292423540963045,
                        0.3231759849583393,
                        -0.30982982268903747,
                        0.9246894105993584,
                        0.09153742136382825,
                        0.6777778812129411,
                        0.2526285385275413
                    ],
                    [
                        -0.1606894477583798,
                        0.3173802831359629,
                        0.48481006469585286,
                        -0.5494345752466891,
                        -0.762383538984206,
                        -0.11282923845074055,
                        -0.014832726010402641,
                        0.0038632361699890705,
                        -0.769925412714356,
                        0.7646407593478635,
                        0.5873328185483173,
                        -0.2819931578227761,
                        0.13156453379440824,
                        -0.8446303117918527,
                        0.5174416601175411,
                        0.7384728381586079,
                        -0.5729365401800937,
                        0.7886940654592489,
                        0.7053979275038993,
                        -0.8377829541900688
                    ],
                    [
                        0.9574792737556677,
                        -0.503820651355331,
                        -0.20528646893674818,
                        -0.533791190009771,
                        -0.5026671275717862,
                        -0.8656873746375572,
                        0.7298702353100854,
                        -0.8873625426295657,
                        0.6215117018495564,
                        0.7386505957907283,
                        0.5549591136772645,
                        -0.10111289121029365,
                        0.06255955381214418,
                        0.6402495019728247,
                        -0.9526398651941101,
                        -0.9377033833500803,
                        0.4715240392208637,
                        -0.5945211174655813,
                        0.006406439540462827,
                        -0.47926235363654546
                    ],
                    [
                        -0.5538000054191237,
                        0.753517680460251,
                        0.3180139064507217,
                        -0.8773167279729708,
                        -0.7462014445076935,
                        -0.98343540972477,
                        0.7959928462769557,
                        -0.6324727098245853,
                        0.9132424904129601,
                        0.7082236855036459,
                        -0.9997506359729507,
                        0.2138636763534052,
                        -0.7866702421839147,
                        -0.26798446969112555,
                        -0.5560583977340139,
                        0.10329186133957546,
                        -0.5965697887834456,
                        0.6291081102217757,
                        -0.29298048596496684,
                        0.5202266298762674
                    ]
                ],
                [
                    [
                        -0.5716110845226441,
                        -0.093249221277373,
                        -0.5291825256225626,
                        -0.9248730393091995,
                        -0.4765299501629999,
                        0.848746377928443,
                        -0.8382464511512506,
                        0.8131586181889598,
                        -0.03659456207813494,
                        0.21392526181235016
                    ],
                    [
                        -0.3247153814614725,
                        0.921954661655719,
                        0.44960278995093206,
                        -0.5421972531298587,
                        -0.40907609703825587,
                        0.7798365985429574,
                        0.36000980215426437,
                        0.5681575528936815,
                        -0.49639528735583127,
                        -0.4542376261869394
                    ],
                    [
                        0.3858190947450879,
                        0.5990185829665626,
                        -0.5181616403806606,
                        -0.0011779730330667704,
                        -0.3019760612314337,
                        0.5134113699946796,
                        0.8554693052806095,
                        0.8327806187709961,
                        0.2595984211496629,
                        -0.8869587347338597
                    ],
                    [
                        -0.9573768863547525,
                        0.38675397649702514,
                        0.32354763191042424,
                        -0.6607472782449759,
                        0.16856318619302257,
                        0.9400667813031498,
                        0.7979160781355927,
                        0.6669735378428404,
                        -0.931963459157747,
                        0.6324756925777817
                    ],
                    [
                        -0.6311725104429842,
                        0.4111957380055456,
                        -0.4209084338708544,
                        -0.6724911554851172,
                        -0.6595960789906916,
                        -0.9749234667103257,
                        0.6208886064732742,
                        0.4190323843317467,
                        -0.3666478217421867,
                        -0.896801187073585
                    ],
                    [
                        0.6690781640945029,
                        0.1964355525265164,
                        -0.27313982766192346,
                        0.23703501633703072,
                        0.17291998352319404,
                        -0.8312623832502415,
                        -0.5998513519780704,
                        0.23529774639932732,
                        0.5783879937253377,
                        -0.3436026841056159
                    ],
                    [
                        0.814349732175697,
                        -0.08118706908245032,
                        -0.0059404796061270915,
                        0.6412626149448217,
                        0.9176998913727121,
                        -0.6853560130171382,
                        0.07447797543744694,
                        0.10196254523211075,
                        0.2112172253031488,
                        -0.8795454127951425
                    ],
                    [
                        -0.07453908819843802,
                        0.7221603589448835,
                        -0.4325984465234183,
                        0.7344309071080777,
                        0.05719188979952872,
                        -0.20931503216000094,
                        0.5122033721194845,
                        0.07164812281132016,
                        0.2566422009474165,
                        -0.21340036370653803
                    ],
                    [
                        -0.8833547645063591,
                        0.3318734156681744,
                        0.8712484639872626,
                        0.7146798170636122,
                        0.057838935586711715,
                        0.09580063139725076,
                        -0.4309146654421596,
                        0.5852710070789595,
                        -0.21809498287388318,
                        0.20884835526357648
                    ],
                    [
                        -0.6135725060463282,
                        0.4738326896110332,
                        0.42790874603157136,
                        0.6579587581473949,
                        -0.612810786827902,
                        0.24028284521129573,
                        0.49901508975866893,
                        0.7264921575027995,
                        -0.46305769381880735,
                        0.20483301813223198
                    ],
                    [
                        0.6698627972444084,
                        -1.12348323880444,
                        -0.2467112012280841,
                        -0.9228435595576219,
                        -0.1645773210365744,
                        0.09130870215255182,
                        -0.9675628769283819,
                        -0.6269174921273939,
                        0.7756497650951699,
                        0.5476971571829752
                    ],
                    [
                        0.8755742848830231,
                        -0.4033094873719396,
                        0.172344718804176,
                        0.25880987747467565,
                        -0.9658914605662752,
                        -0.4200729610274194,
                        0.6111725326235316,
                        0.0019345987385179786,
                        -0.41745272146294465,
                        -0.3580005107558202
                    ],
                    [
                        -0.3175968548718632,
                        0.791544969165997,
                        -0.6578051261508189,
                        0.33285636445178635,
                        -0.9253991827283927,
                        -0.18309988344973624,
                        0.47964956634496647,
                        -0.8506225876358706,
                        -0.5383771760850278,
                        -0.7226177262671991
                    ],
                    [
                        0.7607754204680335,
                        -0.7132086548549801,
                        -0.7538402789736414,
                        0.5838230480122852,
                        -0.5790010406293917,
                        0.8385666953353956,
                        0.8077540061324062,
                        0.5692722506206915,
                        0.09089856902251392,
                        0.7331779518059629
                    ],
                    [
                        -0.8611049565623101,
                        0.7279890805565505,
                        0.18904476230323186,
                        -0.45859232915621706,
                        0.30735247281128,
                        0.6656191779332588,
                        -0.6336835898429516,
                        -0.3944739808537041,
                        0.6384627218666674,
                        -0.8474182460383466
                    ],
                    [
                        -0.7707740150356919,
                        0.13147249177528875,
                        -0.4781509876783183,
                        -0.6541035190516089,
                        0.007148589238811454,
                        0.6697545133727199,
                        0.9487513737430597,
                        0.8305795694489015,
                        0.4621422936572466,
                        0.7587515141760528
                    ],
                    [
                        -0.70554513374251,
                        -0.41359353182748215,
                        -0.5348925806853535,
                        0.33774990634535546,
                        -0.39259937046952453,
                        0.3373528249123119,
                        -0.3096189586495999,
                        0.36049271115026515,
                        0.0595117375472411,
                        0.7371132609398299
                    ],
                    [
                        -0.6356336135950365,
                        -0.9318310325436079,
                        -0.9211421206259522,
                        0.048199168062738273,
                        -0.9424403761025395,
                        0.9813437550147106,
                        -0.8458227075334233,
                        0.9255231163217119,
                        -0.6089577771796657,
                        -0.15165165579320172
                    ],
                    [
                        -0.6573145820574438,
                        0.5311709375446898,
                        0.6153336957547919,
                        -0.40586985810062415,
                        0.9224313220302474,
                        0.15645750707983286,
                        0.4723615167752695,
                        -0.23270205695982618,
                        -0.7928467389838081,
                        0.38345464732421175
                    ],
                    [
                        0.045190332041993755,
                        0.911695119190671,
                        -0.36602044747831597,
                        -0.026549927855700428,
                        0.6419796446402557,
                        -0.04771305715433316,
                        0.5204049755405156,
                        -0.43030162002475364,
                        -0.6113115574647121,
                        0.18023010116392446
                    ]
                ],
                [
                    [
                        -0.8589408992800827,
                        -0.29967302433139853,
                        0.9188986318693426,
                        0.13817895387003354
                    ],
                    [
                        0.25902243057144436,
                        0.5291886630240838,
                        -0.18006102318363126,
                        0.6222245193488058
                    ],
                    [
                        0.48518898204516914,
                        -0.8896496504952753,
                        0.7713248857962347,
                        -0.017071928763932265
                    ],
                    [
                        -0.7057360324171653,
                        0.7000609084133301,
                        0.9507383791701485,
                        -0.6424341733211885
                    ],
                    [
                        -0.5791619668747467,
                        -0.8603144944823036,
                        -0.14923274317110846,
                        -0.5322935162215576
                    ],
                    [
                        -0.608837370726713,
                        0.25482270641181526,
                        -0.11324922355790235,
                        0.8418852582211724
                    ],
                    [
                        -0.3988526231567029,
                        -0.6254971860569669,
                        -0.5759398531044113,
                        -0.33997410679976725
                    ],
                    [
                        0.8744939840024268,
                        0.6912757700134646,
                        -0.03608411457768809,
                        -0.8968238832292812
                    ],
                    [
                        -0.29010888246332356,
                        0.7671126380901124,
                        0.4759188412726305,
                        0.44331350014055443
                    ],
                    [
                        -0.007865690098927791,
                        -0.1287733277446128,
                        0.9563085240728559,
                        0.03892845935135947
                    ]
                ]
            ]
        },
        {
            "id": 3,
            "score": 280,
            "steps": 904,
            "network_weights": [
                [
                    [
                        -0.2797119142811859,
                        -0.42874611579571753,
                        0.013840703950305455,
                        -0.5333672992182035,
                        0.9387543086159678,
                        -0.6542371157349758,
                        0.5400819309854135,
                        -0.8386386514544367,
                        -0.9150863717138047,
                        0.9731486359314618,
                        0.7469798947389474,
                        -0.43965849692183645,
                        -0.3476767708813635,
                        0.9431608715883577,
                        0.9423109502325663,
                        0.9735144525380777,
                        -0.3030086171780919,
                        0.8238991129572126,
                        -0.7367747675837384,
                        -0.38778547222651527
                    ],
                    [
                        0.204467166622059,
                        -0.7752842881350537,
                        0.2494796310617753,
                        0.8643094309550565,
                        0.011072392369177342,
                        0.6357284629248501,
                        0.11619985859642656,
                        -0.17694762274707565,
                        -0.20545531927766375,
                        -0.5788017577299256,
                        0.7274773813184812,
                        -0.7882410404683862,
                        0.9040654538645354,
                        -0.3555680492468707,
                        -0.3260532803832492,
                        -0.8323340651879509,
                        0.43510595040751165,
                        -0.44831654051773406,
                        -0.12513599784583485,
                        -0.6366291335610783
                    ],
                    [
                        0.4298974845486734,
                        0.7239051678476023,
                        -0.039353232238060976,
                        0.42279544512113715,
                        -0.2489704474465657,
                        0.9002955468439136,
                        0.585359096126327,
                        -0.23276132325523502,
                        -0.5147930757426531,
                        -0.4337653193178513,
                        -0.6272679195083837,
                        0.6856708503313298,
                        0.10317151178197857,
                        0.6847011841815549,
                        -0.20971005070252313,
                        0.24941439661702414,
                        0.7260110912125228,
                        -0.8543854532810968,
                        -0.5090761721944475,
                        -0.3340650140108872
                    ],
                    [
                        0.78728855085596,
                        -0.23934093898340647,
                        0.7046211036759911,
                        0.26242669874975766,
                        0.5191187869734539,
                        -0.06846181192010259,
                        -0.793494977819164,
                        -0.14008837277827402,
                        -0.7220883735991797,
                        0.6653777323337677,
                        -0.6003818785652677,
                        0.23972233457493508,
                        0.2025586637214265,
                        0.6607119476043308,
                        0.8531369424868546,
                        0.04946664346004592,
                        0.7619591109814807,
                        0.5757879985141965,
                        0.5378119206219363,
                        0.4827407791176985
                    ],
                    [
                        0.08659678544602309,
                        0.6874088705772972,
                        0.25501615220324303,
                        -0.05177048311707955,
                        -0.8837083156810239,
                        -0.5731208622254111,
                        -0.023387887663568696,
                        -0.0599948376226882,
                        -0.43638779029641983,
                        -0.6371996373020468,
                        -0.9858652463380375,
                        0.8931265395481489,
                        -0.8145277367963244,
                        -0.5419449024353609,
                        0.054348656943552065,
                        -0.13823588626559258,
                        -0.29735688293123785,
                        -0.12435448728070053,
                        0.9051810420995869,
                        -0.49307565122890606
                    ],
                    [
                        0.059690877748141524,
                        0.8844656601579872,
                        0.6822509394557383,
                        0.5755099600808529,
                        -0.727714122719324,
                        0.6695112681437412,
                        -0.8990320156736835,
                        0.4610961958578911,
                        0.5253114948769981,
                        -0.9638886789885455,
                        0.10082793084036012,
                        0.8895318940323995,
                        0.385964552244519,
                        -0.6305523300172022,
                        0.9227894957388068,
                        -0.9771026554390854,
                        -0.08135516967642853,
                        -0.7466985595459432,
                        -0.15282536835892482,
                        0.9719443564069383
                    ],
                    [
                        -0.06482051619851315,
                        0.05597687342366231,
                        0.5677671123975623,
                        -0.9497136753836781,
                        0.8125408203182705,
                        0.07555811008508848,
                        -0.32247007956396645,
                        -0.789734052104192,
                        0.7914035325578135,
                        -0.48465239132861826,
                        0.7381844370498858,
                        -0.9356003607257977,
                        0.39719123812032575,
                        -0.29325672014532245,
                        0.7735410285253268,
                        -0.49513903022784467,
                        0.5957786843721251,
                        0.31816296186146875,
                        0.058585157184836145,
                        0.46586392520439124
                    ],
                    [
                        0.9060201977034621,
                        0.6869487250551871,
                        -0.6570219577644886,
                        -0.5565784602602738,
                        -0.31481888486047976,
                        -0.8676402968494437,
                        0.9364392828885311,
                        0.5833032376611497,
                        0.6115300324626269,
                        0.9495464225552355,
                        -0.7760791017229061,
                        -0.5433750986634995,
                        -0.9169092946705093,
                        0.8278830731971774,
                        0.7405315943834996,
                        0.8051258710056244,
                        -0.8508562924778993,
                        -0.5338892864242246,
                        -0.42825702443675673,
                        -0.2896069572535984
                    ],
                    [
                        0.5747224812272838,
                        0.5069988928260394,
                        -0.25012947621986437,
                        -0.9620323903304697,
                        0.17615616838619488,
                        0.9382147701109518,
                        -0.89074466640398,
                        0.30515853780963753,
                        -0.6945455310442614,
                        -0.574442517783166,
                        0.06143647212173098,
                        -0.895973701965254,
                        0.44981456237642037,
                        -0.04624811168093146,
                        -0.3030981403415367,
                        -0.6338279484318774,
                        0.7042588005421222,
                        -0.6061617697530854,
                        0.5399542040462153,
                        0.5680348138821671
                    ],
                    [
                        0.13207735302033563,
                        -0.18832045830227595,
                        0.21825246155852268,
                        0.7625359148597644,
                        -0.4932496354467877,
                        -0.26748710346905624,
                        0.45727172442512554,
                        0.9937473419571734,
                        0.7943473605607727,
                        -0.10461981074407711,
                        -0.2966063195723949,
                        0.9018191090085217,
                        -0.9162262620303792,
                        0.27159491537085945,
                        -0.6612870066483707,
                        0.8256748468739925,
                        -0.4047235646561169,
                        0.5837536371604259,
                        0.8104859724877898,
                        -0.688718907021636
                    ],
                    [
                        -0.20192003807988712,
                        -0.5310581636118339,
                        -0.847369981285353,
                        -0.23368167004704876,
                        -0.5856713071991404,
                        0.12499745813823804,
                        0.07260244745940692,
                        0.12352329350061261,
                        0.6057592109162462,
                        -0.190960562257651,
                        -0.6169583035780934,
                        -0.9319429543845941,
                        0.8198712789317837,
                        -0.15742886566480752,
                        -0.40461595588928256,
                        0.41264211996175915,
                        -0.07756786513219671,
                        0.23185272328577833,
                        -0.8231645866272783,
                        0.7088137698831769
                    ],
                    [
                        -0.06964216544840318,
                        -0.04507003762793024,
                        -0.20632857881449265,
                        -0.4043272831379172,
                        0.5516186377667782,
                        0.8965339863954871,
                        0.4048254650238199,
                        -0.7996342769901494,
                        0.30862183180305247,
                        -0.785695272928329,
                        0.88105631359115,
                        0.5741269790786667,
                        0.2501406310115677,
                        -0.8755607250258344,
                        -0.8039193979207597,
                        -0.21076137525691974,
                        0.10304507734655943,
                        -0.10171444018574949,
                        0.3236346931766292,
                        0.39932021950514995
                    ],
                    [
                        0.37958038987758047,
                        -0.0059248080924934055,
                        -0.11378897572349778,
                        0.4051704284612432,
                        -0.492379460178731,
                        0.7099136568968056,
                        0.8122247466488743,
                        0.18324721223577511,
                        0.46650075485106046,
                        0.2030843597179426,
                        0.800536465925906,
                        0.6708991365243429,
                        -0.5854108839411525,
                        -0.8554327250481384,
                        0.7517925938975069,
                        -0.0049464263865348634,
                        -0.8144901816409598,
                        -0.6380016669859512,
                        0.9472952511690027,
                        -0.42196061944066215
                    ],
                    [
                        -0.0866802786078813,
                        0.5458906987503851,
                        0.5436905083847832,
                        0.023773305412624512,
                        0.5250950559030103,
                        0.2124424388361834,
                        -0.13871807152948068,
                        0.1542951706384934,
                        -0.43873204485257,
                        -0.04286708428267087,
                        -0.5974387155274095,
                        0.47710789302106615,
                        -0.4053515219471091,
                        0.5504459227914421,
                        0.3883610610138521,
                        -0.9834668093672583,
                        0.6001018749622365,
                        0.38220261100035513,
                        -0.29013936599920415,
                        0.3256880593769742
                    ],
                    [
                        -0.6860638205101852,
                        -0.7031929104961165,
                        -0.7999378619817501,
                        -0.13479504065158943,
                        0.6465716853319845,
                        -0.7064241440959675,
                        0.7616248673120893,
                        0.37876908996327874,
                        0.3938097872128936,
                        -0.2679215277521616,
                        -0.19186906556334815,
                        -0.9269583879518002,
                        0.7028966189156565,
                        0.9436072718123856,
                        -0.9554181214421968,
                        -0.7006196915645342,
                        -0.8435206797965387,
                        -0.7455464960819354,
                        -0.3831029098688661,
                        0.6420053261095207
                    ],
                    [
                        -0.8098196318517199,
                        0.2142702377564072,
                        0.0018183963706015216,
                        0.8388584737108483,
                        0.3375352824099217,
                        -0.7944304209081197,
                        0.9712337035736882,
                        0.28017947463362725,
                        -0.7813913973214128,
                        0.6038031522790464,
                        -0.04514404745555023,
                        -0.4290275021632346,
                        0.8424135055330642,
                        -0.2629547567854704,
                        0.8951334173165019,
                        0.7312513037695847,
                        -0.8999967747482014,
                        0.05307452181419503,
                        -0.947346582080719,
                        0.5746950680952773
                    ],
                    [
                        0.32122533278914034,
                        -0.03350559023258737,
                        0.8336039576043399,
                        -0.45675889053100827,
                        -0.7214837887067871,
                        0.9237267000540097,
                        0.16534197187098898,
                        -0.9353263525174376,
                        0.3680448171872175,
                        -0.07171769790232774,
                        0.6865917638309234,
                        0.9108259781080752,
                        -0.34577570316841966,
                        -0.39728001915564626,
                        0.2809768890601647,
                        -0.46061263741336433,
                        -0.6510907632074368,
                        -0.6017418693029644,
                        -0.22967975127149454,
                        0.6734941611780461
                    ],
                    [
                        -0.6233241384749959,
                        -0.790904564197449,
                        -0.7105187490022324,
                        -0.136015546900367,
                        -0.37888248223777565,
                        0.7854590568768531,
                        -0.21840443214132366,
                        0.7753867307001583,
                        0.9552140542781358,
                        0.87343105473135,
                        -0.21818248612498836,
                        -1.0117269326093181,
                        -0.9415481506826275,
                        0.5449250346379781,
                        0.4873235370145914,
                        0.6264685875956711,
                        -0.7778794666589057,
                        -0.7174034899658825,
                        -0.6486898415392697,
                        0.631559367405667
                    ],
                    [
                        -0.7356479478371254,
                        0.4154584875697169,
                        -0.28651180618211347,
                        0.29357003162380946,
                        0.765023519006951,
                        -0.752470742151129,
                        -0.11255847003766677,
                        -0.9055464520400867,
                        -0.4676443280295406,
                        0.6173722459866318,
                        0.5815619367664006,
                        0.27474635277016124,
                        0.5075777302147351,
                        -0.7824076989600268,
                        0.8786387342297697,
                        -0.2822677608089536,
                        0.6544141266248571,
                        -0.9547441668334671,
                        -0.9336882990881097,
                        0.8101726404613843
                    ],
                    [
                        -0.2684434161146123,
                        -0.04534962194893155,
                        0.8580713697687188,
                        -0.6058801636305229,
                        -0.6886432758051082,
                        -0.4595994788448714,
                        0.7460729225309539,
                        -0.937651280591105,
                        -0.003931875713553579,
                        -0.6142682088487439,
                        0.2854404856818127,
                        0.5108619824559149,
                        0.5636361910785517,
                        -0.42990840375216033,
                        -0.11877908608501131,
                        0.31796721398492966,
                        -0.4135049087363958,
                        -0.11959795939811135,
                        -0.9815811440474262,
                        0.9978935308225221
                    ],
                    [
                        0.5819149143277185,
                        -0.668991520566329,
                        -0.8691435157055281,
                        -0.51949720208716,
                        0.3925927554626314,
                        -0.25203679646821425,
                        -0.6538197027925887,
                        -0.20540739080534154,
                        -0.7933589535562675,
                        -0.6885080314934973,
                        -0.4516844496569803,
                        0.19406541343821582,
                        0.5094365799302791,
                        0.4249316747283589,
                        0.37477139966048045,
                        -0.7947947265143089,
                        -0.8422477486311657,
                        0.31069911624802704,
                        0.8011390721292151,
                        -0.483534275899155
                    ],
                    [
                        0.9886493989408804,
                        0.47229038663659195,
                        -0.8348879415351769,
                        -0.5045869392003872,
                        -0.3365432868696123,
                        0.3839090613322844,
                        -1.0373257617385652,
                        0.7991179162975528,
                        0.5890004238758632,
                        0.7708495360523713,
                        0.6040766968057885,
                        0.07241565075817524,
                        0.47653213697503793,
                        0.6355552510710596,
                        -0.969492335112927,
                        0.601764119179367,
                        -0.820583346109732,
                        -0.40785300324203355,
                        0.24281106895587956,
                        0.6706306780046312
                    ]
                ],
                [
                    [
                        0.8992023760742494,
                        1.013275752421922,
                        -0.5396036739716625,
                        0.9925475266889783,
                        -0.45229775009771833,
                        -0.3680715159561849,
                        0.20832034737910443,
                        0.7220706735491342,
                        -0.04854684044679325,
                        0.12792779171303148
                    ],
                    [
                        0.19628304509894412,
                        -0.5586763280087712,
                        0.5022811336814137,
                        -0.4859755412466378,
                        -0.06043492870170586,
                        -0.6685975798086583,
                        -0.5866804381418567,
                        0.45809770154920515,
                        0.8203366356023907,
                        -0.49060638098783915
                    ],
                    [
                        -0.009653757996908485,
                        0.2842766021466161,
                        -0.14179638660114935,
                        0.17942720073314877,
                        0.554320400195236,
                        0.7195155976870897,
                        0.10003452772543509,
                        -0.20306423822987774,
                        -0.1736356518355915,
                        0.3651069363262267
                    ],
                    [
                        0.8399951103386261,
                        0.796409863600217,
                        -0.04236941615464329,
                        0.46570318867179794,
                        0.9026965763853174,
                        -0.4669823716333008,
                        -0.3719296778946741,
                        -0.9013057217494471,
                        0.29115665191120743,
                        0.384767922414994
                    ],
                    [
                        -0.9153989133689637,
                        0.6425759160550022,
                        -0.9352078766082215,
                        0.49167134701650156,
                        -0.5040351327778618,
                        0.5860004382548709,
                        0.04653583862771469,
                        0.21667681717064557,
                        -0.9538450832606603,
                        -0.5876152592683903
                    ],
                    [
                        0.10192724188508517,
                        -0.028315828231416207,
                        0.4150327337554444,
                        -0.6965266922099678,
                        -0.479648040669854,
                        -0.4228227656405029,
                        0.3941057964171175,
                        -0.817090388005028,
                        0.7385921939174962,
                        -0.32228820646408396
                    ],
                    [
                        0.8078848403862242,
                        -0.8992960189372781,
                        -0.6074923467914988,
                        -0.6465818413319913,
                        -0.39703759120724436,
                        0.41440094149897244,
                        -0.8283614669234092,
                        -0.577875793222544,
                        -0.17365995784822474,
                        -0.17765556034377727
                    ],
                    [
                        -0.7676249199020144,
                        -0.1584348723339768,
                        0.8415769018963202,
                        0.48433320189050755,
                        0.6014593699119277,
                        -0.48839576271456814,
                        0.09686948085897873,
                        0.3030532525337861,
                        -0.7672657266161083,
                        -0.6802069083573272
                    ],
                    [
                        -0.04243481691397499,
                        -0.642727588722497,
                        0.5749001855401195,
                        0.05692943027395203,
                        -0.2709214683882175,
                        -0.3929261067116143,
                        -1.0404157157999394,
                        0.9810364223439698,
                        -0.573759111709957,
                        0.2741459197279612
                    ],
                    [
                        -0.3113331295330586,
                        0.7447784619159405,
                        0.882462825351269,
                        0.9499228292715545,
                        0.2759725820386947,
                        -0.3728317929564886,
                        -0.8640548171442073,
                        -0.5504208016373233,
                        0.32382048485979986,
                        0.38382418498335014
                    ],
                    [
                        -0.08619673080921353,
                        0.922026146944122,
                        0.10679000133086292,
                        -0.5735562627595303,
                        -0.9913601437973047,
                        -0.9918209501103794,
                        0.36960558922298614,
                        0.14181526668317868,
                        -0.5200423590067031,
                        0.15619594506493817
                    ],
                    [
                        -0.7539733729902554,
                        0.2874742946130804,
                        0.14328626122174892,
                        -0.4853925183084604,
                        0.32065648977420014,
                        -0.586564529835043,
                        -0.7015170211585029,
                        0.6585376375590712,
                        0.6889789903966712,
                        0.327765716769586
                    ],
                    [
                        0.49097535386220703,
                        0.3128599056519974,
                        -0.36789536508618004,
                        0.12706934330440922,
                        -0.11308517289312325,
                        0.8039051451153625,
                        -0.980634469028929,
                        0.9115162873707275,
                        -0.7229925771747321,
                        -0.8557253143682038
                    ],
                    [
                        0.6106263448269824,
                        0.09480306203385247,
                        -0.8386989411018684,
                        0.7736517597331107,
                        -0.9066835823152695,
                        -0.5614984750967282,
                        0.6270844984449742,
                        0.560648155891077,
                        0.045569648511780025,
                        -0.7207863550580915
                    ],
                    [
                        -0.8110635699405819,
                        -0.3158865008104135,
                        0.5073944577685998,
                        -0.3546700630386499,
                        0.01976794894058756,
                        -0.3020630545507723,
                        0.5669153913399101,
                        -0.883025390919852,
                        -0.16976453123303248,
                        -0.6081611621494858
                    ],
                    [
                        0.24677213861495884,
                        -0.7534578158118199,
                        0.8453786627996329,
                        0.09554045917403942,
                        0.9731728966773046,
                        -0.7697347109216863,
                        -0.8098750574260996,
                        -1.2014525366293232,
                        0.24796299445755832,
                        0.7529177171470136
                    ],
                    [
                        0.8407628060717858,
                        0.7762701186446528,
                        -0.41252397319980316,
                        -0.3130650568470399,
                        -0.22302227912311245,
                        -0.8567402940486735,
                        -0.7944468651327004,
                        -0.24905456038439366,
                        -0.7282352639008056,
                        1.019347929983605
                    ],
                    [
                        0.8120423992272368,
                        0.7806565553954513,
                        -0.5814725053503267,
                        0.32333013944223077,
                        -0.13946986453574195,
                        0.4939200517911675,
                        -0.3511317399038347,
                        0.5902983412500475,
                        0.43410630288716634,
                        -0.43022438178695355
                    ],
                    [
                        0.19114688702567295,
                        0.7837588470995096,
                        -0.561927713345312,
                        -0.7772400294471791,
                        0.47921863111627927,
                        -0.43551435452123227,
                        -0.7182025111106543,
                        0.3000296285632076,
                        -0.9391509387695007,
                        0.8974020230739337
                    ],
                    [
                        0.011212165063452684,
                        -0.009986607811021564,
                        -0.786596985556836,
                        -0.9269561346045946,
                        0.22840326110515785,
                        0.4286103488548123,
                        -0.8985935961776486,
                        -0.770220171290362,
                        0.8662967523794578,
                        0.23486806836649565
                    ]
                ],
                [
                    [
                        -0.7372947712670834,
                        0.8351272894074344,
                        -0.08711955811808109,
                        0.38000178688049013
                    ],
                    [
                        -0.13237972065981918,
                        0.0477860554824483,
                        0.47105684192193054,
                        -0.8267600230949999
                    ],
                    [
                        -0.06382691123614914,
                        0.45880116281615435,
                        -0.15833302415367856,
                        -0.39620083326617106
                    ],
                    [
                        -0.6131674591537284,
                        0.8549706976036593,
                        -0.9724920166584079,
                        -0.44115464147898
                    ],
                    [
                        0.6824452501593561,
                        -0.8619325257755306,
                        -0.2167811482339974,
                        -0.691023967275012
                    ],
                    [
                        -0.6095279690833222,
                        -0.9797182832466034,
                        0.9046154565470577,
                        0.4363580308542342
                    ],
                    [
                        0.3157572874777852,
                        -0.9653670847199052,
                        0.11479462741388291,
                        -0.9290259744495065
                    ],
                    [
                        0.17418680974364253,
                        -0.47824324903433135,
                        -0.5014017675739053,
                        -0.13635821471377296
                    ],
                    [
                        -0.3017291757392646,
                        0.7462539929145633,
                        0.2075215360679914,
                        0.9858472024691347
                    ],
                    [
                        -0.3616068825473302,
                        -0.09303158174712715,
                        0.9209687825176958,
                        -0.5130597639189176
                    ]
                ]
            ]
        },
        {
            "id": 4,
            "score": 280,
            "steps": 844,
            "network_weights": [
                [
                    [
                        -0.2797119142811859,
                        -0.42874611579571753,
                        0.013840703950305455,
                        -0.5331410192389889,
                        0.9387543086159678,
                        -0.6542371157349758,
                        0.5400819309854135,
                        -0.8386386514544367,
                        -0.9150863717138047,
                        0.9731486359314618,
                        0.7469798947389474,
                        -0.43965849692183645,
                        -0.3476767708813635,
                        0.9431608715883577,
                        0.9423109502325663,
                        1.0647674696798963,
                        -0.3030086171780919,
                        0.8238991129572126,
