{
    "total_evaluated": 40,
    "ai_results": [
        {
            "id": 1,
            "score": 190,
            "steps": 1548,
            "network_weights": [
                [
                    [
                        -0.48304963489438046,
                        -0.8230952179483773,
                        -0.5133192880943993,
                        0.11167382837786155,
                        -0.5249325588059544,
                        0.6680026081414308,
                        0.9727463067356843,
                        -0.07664887888383087,
                        -0.9904003988732302,
                        0.913471175859037,
                        0.5584124292509063,
                        -0.7329428260468405,
                        0.5669354091962973,
                        -0.6543833465958728,
                        -0.8909358609299973,
                        -0.1027317603455895,
                        -0.9034203034260044,
                        -0.27623531972620485,
                        -0.621008969411357,
                        -0.44246926191398117
                    ],
                    [
                        0.7993858801723985,
                        0.04088698517284173,
                        0.22318451405630935,
                        -0.14340550126191798,
                        0.11885565267471443,
                        0.01607403702264043,
                        -0.06926595228453558,
                        0.19783709910105007,
                        0.571278126774408,
                        0.9908281244224049,
                        -0.15811660085257961,
                        0.31010307179667795,
                        -0.39546319128800467,
                        0.3513960471459079,
                        -0.6184496305106932,
                        -0.03363351502116041,
                        0.46044459958651385,
                        -0.4874995924176715,
                        0.08897394755043031,
                        -0.9016205978355176
                    ],
                    [
                        0.9048622488434508,
                        -0.8744399039567936,
                        -0.48160111063362976,
                        0.6847511080195412,
                        0.17198618575325053,
                        -0.2067361228852922,
                        0.8980945843279702,
                        -0.06829580813156322,
                        0.7187828511783172,
                        -0.5427150928506586,
                        0.9641346754375988,
                        -0.09636088029102607,
                        -0.3983464408225592,
                        0.918611508063087,
                        -0.21081811961811625,
                        0.4513199989514469,
                        -0.597169362443416,
                        -0.3099801901143433,
                        0.017306946744422902,
                        -0.30963345658230845
                    ],
                    [
                        0.7739682446424139,
                        -0.31556623840758546,
                        0.06154301322201672,
                        0.6056624014537741,
                        -0.0026729477505049726,
                        0.7530492655740575,
                        -0.9551437053889014,
                        0.05167114577092358,
                        0.017084326068878664,
                        0.26225828238840765,
                        0.6067302426029713,
                        -0.7707920811945708,
                        0.12047513632474005,
                        -0.25453638865829076,
                        -0.1112662458510063,
                        0.06617294495840564,
                        0.22034702084830582,
                        0.007893033392220028,
                        -0.41974816566527573,
                        0.9444293483978228
                    ],
                    [
                        0.41017327779817836,
                        0.3070114273577593,
                        0.5851584309684537,
                        -0.28904874175869777,
                        -0.5358371259589074,
                        0.7567024002713858,
                        -0.7231483945823465,
                        0.1278078677236425,
                        0.022959063810737756,
                        0.8484597256814392,
                        0.20043306937999072,
                        -0.31648418071681483,
                        -0.4751534657798149,
                        -0.2681831338715983,
                        -0.974965799079945,
                        0.7916086286400779,
                        -0.5486433283816685,
                        -0.9820940368795934,
                        -0.033398415968382,
                        -0.9407722713104509
                    ],
                    [
                        0.9591452385711712,
                        -0.5186760810155562,
                        0.13624028469772043,
                        0.08413379988430991,
                        -0.05566658116100043,
                        -0.5338429094325579,
                        0.529648434559177,
                        0.2169091757569026,
                        -0.23623797446404327,
                        0.7552020852623484,
                        0.2587620518641507,
                        -0.021336666400440407,
                        -0.9493511891515192,
                        0.43694217822674974,
                        -0.7257959082278698,
                        -0.12021969780369335,
                        0.6724123384355223,
                        -0.9781115673105321,
                        0.23409224527670358,
                        -0.482788456682403
                    ],
                    [
                        -0.15486446150982802,
                        -0.040021013147403695,
                        0.7194111645197241,
                        -0.7233802494447183,
                        -0.5505330507984856,
                        -0.3404350484241472,
                        -0.33096690438682264,
                        0.7835364730074208,
                        0.689783301892551,
                        -0.2511689708175098,
                        -0.478399237640764,
                        -0.6094646803540018,
                        0.25239428582961754,
                        -0.7587460758877085,
                        -0.5381046039896462,
                        0.8423248107891306,
                        0.7851785174877779,
                        0.9741817779386712,
                        -0.827438499701536,
                        0.9984923644073036
                    ],
                    [
                        -0.7214951539257894,
                        0.8675272277717174,
                        -0.34168472722049703,
                        -0.9426223008969963,
                        0.020420028545856672,
                        0.5774780032142883,
                        0.21507884818522105,
                        -0.1459436234496405,
                        -0.5289412629295815,
                        -0.420810958528278,
                        -0.8863636412933107,
                        -0.31274995952916984,
                        0.2525183718354356,
                        0.9877047384663202,
                        -0.3448965699717801,
                        -0.23306810961628566,
                        -0.3529730252931058,
                        -0.02142362455959579,
                        0.047395673113595604,
                        0.38147389896354844
                    ],
                    [
                        -0.8121638677791778,
                        0.5473397504733204,
                        0.5955156472921304,
                        0.9615280043196919,
                        0.28646738075815503,
                        -0.6151128837912083,
                        -0.8868208677743776,
                        -0.274094764505012,
                        0.5715927205664963,
                        0.4480117859749182,
                        0.4728414556451894,
                        0.8829266895208023,
                        -0.09364606092893424,
                        -0.7598219626942337,
                        0.5265924172256657,
                        0.7896331111147463,
                        0.45696889773544536,
                        0.8518072501980622,
                        0.7313364062206442,
                        -0.40541002711896423
                    ],
                    [
                        0.545422633104464,
                        0.03048337295195158,
                        -0.11192977256285852,
                        -0.09267414417778919,
                        0.17539072594901284,
                        -0.26550789098204297,
                        -0.8446053383763248,
                        0.8865149083806576,
                        -0.05289464711163139,
                        -0.870957275963395,
                        0.6813922459500423,
                        -0.6788733127615536,
                        -0.9524641310587776,
                        0.051319855197084596,
                        -0.4781230475632081,
                        -0.01571502623506804,
                        0.162226949320033,
                        0.1282567701362931,
                        0.9868790015492457,
                        0.5669987112569697
                    ],
                    [
                        0.11761354471746266,
                        -0.7210558373236453,
                        -0.18310442865158327,
                        0.10160737834590838,
                        -0.8723262065084492,
                        -0.20977102210323162,
                        -0.6990313249137157,
                        0.2571389285037311,
                        0.9380650665889629,
                        -0.6731866370260076,
                        0.17392350907992937,
                        -0.9740859437263412,
                        -0.5947236557650428,
                        0.07582088325362402,
                        -0.2589208567460164,
                        -0.5809531670802466,
                        0.029669286454841348,
                        0.1719534240022278,
                        0.16972284339115573,
                        -0.7208471756647366
                    ],
                    [
                        -0.9022613287685777,
                        -0.2801469524523226,
                        0.20860793548047973,
                        -0.7034169636083372,
                        0.19372197835101934,
                        0.6090837314107267,
                        0.5248344186096541,
                        -0.7214840037512373,
                        0.7331820572728156,
                        -0.5329450432625031,
                        -0.3655641366041882,
                        0.16464201773401643,
                        0.5028049466619193,
                        -0.38516462703474375,
                        0.4173916785940861,
                        0.8365313674073975,
                        0.7584994797090874,
                        0.8135982459773352,
                        -0.2954018603752895,
                        0.32072273160745013
                    ],
                    [
                        -0.7192296866605723,
                        -0.04890916592212746,
                        0.6912086977134833,
                        -0.0008172874830523202,
                        0.36078017158117537,
                        0.8423252431457038,
                        0.6189838898797433,
                        0.43401334680500536,
                        0.99472692107895,
                        -0.9955875588770937,
                        0.9066798293726215,
                        0.5862792838163591,
                        -0.052231886224122004,
                        0.42835832888815206,
                        0.11068462700733983,
                        0.6113573559340673,
                        -0.7424766809168435,
                        -0.6381729925514221,
                        0.11259474284670534,
                        0.8606779670051803
                    ],
                    [
                        0.788584836198388,
                        -0.22978450598428024,
                        0.44123368650950656,
                        -0.11468375003464648,
                        -0.28985317061738414,
                        0.9682238424405314,
                        -0.5143828233613343,
                        -0.1254135159900862,
                        -0.9036944317380644,
                        0.6150223442326197,
                        -0.6110455147710272,
                        0.5288263675216771,
                        -0.16722788358288732,
                        -0.1299818786815441,
                        0.7488270582796615,
                        -0.18870518263500324,
                        0.6746957530981867,
                        0.9954528334325399,
                        -0.2430508563271252,
                        0.28635006704322796
                    ],
                    [
                        0.41147773483745964,
                        0.9379797661680374,
                        -0.5951564571026302,
                        0.7673273814083004,
                        0.9018733213837611,
                        -0.20657737483662508,
                        -0.7130931651253734,
                        -0.27912840276358253,
                        -0.721826960188509,
                        -0.7549574546782338,
                        0.811678814904409,
                        0.5313395133049921,
                        -0.14403645972594425,
                        0.23319545328436564,
                        0.006569428133888611,
                        -0.3858966431475508,
                        0.3163683724876747,
                        -0.6574958905601682,
                        0.3812997651296186,
                        0.8848017153991166
                    ],
                    [
                        0.5340348920726825,
                        -0.21498136492118025,
                        -0.17327019045100855,
                        0.8905048262127229,
                        -0.24418827089160078,
                        0.0770713443549127,
                        0.12443956201027828,
                        -0.13130741718239092,
                        0.15301332374898124,
                        -0.22165586935963022,
                        0.6395659327114891,
                        -0.9327934856814435,
                        -0.7097429746817421,
                        0.09718273218096796,
                        -0.45468364127302197,
                        0.7863946320638198,
                        0.6443982604142284,
                        0.5392344152465343,
                        -0.5030110490973849,
                        0.7850756089121902
                    ],
                    [
                        0.5027789744516551,
                        0.5154299236675692,
                        -0.5947785185291654,
                        0.6221690373316202,
                        0.005067405327330299,
                        -0.9668032885838995,
                        -0.43589910033146984,
                        -0.8453830557225432,
                        -0.8225528326338527,
                        -0.007470200542693872,
                        0.6529732601006137,
                        0.1648644655083391,
                        0.2946437865568612,
                        -0.15546411029690566,
                        -0.8180582480230141,
                        0.13767398612681525,
                        -0.284622841857495,
                        -0.2280436912752155,
                        -0.26361429171386863,
                        0.5527115479066667
                    ]
                ],
                [
                    [
                        -0.8260819426006092,
                        0.22086191103340735,
                        -0.5005584564793832,
                        -0.7608370574275525,
                        -0.8347762071671962,
                        -0.13372385434226852,
                        0.22895136059620924,
                        0.9560597484272364,
                        -0.5941768234836053,
                        -0.6311025066691831
                    ],
                    [
                        0.3173924122253633,
                        -0.923755842552771,
                        -0.23815871037292324,
                        -0.7591539773080982,
                        0.38629691909609454,
                        0.675423052765608,
                        0.9688886240997214,
                        -0.9091005604698179,
                        -0.5657198001530888,
                        0.5427566316846599
                    ],
                    [
                        0.4861603355877533,
                        -0.8232185009929056,
                        -0.8019332781614976,
                        -0.618552623489109,
                        -0.04877439608804979,
                        0.06782375038384814,
                        -0.500979129503504,
                        -0.8479042858727506,
                        -0.6004479118730133,
                        -0.36261445497182443
                    ],
                    [
                        0.8512890153218771,
                        -0.6477197860633539,
                        -0.4590981999788324,
                        0.994678509323508,
                        -0.7259587644737524,
                        -0.3306186784322229,
                        -0.2893056743165823,
                        0.2976545412521374,
                        0.7683466831781594,
                        -0.6244358421534444
                    ],
                    [
                        0.04272949005617166,
                        -0.6084923348913647,
                        0.07466193483554573,
                        -0.6548163174402533,
                        -0.917568565448937,
                        0.43245731045085023,
                        -0.3559255188672008,
                        0.9994958648003913,
                        0.6957902144408168,
                        -0.9272266308607637
                    ],
                    [
                        0.49080670134099535,
                        -0.3537556611451471,
                        0.6473928646614104,
                        -0.6090490806929516,
                        -0.28830739848671416,
                        -0.7887409426244105,
                        -0.29068211519841536,
                        -0.7061362123420216,
                        -0.2483200573781177,
                        -0.27418744297749353
                    ],
                    [
                        0.8877838837218006,
                        -0.08306295471926739,
                        -0.6705219106071822,
                        0.89232690509389,
                        0.43941519299670584,
                        -0.16204080923081432,
                        -0.3294783838076809,
                        -0.6910615558953579,
                        0.4770803300178721,
                        0.3228627957740806
                    ],
                    [
                        -0.6902156770932211,
                        -0.15056395891100904,
                        -0.7985621833079641,
                        0.746178515481527,
                        0.6183839798685775,
                        -0.2986286509559526,
                        0.9427315653454138,
                        0.8924524018104956,
                        -0.3489478707927651,
                        -0.7247436570060042
                    ],
                    [
                        0.49888303476780993,
                        0.9906992790545321,
                        0.3373327578716123,
                        0.7436539660790447,
                        0.790748706847948,
                        0.3077808096940384,
                        -0.25865918754086037,
                        -0.9176274932995259,
                        -0.8433846238543399,
                        0.7417604013707524
                    ],
                    [
                        -0.6956609743372764,
                        -0.07852035173605931,
                        -0.032334056332843364,
                        -0.7361864154299078,
                        -0.29846479590475794,
                        -0.22853315014701536,
                        -0.533348743827573,
                        0.9255980090833553,
                        -0.3054881971341188,
                        0.7696056946949028
                    ],
                    [
                        -0.24386799901063472,
                        0.41095628710641496,
                        -0.14298767516334454,
                        -0.15357101082748015,
                        0.05570807996005955,
                        0.7169438128808288,
                        -0.9558997248702186,
                        0.609686287559096,
                        0.2703846132495882,
                        0.26819687503119694
                    ],
                    [
                        -0.636211919092557,
                        0.14416630290121546,
                        -0.2717439688465464,
                        -0.7284794431233217,
                        0.8086149527434814,
                        0.4865769717126782,
                        -0.8925137382059933,
                        0.4593839307012917,
                        -0.019566482707599198,
                        0.03555886635406247
                    ],
                    [
                        0.38166183041739044,
                        0.15869842707377058,
                        -0.4360485763856816,
                        -0.3098219433444591,
                        0.7763615867518063,
                        0.6356460917435462,
                        0.7780713482592767,
                        -0.8702619707361718,
                        0.6459025408472514,
                        -0.07852746982140268
                    ],
                    [
                        -0.6172765029911775,
                        -0.6544085298827531,
                        0.637425284450279,
                        -0.5964846266857704,
                        0.39351920963785014,
                        -0.9210574578438282,
                        -0.01482475468312483,
                        0.6828041001944365,
                        -0.006588656391129044,
                        0.5833109218487258
                    ],
                    [
                        0.45862915645048363,
                        0.08371638211960164,
                        0.20899588799975066,
                        -0.531162316832557,
                        -0.23397174163789947,
                        -0.80424554527153,
                        -0.018958177940775256,
                        -0.5516806660984406,
                        0.48445346401157896,
                        -0.9064712076086974
                    ],
                    [
                        0.4637985655115018,
                        -0.027730919548402122,
                        -0.6663029744301001,
                        0.7316628430390941,
                        -0.6031302380347234,
                        0.9594060308767296,
                        -0.7690547691195839,
                        -0.9435225197369672,
                        0.6272694014750222,
                        0.100770944403904
                    ],
                    [
                        0.7688077583447117,
                        -0.9950561985704631,
                        0.08031668319457586,
                        0.07658173516146083,
                        0.8097865675630627,
                        -0.929934791760854,
                        -0.41094219560848266,
                        0.06455667778525576,
                        0.4470120217837459,
                        0.8225435416286273
                    ],
                    [
                        0.8262110217450422,
                        0.14198073447964976,
                        -0.1198530519254859,
                        0.11697562300950648,
                        -0.8293715301775022,
                        0.5112707859468819,
                        0.2392329800154196,
                        0.7715753925030171,
                        0.38224071342839294,
                        -0.029751936095823606
                    ],
                    [
                        -0.3784842448570753,
                        0.19266184665660302,
                        -0.5017064543549647,
                        -0.7612432018860931,
                        -0.7079307435189814,
                        0.15649837534278466,
                        0.4341234982114952,
                        -0.26050099374269964,
                        -0.7098239202507943,
                        -0.6700718850501464
                    ],
                    [
                        0.2728758883831255,
                        0.4896798592503626,
                        0.8558579343894797,
                        0.15135499244831152,
                        0.0824952400044856,
                        0.0024284595892665184,
                        -0.9974936766004063,
                        -0.09107807322486394,
                        -0.7199233731127985,
                        0.09523161163710525
                    ]
                ],
                [
                    [
                        0.08054658996091124,
                        0.7172543334284098,
                        0.5640866312090786,
                        -0.44646989604867127
                    ],
                    [
                        -0.46634223151732024,
                        0.8921659446719048,
                        0.1944744349772063,
                        -0.229153581569431
                    ],
                    [
                        -0.7070801424130633,
                        0.2481325622349566,
                        0.5251891440105352,
                        0.19404343754173992
                    ],
                    [
                        -0.9058969061127014,
                        0.1793980257434158,
                        -0.520441799098303,
                        0.39539683706478534
                    ],
                    [
                        0.5965908468079808,
                        -0.5039362701077121,
                        -0.7708003298083026,
                        0.6594102146428047
                    ],
                    [
                        -0.7644312015671286,
                        0.7604919597615123,
                        -0.936910021892009,
                        -0.5687230930406935
                    ],
                    [
                        0.5272584255663937,
                        -0.5822565112594029,
                        0.22753100591523645,
                        -0.6467743759953519
                    ],
                    [
                        0.17129926403421591,
                        0.3677769560254627,
                        0.9865301284169365,
                        -0.8815373439568266
                    ],
                    [
                        0.8953078016551457,
                        -0.30178997551281816,
                        0.8911596137783961,
                        0.8334452840022315
                    ],
                    [
                        -0.5654391686997404,
                        0.8971430474377775,
                        0.4823826953124568,
                        0.38610619067616736
                    ]
                ]
            ]
        },
        {
            "id": 2,
            "score": 130,
            "steps": 724,
            "network_weights": [
                [
                    [
                        -0.45575883906449066,
                        0.02502376721512567,
                        0.09359521533832282,
                        0.5645466372864705,
                        -0.033480102169393344,
                        0.02443546681662645,
                        -0.3729528997886722,
                        0.05140581812880196,
                        -0.8350830484286569,
                        0.5127027773062829,
                        -0.5003997714250059,
                        0.9777754939258583,
                        0.6641009718564019,
                        -0.9539004741015737,
                        0.4394571593074461,
                        -0.8030371454279881,
                        -0.2830808273861667,
                        -0.01439606378988012,
                        0.9138238374767849,
                        0.912556573230429
                    ],
                    [
                        -0.5070425745889848,
                        0.12448861480846718,
                        0.00485123980576585,
                        0.11864601438531275,
                        -0.5442651789379143,
                        -0.8113677662754355,
                        0.6539109756792656,
                        -0.8122358625015074,
                        0.9929493464672459,
                        -0.20543504738094054,
                        -0.20844562970670877,
                        -0.12634653119398398,
                        0.017455744436100096,
                        -0.45025210351169576,
                        0.032914990318440696,
                        0.6418839644888954,
                        0.8155016060650473,
                        -0.7338771240851734,
                        0.5755896683365285,
                        -0.9504549591651101
                    ],
                    [
                        0.9068944632889504,
                        0.7131989750044812,
                        -0.7287092256251573,
                        0.43386485171906375,
                        -0.16793340534176804,
                        0.8708643115321444,
                        -0.4225245093333494,
                        0.18592900695790848,
                        -0.7082751731903847,
                        0.22327297401523927,
                        0.3592935700200195,
                        0.20567974924202304,
                        0.7995914736617533,
                        0.9136366856876115,
                        -0.27142641869891815,
                        0.35352922873813153,
                        -0.6138303302639341,
                        0.473039435554949,
                        0.18177688274397874,
                        0.18445209365423176
                    ],
                    [
                        0.13471517751745643,
                        -0.0743032919429305,
                        0.8130867552904426,
                        -0.18448389918946329,
                        -0.023013994142609517,
                        0.22142647825379091,
                        0.0014959967060030888,
                        -0.06790103513054513,
                        -0.08191871516980576,
                        0.5705683233706416,
                        -0.3925526646268598,
                        0.06272074914280745,
                        -0.9311598121478546,
                        0.4375077123601201,
                        0.5689222554060933,
                        0.5376130174643872,
                        0.401213266037594,
                        0.5863699903613342,
                        0.6939236837522347,
                        -0.5307445394639934
                    ],
                    [
                        0.4353437788772594,
                        -0.12345047880048665,
                        -0.39814505280386414,
                        0.10575676267872858,
                        0.0005834234709511943,
                        0.03739613472543413,
                        -0.04081792248811,
                        0.18516802697646728,
                        0.299274574362675,
                        0.20991312542329466,
                        -0.3882248375050623,
                        0.7484631637767218,
                        -0.5499126706559403,
                        -0.36261950456382164,
                        0.3698445646301267,
                        -0.9029029093643526,
                        -0.7356888607651979,
                        0.8104642210843949,
                        -0.8574939700041604,
                        0.4386260846324923
                    ],
                    [
                        0.6982965987516523,
                        -0.892580240380745,
                        0.269457205906668,
                        -0.06052718472510543,
                        -0.09881494169152139,
                        -0.9063476224050777,
                        -0.2767485325021499,
                        0.13291427201066552,
                        -0.44749969291115743,
                        -0.554836677279809,
                        0.05324668009763145,
                        0.32034366516741564,
                        -0.6179867408566859,
                        -0.9415194353590151,
                        -0.8286470813355786,
                        -0.632487935012414,
                        0.35340632032836483,
                        0.7104383367062108,
                        -0.06883971122049926,
                        -0.46628452361404205
                    ],
                    [
                        0.619584045092169,
                        -0.5442574979477528,
                        0.9169490606013784,
                        0.654385806760877,
                        -0.0012974185922445258,
                        -0.6374607673434651,
                        -0.3346562623720415,
                        0.23395469492530174,
                        -0.3244963453779641,
                        0.3650328452998448,
                        -0.15415353173373725,
                        -0.4395038425212996,
                        -0.1893783899829189,
                        -0.6073993830495341,
                        0.47594183142373403,
                        0.8213431345931823,
                        0.6775633619255255,
                        0.37652078192940475,
                        0.17081489951487172,
                        0.2413223640474076
                    ],
                    [
                        0.3744003888952734,
                        0.6821193637376641,
                        -0.7320432906337029,
                        -0.6271645895637965,
                        0.8922875226601841,
                        0.4557309161610994,
                        0.026101047411274836,
                        -0.025838643160455144,
                        0.09683348752890208,
                        0.9912546811868577,
                        0.9445656336891659,
                        -0.6822206136254969,
                        -0.8347073744445559,
                        0.7964077670029497,
                        -0.3863708203870331,
                        0.11778692173641825,
                        -0.5226264214864409,
                        -0.30637970426322236,
                        0.48188260866271526,
                        -0.025280594396683176
                    ],
                    [
                        0.776075701645766,
                        -0.5139168113498473,
                        0.5127603513772665,
                        -0.8905692081055916,
                        0.6161365288300731,
                        0.911309998969746,
                        -0.31681660315619453,
                        0.6242511527918699,
                        0.5049040011943124,
                        0.680472931314914,
                        0.6966274286532552,
                        0.6359070930208783,
                        0.6336026265380288,
                        0.7616219312335217,
                        -0.9104974487230335,
                        0.817635144106267,
                        0.5535083161983112,
                        -0.339931166376519,
                        0.8483133686876334,
                        0.4433464691539062
                    ],
                    [
                        -0.23712716323795258,
                        0.4447625304805902,
                        -0.32263832816678084,
                        0.40210099750745276,
                        -0.9288459464291963,
                        -0.501042415203109,
                        -0.026669850835955078,
                        0.4780622376111683,
                        -0.17924478749559336,
                        -0.14838314672037445,
                        -0.6600820354876371,
                        -0.890184739245852,
                        -0.5213016340493779,
                        0.27506482802874177,
                        0.8503260223232456,
                        0.0670113960978751,
                        0.2352430552072433,
                        0.640083376886543,
                        -0.6676030504395336,
                        -0.13062760456725653
                    ],
                    [
                        -0.7657383796650648,
                        0.4106837442402309,
                        -0.7395182533825846,
                        0.20000609061179797,
                        -0.6937458571464294,
                        0.6231319594923312,
                        -0.13568072730600989,
                        0.006412916959935178,
                        -0.5133954669114276,
                        -0.7542042154284376,
                        -0.8324092831638636,
                        0.7156220980467745,
                        -0.808321782014247,
                        -0.7102396109871314,
                        -0.2575004194419457,
                        0.5625377792957313,
                        -0.07425839404455203,
                        -0.9891348964311546,
                        -0.2634684021629383,
                        0.25847892602952593
                    ],
                    [
                        0.13808252405058652,
                        0.9744752013418561,
                        0.9404162286995013,
                        -0.0033832216802947013,
                        0.6798466825666716,
                        0.7905916297637274,
                        -0.6767192155408743,
                        -0.7990496177854209,
                        0.019468003118497945,
                        -0.38684117345161617,
                        0.7430984736824633,
                        -0.568887077463563,
                        -0.4673946961735418,
                        0.8054293408252642,
                        0.18854038746119883,
                        -0.6431118674718781,
                        -0.4288852270665102,
                        -0.8388066209361549,
                        0.2647432543257664,
                        -0.628621099662533
                    ],
                    [
                        -0.7201726472302905,
                        -0.25504840018168173,
                        0.5913064080366912,
                        0.9378593164182105,
                        -0.3737301870818819,
                        0.43916704749513635,
                        0.875109904672531,
                        0.7780138814856215,
                        0.07034544069386262,
                        0.8230576449071989,
                        0.7277947097387754,
                        0.8260725402614202,
                        -0.15894057884444712,
                        -0.1310482904348862,
                        0.6714131521456206,
                        0.20417685253363227,
                        0.4403935674768926,
                        0.6660184271327365,
                        0.8968663556214582,
                        0.4322712613426887
                    ],
                    [
                        -0.9141181857060059,
                        0.6401037036684138,
                        -0.46408773459452934,
                        0.8043387243266105,
                        -0.8857189385193729,
                        -0.15149018781430956,
                        -0.5925270503367801,
                        0.4422131223641097,
                        -0.42641577411996234,
                        -0.4236935752301767,
                        -0.6231806114691758,
                        -0.9849741945361461,
                        0.1436649550631932,
                        0.2907248184628919,
                        0.8663023705904267,
                        0.28053822142381124,
                        -0.13279256354195823,
                        0.5137213326642673,
                        -0.4064404393052361,
                        0.33277157597820084
                    ],
                    [
                        0.9241077488392371,
                        0.373794543527894,
                        -0.33728857014143787,
                        -0.29474717491965685,
                        0.7584757734413308,
                        -0.6578458517011103,
                        -0.7644566265115456,
                        0.558727529256688,
                        -0.7204792055305553,
                        0.8511836772606418,
                        0.9590742634138636,
                        0.6814754865694177,
                        -0.6508862677240912,
                        0.5815612781753312,
                        0.3039940514651913,
                        -0.3055666857222452,
                        -0.03626023601279793,
                        -0.6915350219134431,
                        -0.4365524708292885,
                        0.46170648969851613
                    ],
                    [
                        0.2291613583596619,
                        -0.3108787080924502,
                        -0.00388037508242034,
                        0.0682322949884997,
                        0.4812806369486169,
                        -0.22909793729433292,
                        -0.8160344321532693,
                        0.5266632192518554,
                        0.30862968394812995,
                        -0.2854083639650107,
                        -0.6632443938743933,
                        -0.8795194190104465,
                        0.8118517801770953,
                        -0.7812928437793512,
                        0.6974349211334012,
                        0.9612493743891808,
                        -0.4165965176569457,
                        0.09389152474222962,
                        -0.7394704408523072,
                        -0.34196203010607307
                    ],
                    [
                        0.23689926421318708,
                        0.9039505250500521,
                        -0.8742449452103709,
                        -0.26545433471426105,
                        0.9777925500232969,
                        0.8389438603652781,
                        -0.03512338027599049,
                        -0.6709818396212641,
                        -0.25529356609587195,
                        0.9016424642904213,
                        -0.681541396689989,
                        -0.5268042139470352,
                        -0.723773163304289,
                        -0.029937328766316496,
                        -0.38221042269995276,
                        -0.02400448901936114,
                        -0.10699540283604403,
                        -0.913303548539149,
                        0.4877247673719569,
                        0.5304902547087935
                    ]
                ],
                [
                    [
                        0.7081462676779375,
                        -0.9765536610650325,
                        -0.36056204139905734,
                        0.8676617884073645,
                        -0.2651375612423619,
                        -0.5268712014846284,
                        0.7653169281879937,
                        0.027878337180100354,
                        0.6044846480971078,
                        -0.24309365127396587
                    ],
                    [
                        -0.6075072911725246,
                        0.2773431768517234,
                        -0.5881385739681488,
                        -0.6705904888804539,
                        -0.37499442962158747,
                        0.9501348794763771,
                        -0.8380556128907282,
                        -0.8718865465342083,
                        -0.7464546545429442,
                        -0.34912329590928404
                    ],
                    [
                        -0.08336031667725186,
                        -0.682145210198986,
                        0.2357991296330757,
                        -0.8929081586163439,
                        -0.8167337413556381,
                        0.9568410646421539,
                        -0.4522770707520667,
                        0.7037319255410512,
                        0.10932927411460747,
                        -0.4055369766536132
                    ],
                    [
                        -0.14906795446988252,
                        0.6151653832317452,
                        -0.4808628302711657,
                        0.25623814422429403,
                        -0.472108465093545,
                        0.03233649778724845,
                        -0.8963087295695125,
                        -0.5242352286877836,
                        0.6381788681733067,
                        0.6716189408370459
                    ],
                    [
                        0.9607683975938781,
                        -0.8661907867634435,
                        0.4785840778329806,
                        -0.44431099812326513,
                        -0.6117804074423328,
                        -0.4788379750007039,
                        0.2788844687325507,
                        -0.101693720516421,
                        0.977751320617469,
                        -0.37519864000959013
                    ],
                    [
                        0.021946173349594034,
                        -0.7666231354306186,
                        -0.28344710845474497,
                        0.07165289842962763,
                        0.9608167571299522,
                        -0.5509526788352523,
                        -0.8427170633342831,
                        0.2334089696304773,
                        -0.18438119316176316,
                        -0.9218764723041293
                    ],
                    [
                        0.36259404179750176,
                        -0.32876413436554675,
                        -0.8287707593547415,
                        -0.3915947965849198,
                        -0.5437411572627631,
                        -0.2630828844325248,
                        -0.21343451200563113,
                        -0.5596796663976249,
                        -0.8672582192573819,
                        0.8551694162918768
                    ],
                    [
                        0.12517598836337251,
                        -0.9927019057142443,
                        0.45852166745487266,
                        0.1978207548834785,
                        -0.761612800605268,
                        0.6584463052908729,
                        -0.45443939344361106,
                        -0.1644207360239882,
                        -0.6426498696200675,
                        -0.32697946011294743
                    ],
                    [
                        -0.25574520050392224,
                        0.9643179676098985,
                        -0.10995130388587082,
                        0.4629645147096091,
                        -0.04406835321887348,
                        0.24969677632769538,
                        -0.9514678185199947,
                        -0.5639571482742229,
                        0.3694162029449235,
                        -0.12996413646297467
                    ],
                    [
                        -0.3093491164927471,
                        0.717639169222261,
                        -0.31994325653045186,
                        -0.9728299555093436,
                        0.37082560338789183,
                        0.21044708886425045,
                        -0.9004875893137343,
                        -0.20946636256333195,
                        0.12625980932192338,
                        0.5186724033109056
                    ],
                    [
                        0.6715987952856792,
                        0.6746611054464948,
                        -0.21320715649119726,
                        0.7322191046248148,
                        0.4249176125181744,
                        -0.2309073411389153,
                        0.3772031935221376,
                        -0.17915564302610187,
                        0.048312643532599564,
                        0.8454568762921815
                    ],
                    [
                        0.06614543036637732,
                        0.2131597268143388,
                        -0.028626058546534328,
                        0.4046244223198381,
                        0.1621005636785826,
                        -0.5951169117475259,
                        -0.32512207184620334,
                        0.406697978820336,
                        0.08862781244939866,
                        0.9699357247627296
                    ],
                    [
                        -0.8899555713941605,
                        0.46709191367861114,
                        0.8652870655314162,
                        -0.04532783709014865,
                        -0.7869538780776637,
                        0.9768190879189991,
                        0.45422456999434435,
                        -0.24400865085123047,
                        -0.7644127107356609,
                        -0.5993701972947785
                    ],
                    [
                        0.6722986249366916,
                        0.09993597368949558,
                        0.22452677357223627,
                        -0.1266560466674651,
                        0.16771538488412752,
                        0.11370388669510723,
                        -0.40605061173475,
                        0.10694454794631825,
                        -0.9022344669979434,
                        0.8384166197966096
                    ],
                    [
                        -0.40905796568124275,
                        -0.34495009616284733,
                        -0.10947070633629274,
                        -0.12450823414144141,
                        0.33645445517974726,
                        0.7593962791961215,
                        -0.7414373178200038,
                        -0.04739538304947333,
                        -0.7005030886130867,
                        0.5413782726624186
                    ],
                    [
                        -0.34806189094441686,
                        0.36348532331351335,
                        0.7614978790825941,
                        0.3895647075710884,
                        0.05767253773338976,
                        0.27990233311145696,
                        -0.15474475294470924,
                        0.41359483499586136,
                        -0.5332171747505663,
                        0.5825639306205384
                    ],
                    [
                        -0.3476587381918739,
                        -0.12120791545112763,
                        -0.41635546461596573,
                        0.6400185022734424,
                        -0.3490013382316457,
                        0.1504358017530938,
                        0.6350580212351287,
                        0.27784923712491194,
                        -0.10305645652136097,
                        0.047746468150857035
                    ],
                    [
                        0.6726422195397932,
                        -0.46490978947674866,
                        0.9919445705747776,
                        -0.6182681088056234,
                        -0.17162808561007825,
                        -0.6566767459322687,
                        0.6073708560259781,
                        0.5311813027175631,
                        0.38542441842721153,
                        -0.21930825422961187
                    ],
                    [
                        -0.5094597728139294,
                        0.40462936819293605,
                        -0.3779557235569171,
                        -0.12432913012593705,
                        -0.7026312144262024,
                        -0.7155346959823043,
                        0.8927285134079064,
                        -0.9544128273442258,
                        -0.26440159851716394,
                        0.3040173070814869
                    ],
                    [
                        -0.26657125521962466,
                        0.4869602110441411,
                        -0.35584125204487194,
                        -0.2350547406031187,
                        -0.4861977123326897,
                        -0.5401186267091247,
                        -0.8057928938434871,
                        0.1873741991200446,
                        -0.39710122604565035,
                        0.22736775885733218
                    ]
                ],
                [
                    [
                        -0.12697990528260195,
                        0.8338908608795752,
                        -0.33186896384723963,
                        0.21493281263747988
                    ],
                    [
                        -0.6301250557343392,
                        -0.5586381035617871,
                        -0.1591818730820198,
                        0.6361024332066934
                    ],
                    [
                        0.9335045564263831,
                        -0.4888245186239326,
                        -0.8159309528250545,
                        -0.9283955107779012
                    ],
                    [
                        -0.3836329411305486,
                        0.9496993131786788,
                        0.5759514912175061,
                        0.6708299005089922
                    ],
                    [
                        0.5118886230990898,
                        -0.12720111792917965,
                        0.9717441544198324,
                        -0.7210739775174853
                    ],
                    [
                        0.014944863643927997,
                        -0.2406351229402992,
                        -0.1529611573543186,
                        0.7054350481341782
                    ],
                    [
                        0.7483212623780819,
                        0.505701191459009,
                        -0.032326590939189215,
                        -0.8949931429709606
                    ],
                    [
                        -0.3826962242888208,
                        0.8954477320953116,
                        -0.05396751657879806,
                        -0.9285768959589635
                    ],
                    [
                        0.37675512230821373,
                        -0.5401684104255613,
                        0.9245754877739802,
                        -0.8738754527850894
                    ],
                    [
                        -0.017652951963554653,
                        0.6657300183825363,
                        -0.23270011846709648,
                        -0.03272611745322895
                    ]
                ]
            ]
        },
        {
            "id": 3,
            "score": 40,
            "steps": 874,
            "network_weights": [
                [
                    [
                        0.8825273998333252,
                        0.19631780927948705,
                        -0.7761915952771963,
                        -0.06357079031907542,
                        -0.9020628142080891,
                        -0.0842513490519603,
                        -0.7496389521378846,
                        0.37594848531800107,
                        0.7796863957850022,
                        -0.6091528764061769,
                        0.26231600901054986,
                        0.9386914080292128,
                        -0.11942843537826642,
                        -0.9411001069530627,
                        0.7315370497498743,
                        0.6450082963334067,
                        0.7780886435000745,
                        0.9941881127695611,
                        0.42189286007658144,
                        0.908856834057566
                    ],
                    [
                        0.06551503739414821,
                        0.02170578877309226,
                        -0.043552710607250855,
                        0.24221629187004434,
                        -0.3759486495422788,
                        -0.4499862942054529,
                        -0.25258555081326195,
                        -0.6198361843824669,
                        0.7615730792766424,
                        0.3850831083884707,
                        0.4381111000316016,
                        0.9552237356997746,
                        -0.7507100575066001,
                        -0.6396696574503169,
                        -0.6108679050440813,
                        -0.48905476708820506,
                        -0.27220144897858556,
                        0.5721941563495707,
                        0.9044157911915616,
                        -0.24364756639073115
                    ],
                    [
                        -0.5026371023906282,
                        0.7880292113076683,
                        -0.27140094790130265,
                        0.9180820981942657,
                        0.4907078756386922,
                        -0.12941288438698884,
                        0.9302346563579529,
                        -0.9890280932229873,
                        0.4645796660180612,
                        -0.07322568913393357,
                        -0.41228120388081946,
                        -0.6513590527453093,
                        0.14132957039916483,
                        -0.31346949749230735,
                        0.12956217326437436,
                        -0.317423018852248,
                        0.7869999530882139,
                        -0.3662896178682311,
                        -0.5177112479221577,
                        0.6869980789386492
                    ],
                    [
                        0.06374371837643444,
                        -0.5172597860233159,
                        0.4412766905243919,
                        -0.20518326873407555,
                        -0.41987990243218376,
                        -0.717454553991941,
                        -0.4525133975603022,
                        0.6578976288629159,
                        -0.4916299030132627,
                        0.8575017830130078,
                        0.26859372900958034,
                        -0.9030514159912433,
                        0.8757812171624502,
                        0.8219113690716189,
                        -0.9395696364140316,
                        -0.875695075746211,
                        0.8042408071297436,
                        -0.4751124378020348,
                        0.7821542478049641,
                        0.2359951718226252
                    ],
                    [
                        0.40640940431092165,
                        0.6253256667217295,
                        -0.3240364555594719,
                        -0.8214926206413222,
                        0.47323148090715805,
                        -0.9710899755825009,
                        -0.1017258451786891,
                        0.31016916636252656,
                        0.66823779244141,
                        -0.8454612828135046,
                        -0.2974785680289105,
                        0.6789495298584973,
                        0.20793230343294788,
                        -0.3772427901156217,
                        -0.1504614737431753,
                        -0.8647994959827121,
                        0.08189684415676224,
                        -0.3382325028929649,
                        0.589052688714514,
                        0.14080070018125834
                    ],
                    [
                        0.024591102029693168,
                        -0.28883957547976546,
                        0.6768947188750853,
                        0.17550296958578748,
                        0.275232494034217,
                        0.7173561424251673,
                        0.40810819165858936,
                        -0.8778013987457032,
                        0.6875889926123233,
                        -0.22660480683990292,
                        -0.14912110923484523,
                        -0.4283707853837804,
                        0.11809923375346165,
                        -0.23733742234995425,
                        0.4602232669696191,
                        0.16559159472318052,
                        -0.12195521924287722,
                        -0.3000898087752588,
                        0.20232313171167493,
                        0.46048046980854385
                    ],
                    [
                        0.7153017073955417,
                        -0.2656602048047947,
                        0.7779744676876938,
                        -0.8323492652665836,
                        -0.6864100971680187,
                        0.48008440113316597,
                        0.6274704210418158,
                        -0.9117398818187408,
                        -0.994408979028722,
                        0.13908274783454955,
                        -0.7128000336510747,
                        0.33484504530945625,
                        -0.8882499068108665,
                        0.9619728966150349,
                        -0.6187814363841662,
                        0.7829873700276104,
                        0.9102143557838265,
                        0.6080632050181702,
                        0.3461745638715903,
                        0.8622530972641731
                    ],
                    [
                        0.9986383551749458,
                        0.7367004420663266,
                        -0.7265938378926657,
                        -0.30835317029238163,
                        -0.3380767824029751,
                        -0.509524213746964,
                        0.4632057561589953,
                        -0.5210163717658034,
                        0.405531361050945,
                        0.7835296243824141,
                        0.8488604892748128,
                        -0.69879915009576,
                        0.5637765305594655,
                        0.00969037137557538,
                        -0.12813804910383042,
                        0.9698563319357312,
                        -0.7182031339856103,
                        -0.4400644645534564,
                        -0.44483992595055577,
                        0.6327788479925116
                    ],
                    [
                        0.8121592558338118,
                        0.07110743094651895,
                        -0.06822755897981025,
                        0.3015192715574615,
                        -0.6184210915431907,
                        0.5648785389493303,
                        -0.926575387558114,
                        0.10134088976026656,
                        -0.43740743934970006,
                        0.0985317779487449,
                        -0.9736620800878055,
                        0.516415516623361,
                        -0.7130308826419782,
                        -0.6426760738033017,
                        0.8722508219409171,
                        0.6912746809967898,
                        -0.030899233311237007,
                        0.04407718636189739,
                        0.5500431471895648,
                        -0.1611150901588827
                    ],
                    [
                        0.3376681159200967,
                        -0.5746815250152686,
                        -0.23148368041522116,
                        0.500236012947362,
                        -0.9204571634415348,
                        -0.792506487975519,
                        -0.4808068077007681,
                        0.06778295000415469,
                        0.39865851230426275,
                        0.34242241301047405,
                        0.03937056943852846,
                        -0.3444756984213293,
                        0.5830069825236899,
                        -0.44944905930775625,
                        -0.8120905000293746,
                        0.9958398627799321,
                        0.8241997512676937,
                        -0.5869705416367448,
                        0.7742100569409853,
                        -0.42587507782885115
                    ],
                    [
                        0.269505527760068,
                        0.41653929810484547,
                        0.3816633753109764,
                        0.16094267820397534,
                        -0.9199008662966939,
                        -0.31803202340965253,
                        0.3286691564523021,
                        0.05726843966822415,
                        -0.5286631625208473,
                        -0.2515996022917637,
                        -0.03977356605132121,
                        0.01376478428363237,
                        -0.6150642111389568,
                        -0.9880235186572406,
                        0.6731540734858539,
                        0.7997791615541481,
                        -0.9081049730591793,
                        0.3574521648780957,
                        0.4899405774578707,
                        -0.7011227887126319
                    ],
                    [
                        -0.6598885445177913,
                        0.2686623452322676,
                        -0.19631349676307552,
                        0.7252112267029953,
                        0.7204781799100621,
                        -0.2634245496410095,
                        0.37272703919290295,
                        0.6353155970290314,
                        0.022589740355239307,
                        0.5669768305175815,
                        0.5161335061449337,
                        0.6893032268152557,
                        -0.9669006849533077,
                        0.6981747369321427,
                        -0.5037504561259436,
                        -0.29216673153316064,
                        0.24038044740193065,
                        0.9511392827336378,
                        0.43626389393676757,
                        0.9329336477907682
                    ],
                    [
                        0.027453576884106434,
                        0.8237759767749775,
                        0.3119454571556972,
                        -0.2574397741933301,
                        -0.45794455164339287,
                        -0.5404269931067915,
                        0.17084422425660062,
                        0.14788728751899494,
                        0.6938960254881581,
                        -0.2115751452536052,
                        -0.8727122426863969,
                        0.6795424131708641,
                        0.27223852187648245,
                        -0.6759906100979267,
                        0.29392266208396256,
                        -0.9398999705638544,
                        -0.6447639759037211,
                        0.7148693276411564,
                        0.8223927419060726,
                        0.7556685969062211
                    ],
                    [
                        0.7814982059754121,
                        -0.927100493955727,
                        0.4657749185978295,
                        -0.5758714664166622,
                        0.8289814917194174,
                        -0.6250329542111914,
                        -0.6924821757956257,
                        0.8652955183147264,
                        -0.49692978242654773,
                        0.23855481124703615,
                        0.7194634333454917,
                        0.6270175432705352,
                        0.50508239873628,
                        -0.9128141842369926,
                        0.5483278087989611,
                        0.8605197251847543,
                        0.7384996039365617,
                        -0.9455806666662299,
                        0.43732780615736155,
                        0.3058174597681247
                    ],
                    [
                        -0.806780299123478,
                        0.4040818878618615,
                        -0.7917137861128056,
                        -0.4486572129816093,
                        0.37518260520054336,
                        -0.3741921421882677,
                        -0.8543475808195864,
                        -0.9131714570680776,
                        -0.4037356117936688,
                        0.2721975947362594,
                        -0.6217637978218946,
                        0.5913905080567567,
                        0.7874900757633199,
                        -0.356943192176399,
                        -0.4756646215045073,
                        0.9124291844269943,
                        0.6887734129193632,
                        -0.9201394662853575,
                        0.018803817654816424,
                        0.4361931108095698
                    ],
                    [
                        -0.6786084215908805,
                        0.32759875585548537,
                        -0.6016350287270402,
                        -0.16393711216299134,
                        -0.5762482256989039,
                        -0.8525079255925352,
                        -0.8911203274873705,
                        0.9611239103738809,
                        0.5282415967650032,
                        -0.012628044369606517,
                        -0.7282588134425034,
                        -0.9699166901077354,
                        -0.6687172949566589,
                        -0.5282317699187635,
                        0.36680857527686483,
                        -0.008007601413422272,
                        -0.2899076471776716,
                        0.36772966241021976,
                        -0.8411588253295064,
                        -0.21198170624528712
                    ],
                    [
                        -0.9317274621606673,
                        -0.4553735305009794,
                        -0.9206526562422841,
                        -0.8565510838156369,
                        0.7049824521787995,
                        -0.7779395498107016,
                        -0.6700114124314223,
                        0.2818039505929928,
                        -0.8206971093674584,
                        -0.48364919520200367,
                        0.5819997567749535,
                        -0.7546806008977847,
                        0.05677496893748013,
                        -0.9406688015903455,
                        -0.3953987503727745,
                        -0.3904044673870015,
                        -0.5184001455063598,
                        -0.5383143241791566,
                        -0.9028651501269189,
                        0.5864689198424073
                    ]
                ],
                [
                    [
                        -0.9827085525527461,
                        0.23311426713164485,
                        0.5509720627088326,
                        -0.16272941826651066,
                        -0.314963487432943,
                        0.09322327239891814,
                        0.7003195549102537,
                        0.006728033480880358,
                        0.6655459067259482,
                        0.8164918972819368
                    ],
                    [
                        0.9417771522891676,
                        -0.13983844417889446,
                        0.3058552190370414,
                        -0.14231122515524675,
                        -0.03472717300311201,
                        0.5349277006629245,
                        -0.004372349181287927,
                        -0.5386905247523484,
                        0.4842660691132894,
                        0.3146978161199334
                    ],
                    [
                        -0.740383745390538,
                        0.21948958046020262,
                        0.4187058320530057,
                        0.4522277444565417,
                        0.6607606140978792,
                        0.5156783602206363,
                        0.2591717513250653,
                        0.9582509973187816,
                        0.589020740595906,
                        -0.8326929843396058
                    ],
                    [
                        -0.49331173887914126,
                        -0.6768062536912445,
                        0.8919617060805418,
                        -0.48957894237294,
                        -0.4208406196390857,
                        -0.7302093060939168,
                        -0.8944170889314089,
                        -0.8175783539090244,
                        0.3748976900711103,
                        -0.22225141245829372
                    ],
                    [
                        -0.7711518537796642,
                        -0.7566446662960333,
                        -0.034806109446523736,
                        0.15680569073876915,
                        0.638763585088318,
                        0.6824874788398474,
                        -0.31749840840675425,
                        0.6730348442841474,
                        -0.3592891422305635,
                        -0.5068799429306747
                    ],
                    [
                        0.33857941533683134,
                        -0.3161038596758734,
                        -0.6373152910698823,
                        -0.1675550564840682,
                        -0.18281332786432758,
                        0.5941586842155604,
                        0.2995361140246504,
                        -0.3569844144595209,
                        -0.635988924335924,
                        0.9338310594604693
                    ],
                    [
                        -0.9061002472992539,
                        -0.5565189881284895,
                        0.2133244034281141,
                        0.32104948253508225,
                        -0.6516321947921506,
                        -0.9895375252463834,
                        0.6277243692558667,
                        -0.7676535450006003,
                        0.1757294958334854,
                        0.2837051566997204
                    ],
                    [
                        -0.1594522490042085,
                        -0.9195157083473593,
                        0.7976828005595815,
                        0.8945785141444849,
                        0.2174118369279554,
                        -0.33424602328008857,
                        -0.3875115548263264,
                        -0.7175791014803794,
                        0.7364446051998477,
                        0.8536905594750417
                    ],
                    [
                        0.9711731908689347,
                        0.7721505289135668,
                        -0.9581528896385314,
                        0.7220406090691185,
                        -0.6778459317929786,
                        0.6399407113456299,
                        -0.09092237498901712,
                        0.9222423064474856,
                        -0.7860134829804937,
                        0.9809739828747348
                    ],
                    [
                        -0.5312408547464824,
                        0.946852175304927,
                        -0.4070795220909975,
                        0.49542700115544713,
                        -0.08642571795078613,
                        0.4542027644717477,
                        -0.06509575071273366,
                        0.06094419046396804,
                        -0.5079884510029937,
                        -0.2287003326467716
                    ],
                    [
                        -0.06779050520944985,
                        -0.6951965194311678,
                        0.35152982674308264,
                        -0.4354550568857085,
                        -0.8881173822414967,
                        0.7310805956997359,
                        0.45979202510805406,
                        -0.11748530223608289,
                        0.2287179099147183,
                        -0.9946781788917378
                    ],
                    [
                        0.88188114996965,
                        0.9454774367817369,
                        0.7637644394452039,
                        -0.8598456208970855,
                        0.6217040184493385,
                        -0.49472135142790274,
                        0.48437195530556254,
                        -0.22617195452771766,
                        0.9212445059090857,
                        -0.6758591993097012
                    ],
                    [
                        -0.24141613584757593,
                        -0.6294012825499011,
                        0.8495839127098948,
                        0.050136465079510195,
                        0.7056516110651634,
                        -0.6811173054875959,
                        -0.830311518470366,
                        -0.289256025457729,
                        -0.5991502598570893,
                        -0.713821497215487
                    ],
                    [
                        0.2626029492944093,
                        -0.5428729997377106,
                        -0.4003837275624518,
                        -0.7635621928900704,
                        -0.26405291781329776,
                        -0.5645111912166532,
                        0.9371491344518943,
                        -0.2919147035519887,
                        0.25348846848455686,
                        0.22221513918844038
                    ],
                    [
                        0.2295324308377209,
                        -0.6406375920836371,
                        -0.2451338268304002,
                        -0.684503648442071,
                        -0.46705115655126206,
                        -0.618635235870048,
                        0.8875011621920186,
                        0.2073394320020192,
                        -0.8638996493661657,
                        0.7727662570950771
                    ],
                    [
                        -0.009815878801396005,
                        -0.2350661239485652,
                        0.6787171914363661,
                        -0.5832632057019154,
                        -0.8073017295712481,
                        0.6499926370770477,
                        -0.29088090684239654,
                        0.34420933691799016,
                        -0.12918901135031935,
                        0.9071548181566447
                    ],
                    [
                        0.2574074409013203,
                        0.47249855880350244,
                        0.13824460847611308,
                        -0.43405632031086205,
                        -0.2876236147088991,
                        0.7230780594207702,
                        -0.7938283757152367,
                        0.295868437292234,
                        -0.37510968873511397,
                        0.9049015264680484
                    ],
                    [
                        -0.7960425551929866,
                        -0.7357497330321439,
                        0.03774671184256939,
                        -0.32116923991199964,
                        0.8300924944455605,
                        -0.7116291683783711,
                        -0.20569876401331166,
                        0.5570173023719611,
                        -0.18752584470025924,
                        -0.9632785665510673
                    ],
                    [
                        -0.30096910645796693,
                        0.07886541615961584,
                        0.9504871756195536,
                        0.5508159138904829,
                        0.22079918750994332,
                        0.9830910176932404,
                        0.9866397175615409,
                        -0.08511092963135658,
                        -0.7370416622014684,
                        0.03863236788428481
                    ],
                    [
                        -0.08799192571668057,
                        -0.06972057691426237,
                        -0.23627484096524842,
                        -0.6879224629355938,
                        -0.11448822061521868,
                        -0.8827451964963631,
                        0.11582140586946887,
                        0.22223721332318958,
                        -0.19013707372525634,
                        0.3239707496406019
                    ]
                ],
                [
                    [
                        0.9360094427473855,
                        0.09103859356171418,
                        -0.7590807746091686,
                        -0.34168123476314993
                    ],
                    [
                        -0.5643909745886906,
                        0.15673618470667194,
                        -0.6633773832003538,
                        0.5909115397808975
                    ],
                    [
                        -0.5706219702185036,
                        0.2919498412110937,
                        0.5224910878436042,
                        0.19627256718684039
                    ],
                    [
                        0.05597294971329703,
                        -0.8975470302691542,
                        0.684483821184048,
                        -0.7300350532335573
                    ],
                    [
                        -0.049651965082095906,
                        0.3143322602229499,
                        0.14360881670675085,
                        0.8441902392448359
                    ],
                    [
                        -0.12202586362644197,
                        0.9276314376499215,
                        -0.2518247538763425,
                        0.42257331121295305
                    ],
                    [
                        -0.8186747694206895,
                        0.8977549710635351,
                        0.025303497249478113,
                        0.16890356388645
                    ],
                    [
                        0.37159371709675404,
                        0.5853749453694408,
                        0.4579249640858851,
                        0.08843726872628088
                    ],
                    [
                        0.11135806236380685,
                        -0.932030633628822,
                        0.8200177512200322,
                        0.4146874791724504
                    ],
                    [
                        0.6027468505622773,
                        -0.7146471165392425,
                        0.03354618424612599,
                        -0.5343523547316935
                    ]
                ]
            ]
        },
        {
            "id": 4,
            "score": 10,
            "steps": 468,
            "network_weights": [
                [
                    [
                        -0.4319786092233042,
                        0.3133260802591298,
                        0.1843414984457068,
                        0.813353001095606,
                        0.5377293345297867,
                        0.2923512737698146,
                        -0.991848751095894,
                        -0.5069986209030724,
                        0.3218337776947844,
                        -0.5410990404523546,
                        0.5576234676686698,
                        -0.2825303205845078,
                        -0.6742567056778301,
                        0.42137747883973287,
                        -0.6627536430925682,
                        -0.28133696945221653,
                        -0.46538556119472196,
                        0.1039719889956443,
                        0.5417295193689242,
                        -0.41856333004724444
                    ],
                    [
                        -0.22597863562432186,
                        -0.11890477196775806,
                        -0.9080346908407568,
                        -0.03795765352816227,
                        0.5007539753727419,
                        -0.9898017861286905,
                        0.5600647181204645,
                        0.650965241784607,
                        -0.4245855011376558,
                        -0.43045797621481063,
                        0.813238252404141,
                        0.17945937180453297,
                        -0.09368332303864446,
                        0.4339011744815271,
                        -0.6649550382429859,
                        0.0022421278048041504,
                        0.007017241030393695,
                        0.8704626926253061,
                        0.8165757343939082,
                        -0.7036748102266102
                    ],
                    [
                        0.5365699286133079,
                        0.5681453301779336,
                        -0.16137785090906598,
                        0.7008673576890712,
                        -0.6981496787155013,
                        0.7275255158416938,
                        -0.4103909906825587,
                        -0.056881939984022356,
                        -0.08836948051550464,
                        -0.5431758133341302,
                        0.6178922301663117,
                        0.5515894429313759,
                        0.500100261991896,
                        0.544947053267705,
                        0.7514932642002061,
                        -0.2001176375103948,
                        -0.16536996198025022,
                        -0.32086297269048325,
                        -0.7747222135055414,
                        0.518150177652694
                    ],
                    [
                        0.9041776210660579,
                        0.12562955800700526,
                        0.6256087109399247,
                        0.5284925066921073,
                        0.039186484523166865,
                        0.24722369653131704,
                        -0.4212970791239794,
                        -0.8151155707760083,
                        -0.14888969841670474,
                        0.5345707039531227,
                        0.1716751031493482,
                        0.23372779745355543,
                        0.49488311828311304,
                        -0.4424822910859747,
                        0.26202326022878486,
                        -0.36449395788010563,
                        0.6996732441037354,
                        0.6332505063706737,
                        0.4437020124258204,
                        0.15974323759990328
                    ],
                    [
                        -0.31382802996482706,
                        0.7796654121662805,
                        0.29787447641359543,
                        -0.23879638635752465,
                        0.03446438860919088,
                        -0.6812074830278136,
                        0.409336557724127,
                        0.3399585925622919,
                        -0.6937219947111806,
                        0.5049118488032212,
                        0.5438439649947906,
                        0.8866877616520088,
                        -0.4580183963037372,
                        0.1498104243936762,
                        0.7456507127143315,
                        0.6238647748944381,
                        -0.8775636699126514,
                        0.9843892202265525,
                        0.05322315102257402,
                        0.5432744334042845
                    ],
                    [
                        -0.9654242584077048,
                        0.5520715536137935,
                        0.2023059934888729,
                        0.47917695014169914,
                        -0.62517584373594,
                        0.5161627267344713,
                        -0.6702930568262664,
                        0.6860250747097443,
                        -0.8443348850889238,
                        0.7335829020329929,
                        -0.48417050222639757,
                        -0.07643873251806865,
                        -0.392477051991011,
                        -0.902256512308278,
                        -0.7378006215968764,
                        -0.8316856290435561,
                        0.2630688811028217,
                        0.9410163950860218,
                        0.8733701674598655,
                        -0.006455861982923361
                    ],
                    [
                        -0.7628622643005605,
                        -0.7171290255046447,
                        0.802784850350571,
                        -0.4581018369745913,
                        -0.6186907853293977,
                        0.01247134439872366,
                        -0.011570195060274902,
                        0.8417958026371299,
                        0.6079645261549396,
                        -0.1553332965194265,
                        -0.793122702577508,
                        0.238464402231096,
                        -0.9802861458088781,
                        0.39029374363588176,
                        0.15265326193026274,
                        0.4699257811462292,
                        -0.7569803328450777,
                        -0.5911405159912786,
                        0.003905837835103343,
                        0.11922342132139252
                    ],
                    [
                        -0.8830492126691032,
                        0.05365861332655575,
                        -0.6122931912655782,
                        -0.31017265172681663,
                        0.9492457118602171,
                        -0.6629717826258459,
                        -0.22868345482185348,
                        0.04596626678157878,
                        0.9014405381747852,
                        0.7550743584210176,
                        0.4762924829482327,
                        0.7271156304558379,
                        0.6741234004166579,
                        -0.4677001055159524,
                        0.5574508355694539,
                        -0.7477374686027798,
                        0.9974597250976773,
                        0.5584012494646002,
                        0.923028896663346,
                        0.3833151757820812
                    ],
                    [
                        -0.2246942751846781,
                        0.8067283425139611,
                        -0.4177654320035602,
                        0.34639943562532327,
                        0.38393219717412164,
                        -0.9804958004999251,
                        -0.12546015869640192,
                        -0.7043046635744796,
                        0.3243550984463728,
                        0.8091535757091015,
                        0.6188580438525837,
                        -0.7943683399576895,
                        0.6259438607977732,
                        -0.4679722797199104,
                        -0.594056686094639,
                        0.6972125332063264,
                        0.31237506074986765,
                        0.6400836541625354,
                        0.8565238349733422,
                        0.6194265573503033
                    ],
                    [
                        0.9214340971045607,
                        0.7269816492967929,
                        -0.42278151163087085,
                        0.19310702700820825,
                        0.7861347831244891,
                        0.4611865977624465,
                        0.6794432348504642,
                        -0.09363852286301433,
                        0.5120904635752925,
                        0.9937804888023454,
                        0.4370781728217572,
                        -0.8126293735627701,
                        -0.6043547768710831,
                        0.867213962982484,
                        -0.9750124505328452,
                        0.7902786702632181,
                        0.839442576601183,
                        -0.3387570414407306,
                        -0.720274995313229,
                        0.09524693034841913
                    ],
                    [
                        0.6322332235151287,
                        -0.8637344566412053,
                        0.3558013980471848,
                        0.10643753712615389,
                        0.7308367414056898,
                        0.8416600110658561,
                        0.9297748770394605,
                        -0.9543664596841994,
                        0.701373424133495,
                        0.33290158790718793,
                        -0.8549601797042106,
                        0.6145092591326655,
                        -0.35490559026341795,
                        0.2992887019534851,
                        -0.7898422890095975,
                        0.4449845770151255,
                        0.6797298473796582,
                        -0.3139362114325186,
                        0.9222066291156104,
                        0.2574961866094905
                    ],
                    [
                        -0.6955606230691245,
                        0.8288612644697175,
                        -0.9658170052189208,
                        0.15069824641865237,
                        -0.8550926965574179,
                        0.009233722881884399,
                        -0.645244880020976,
                        0.8381945811675591,
                        0.2811767649439727,
                        0.29769234071789663,
                        -0.6464775663284201,
                        0.8945520970259917,
                        -0.11201286687772471,
                        0.09584815518137524,
                        -0.024981162722938155,
                        -0.11616027550033747,
                        -0.8851593406462999,
                        -0.4501012460217817,
                        0.1104279671186239,
                        -0.8204062747806895
                    ],
                    [
                        -0.7171168829143899,
                        0.6192581985387173,
                        -0.4667822565062083,
                        0.015761080816644846,
                        0.6689707819835526,
                        0.2519133437286467,
                        0.18491230097134514,
                        -0.6581219150944797,
                        0.7861345285859673,
                        0.39584449605039795,
                        -0.6414139833311727,
                        0.061697310612921274,
                        -0.23672741057085922,
                        -0.8862035672546869,
                        0.18283758763656355,
                        0.6594789855152088,
                        -0.9287258291489884,
                        -0.9066803942015464,
                        -0.2613953888736036,
                        -0.8257865307459387
                    ],
                    [
                        0.5882893528307882,
                        -0.13321041461557237,
                        0.4737409986768615,
                        0.3083802707559784,
                        0.8810787156148274,
                        -0.2682613041564874,
                        0.547081618109102,
                        0.37390190832555037,
                        -0.10531767752997556,
                        -0.3262745882438709,
                        -0.8368065608641653,
                        0.5650576212557044,
                        0.3666810422581357,
                        0.8462748027198679,
                        -0.3300274156152305,
                        0.8577370371328639,
                        -0.4246228501864864,
                        0.09312408022804353,
                        0.19926027780451228,
                        -0.6725703451721758
                    ],
                    [
                        0.5152862024470195,
                        -0.36708748861916973,
                        0.8969441886494891,
                        0.07462936925359065,
                        -0.7064661382724875,
                        -0.9137977892652374,
                        0.5141689666306375,
                        -0.2723606569300192,
                        -0.28064666081168044,
                        0.3154932876985803,
                        -0.4176170852974699,
                        -0.9247178770146964,
                        -0.6908071951434229,
                        0.5189980753784988,
                        0.432287719878532,
                        -0.8314426874511109,
                        -0.03329689488781695,
                        -0.47817673066617217,
                        0.12531178716550917,
                        -0.06915852364776431
                    ],
                    [
                        0.32024047168543857,
                        0.10184912321218786,
                        0.5781564709180635,
                        -0.9888255405674755,
                        -0.6860903506031744,
                        0.5464407014538322,
                        0.9963659050136306,
                        0.21742105120634792,
                        -0.1353316125371833,
                        0.6533333587218335,
                        0.5740742384886064,
                        0.7172481197972982,
                        -0.5837294853399184,
                        -0.33915294302122034,
                        -0.8059675375513367,
                        -0.5020797033927122,
                        0.35956372711275963,
                        -0.509416875912446,
                        0.635817504414931,
