{
    "network_weights": [
                [
                    [
                        -0.7901581947120988,
                        0.546495216084393,
                        0.8096382190352663,
                        -1.0428236203448615,
                        0.20782694895045228,
                        0.6823322587456397,
                        0.6741015264151275,
                        -0.2640157349052293,
                        0.3238750180968788,
                        0.060620312723427494,
                        -0.5051197903157756,
                        -0.4244145824036638,
                        -0.4215945124996036,
                        -0.33407582987415263,
                        -0.29985290196240055,
                        -0.7517602532127192,
                        0.9082213990578774,
                        -0.4985654594279278,
                        0.19750909054681243,
                        -0.40115877794269617
                    ],
                    [
                        0.4827894710182727,
                        0.8317342081158626,
                        0.7391375701283058,
                        -0.7322590144171932,
                        -1.055533200895074,
                        0.2799746055090897,
                        -0.39519021674674404,
                        -0.6095208895956234,
                        0.8191645375812501,
                        -1.106043395654533,
                        -0.9754598338761845,
                        -0.05716641290603527,
                        -0.999984173086875,
                        0.39101717489602494,
                        -0.8199957267813853,
                        -0.8011753261001872,
                        0.692290262748443,
                        -0.7582489497008771,
                        0.620625267278147,
                        0.9387346860780197
                    ],
                    [
                        -0.7202497820913114,
                        0.7145639274836331,
                        -0.6477571284135628,
                        -0.6099392315409946,
                        0.05282618142765094,
                        0.15182232614909108,
                        -0.2553680530345981,
                        0.18184962867683777,
                        0.5309764607937452,
                        -0.4808721505838933,
                        -0.6062528003589192,
                        -0.391906958575972,
                        -0.5200698679800186,
                        0.49786436302927256,
                        0.4162738765871095,
                        0.30545647576688695,
                        0.4075889215017343,
                        0.5998068074043478,
                        -0.9098097093238078,
                        -0.5092232825709473
                    ],
                    [
                        -0.22194715141713783,
                        -0.6989882716902003,
                        0.2346645468036992,
                        -0.9391373923698292,
                        -0.8688278964116674,
                        -0.20097090141656326,
                        0.3229755852026377,
                        -0.8599848222571052,
                        0.22923275727959602,
                        -0.5599984940745342,
                        -0.15822582252660816,
                        -0.6384556508208702,
                        0.5123784313195202,
                        -0.544738963182779,
                        -0.2206371295734968,
                        -0.4185807676756476,
                        0.06289230944601565,
                        -0.8113630381703094,
                        -0.5461567768053321,
                        0.4582852032703506
                    ],
                    [
                        0.8015010191923815,
                        -0.7508549516141382,
                        -0.42964027457075216,
                        -0.7412323478990246,
                        0.10373065412397664,
                        0.9745569351607315,
                        0.5325343224826962,
                        -0.9533830707800584,
                        -0.006582391827110623,
                        0.47929097562736234,
                        -0.32136033197360914,
                        0.592633169879718,
                        0.15418241078205597,
                        -0.04596540962173305,
                        0.6723228106125536,
                        -0.22292743712891894,
                        0.028148021178913463,
                        -0.44264465483681636,
                        -0.5401905600009262,
                        0.7848075925548013
                    ],
                    [
                        0.8523419809387631,
                        0.7146849092498553,
                        0.09998072951171033,
                        -0.33238070901887484,
                        -0.09122561334951862,
                        0.02890476824617183,
                        -0.888237362088492,
                        -0.21502059192448625,
                        -0.004880890764984498,
                        0.6905007548817327,
                        -0.6330996126373547,
                        0.059497228047745924,
                        -0.4283919562244307,
                        -0.5409797030441796,
                        0.28213203244278406,
                        -1.0294591735562881,
                        0.18597726441567491,
                        0.49508563199255695,
                        0.06802389219917508,
                        -0.6729427221372267
                    ],
                    [
                        -0.8009192458580427,
                        0.13661235927910706,
                        -0.0821964363965827,
                        0.06193452822580636,
                        0.6278057866071538,
                        -0.556172937236293,
                        0.4444628285899892,
                        0.9799052564444155,
                        0.7142311660938432,
                        0.8712231630674538,
                        -0.8414909094379744,
                        0.32083187479922204,
                        0.7577955094416686,
                        -0.4714325817080136,
                        -0.2323835660647383,
                        -0.2678538374033528,
                        -0.13349445702491555,
                        0.6091990819564177,
                        -0.3479821824291983,
                        -0.504190472030838
                    ],
                    [
                        -0.3395151394474569,
                        -0.17162390910203973,
                        -0.1134481987858662,
                        0.541313696924213,
                        -0.1510795878948734,
                        -0.00046462203319475037,
                        -0.6812719879854143,
                        -0.10988894443406946,
                        0.02115706822768293,
                        0.33578057098471925,
                        0.7987504224993907,
                        -0.31426893591293564,
                        -0.28993051690682253,
                        0.4870775853520768,
                        -0.10661672622299756,
                        -0.8812336725318202,
                        0.4198956866790794,
                        -0.6211643909861094,
                        -0.000972868589437681,
                        -0.8154493853848939
                    ],
                    [
                        0.872020268276549,
                        -0.5989796643946497,
                        0.22140972204975973,
                        0.2297734998381833,
                        -0.32123925931802333,
                        0.23863076135662453,
                        0.5993595707191562,
                        0.7068242271711537,
                        -0.37535779993315366,
                        0.6961309178511784,
                        0.4224367543704881,
                        -0.9750362592302544,
                        0.3064007226926829,
                        0.6551411734536348,
                        -0.7483815173483575,
                        -0.39972967875604515,
                        -0.12751261869354913,
                        -0.033981561456490006,
                        0.8317749480631067,
                        -0.8156371360016587
                    ],
                    [
                        0.11957368421297399,
                        0.759248867155871,
                        -0.7123044904613338,
                        0.21042014671638443,
                        -0.6700598177567303,
                        0.8056526206976813,
                        -0.5979613918330595,
                        -0.16716069752301888,
                        0.8817617563930233,
                        0.00882092613183283,
                        0.8489095608997554,
                        -0.9564429719098321,
                        0.6449722247750745,
                        -0.6131691280038079,
                        -0.5775981387595523,
                        -0.1406133424319953,
                        -0.8984967934797329,
                        0.3070728424905619,
                        -0.5304884408716528,
                        -0.6438088671014053
                    ],
                    [
                        0.035613399248735966,
                        -0.26641141763163795,
                        -0.44380808958453266,
                        0.26747225234588823,
                        -0.7198981497043042,
                        0.4717870985164414,
                        -0.8627772039468249,
                        -0.8327695229916008,
                        -0.7729554848558702,
                        -0.8517048368909554,
                        -0.4634410991885418,
                        -0.6542678875039525,
                        0.32591421341777416,
                        -0.15204492581549586,
                        -0.22966783517677714,
                        -0.9945735922902512,
                        -0.6218610112247758,
                        0.5768549210050531,
                        -0.19831436220626797,
                        0.4191606029348919
                    ],
                    [
                        -0.6904002071041889,
                        -0.3598025267306837,
                        -0.7244119205633152,
                        0.7544587679598559,
                        0.7157492851613818,
                        0.4447860061917226,
                        0.969776890209727,
                        0.0009867416485622726,
                        0.8133273862263525,
                        0.14205546036542338,
                        0.6296918558938234,
                        0.9598860883813853,
                        0.17006619783681418,
                        0.4384795521126892,
                        0.10780118140962025,
                        0.20528550642637255,
                        -0.8041483796016178,
                        0.7125523799048015,
                        0.7318988873323442,
                        -0.8881894440834581
                    ],
                    [
                        0.2931026053493644,
                        0.27769878523547886,
                        -0.5829384197610716,
                        0.3269963318243342,
                        -0.6128257713576066,
                        0.41872120436638727,
                        -0.711144506098565,
                        -0.9189174152504724,
                        -0.49270515776663837,
                        -0.607008746569667,
                        0.6503574857398722,
                        0.6988637793500463,
                        0.15812852830726687,
                        0.09839098814838508,
                        -0.1097498541370405,
                        -0.46437774424490796,
                        0.3920451215003171,
                        0.024591824777360584,
                        0.23693275079778595,
                        0.7579864538366289
                    ],
                    [
                        -0.6129761225947649,
                        -0.6822842573687464,
                        -0.968446136894032,
                        0.3004784608482256,
                        0.3702799322358987,
                        -0.5460146676500295,
                        -0.9106290300322215,
                        -0.4259796406533391,
                        -0.9335356703789073,
                        -0.833101845250532,
                        0.3435143819849007,
                        -0.05740798965452032,
                        0.8395133996778966,
                        -0.7192131430274719,
                        -0.7184605798940633,
                        0.18168491159209074,
                        0.9460747513458445,
                        -0.06859280013017743,
                        0.4694860238716776,
                        0.5040906071850035
                    ],
                    [
                        -1.03428290601094,
                        -0.5868673126461657,
                        0.26437466089137374,
                        0.7882362890580596,
                        0.867498804664746,
                        0.14117970911698619,
                        0.4286240989462473,
                        -0.6881869205458266,
                        0.5006216547122642,
                        0.05268927758404045,
                        -0.9084213063230552,
                        -0.44924182494745635,
                        0.3720719522566329,
                        0.6225511191561043,
                        -0.4671747296258608,
                        -0.047734941718100776,
                        -0.4461608401571,
                        -0.2003320894043412,
                        -0.5194602237882737,
                        -0.8963779469186657
                    ],
                    [
                        0.5692897337856855,
                        0.9130427140215093,
                        0.6047824871028812,
                        -1.0157160915894878,
                        -0.5102681205337966,
                        0.9444779894899351,
                        0.9089611380522074,
                        0.7593508041008872,
                        0.26973664590376445,
                        -1.0742368798845583,
                        0.37485160128654155,
                        -0.4515653177401173,
                        0.5637499953173633,
                        0.1426945697607243,
                        -0.28187144633944916,
                        0.9161817685389935,
                        -0.4647304983321048,
                        -0.5425795452001841,
                        0.536925161200122,
                        0.12082581429761796
                    ],
                    [
                        0.8328971220158625,
                        -0.9759121209509087,
                        0.6006919748940585,
                        -0.8676231628794842,
                        -0.7001497175999065,
                        -0.4040479297602515,
                        0.6271114271497977,
                        0.0014300615013522755,
                        -0.19979663799604674,
                        0.12270173081514983,
                        -0.2524666028807496,
                        0.480287014941424,
                        0.2581529968702169,
                        -0.11864388381497237,
                        -0.8278469038483646,
                        -0.42038788416851647,
                        0.7460420235414162,
                        -0.6652563537291127,
                        0.9648846390555343,
                        0.587547229441409
                    ],
                    [
                        0.8733497419925875,
                        -0.252522837244332,
                        0.7295167470305843,
                        0.4617341508960575,
                        0.36839818181571604,
                        -0.2536799625882261,
                        -0.8800026096708213,
                        -0.9718067107917392,
                        -0.7473217067024074,
                        -0.16722769271997462,
                        -0.049179797157570426,
                        -0.46329225081412195,
                        0.06773965614896316,
                        -0.8026532883575486,
                        -0.24369397512985713,
                        0.7503738885602338,
                        -0.3218403365197229,
                        0.6978229956063884,
                        0.21376769315102329,
                        0.88408643326482
                    ],
                    [
                        -0.9107888136891058,
                        -0.0702734224863315,
                        0.5077056013329561,
                        -0.7849807013940828,
                        0.6374493923362388,
                        0.8622313658638266,
                        -0.24203428501779412,
                        -0.7117510417542067,
                        0.16362360507089993,
                        -0.23896071667431462,
                        0.17584309144648402,
                        -0.34282779208544145,
                        -0.2086146054495268,
                        0.69560164287505,
                        -0.4912242512309748,
                        -0.46059208074123636,
                        0.6372014169577583,
                        -1.0551235136519768,
                        -0.8517999971862396,
                        0.5172668040541903
                    ],
                    [
                        0.1584427129261938,
                        0.964905253277916,
                        -0.08858121096100557,
                        -0.7592901157327255,
                        0.8839116547159109,
                        -0.07242540200621894,
                        0.07307580320694894,
                        -0.615678227184302,
                        -0.5023674576889787,
                        0.14911332587190695,
                        -0.15528483317365782,
                        -0.38583678290287393,
                        0.2913015240518013,
                        0.2856804154324618,
                        -0.7653976142632379,
                        1.108194873810985,
                        0.17428289660669427,
                        -0.6410847066932497,
                        0.5979400330829177,
                        -0.29107064772916935
                    ],
                    [
                        0.3118784824973886,
                        -1.0096763469060817,
                        -0.7366638729883508,
                        0.6306294858341022,
                        0.19814268101703458,
                        -0.9139513668377908,
                        0.2675282823253211,
                        0.43417868630917655,
                        0.763535399719649,
                        0.36125185881294686,
                        -0.4909367419681008,
                        0.1895829310960399,
                        -0.11267522425959331,
                        -0.9469147467955532,
                        -0.30895616361964373,
                        -0.14510919751872886,
                        0.9352507879018572,
                        0.722555462008265,
                        0.8850161452028573,
                        0.3588496542670996
                    ],
                    [
                        0.9767922851571209,
                        -0.9110321881073935,
                        0.3984873295059412,
                        -0.951716660545106,
                        0.8716528274573198,
                        -0.4478717398755101,
                        -0.8348777175982744,
                        0.858097283523483,
                        0.8342180275484901,
                        -0.06449679607205527,
                        -0.9417977388337126,
                        0.27138029953136256,
                        0.5919397663540168,
                        0.651260220403485,
                        -0.09414993624872503,
                        0.636591146961897,
                        -0.11583375865023182,
                        -0.13691652099440232,
                        0.5593638566350911,
                        -0.9158094891186667
                    ]
                ],
                [
                    [
                        -0.12777323323541268,
                        0.5080681454457734,
                        -0.3571455229311622,
                        0.5091361774004282,
                        -0.29579340343266486,
                        -0.036379788571616396,
                        -0.38688789204018215,
                        0.6253913509154334,
                        -0.05638337633798916,
                        -0.4571366076687622
                    ],
                    [
                        -0.4932040489596081,
                        -0.4917184657612361,
                        -0.3211290799145088,
                        0.3488526383480577,
                        0.21629274094971773,
                        0.5942510956927318,
                        0.5497308699973755,
                        -0.5133807340051056,
                        -0.5590177482291254,
                        0.17088184609006354
                    ],
                    [
                        -0.1824314434778096,
                        -1.0913858234438625,
                        0.2056537041096054,
                        0.7096191817908595,
                        0.2985496689585869,
                        0.6300650506808949,
                        0.3999600133063341,
                        -0.2656105416025333,
                        0.6896747848825373,
                        0.8158650884753198
                    ],
                    [
                        1.081459763760533,
                        0.43580612934658913,
                        -0.6723164377099334,
                        0.5743389977994207,
                        -0.5053770961912221,
                        -0.35513628364761807,
                        0.969591317952726,
                        0.9688971625776392,
                        0.060739911472339425,
                        0.25277667431767203
                    ],
                    [
                        -0.20724102385013254,
                        -0.8905874042252302,
                        -0.3093471229000321,
                        -0.7307215351355723,
                        -0.558509897541465,
                        0.5151083380254087,
                        -0.7113258527211674,
                        -0.45610686780813464,
                        0.8724668754167058,
                        0.7137713649613209
                    ],
                    [
                        0.7738921751608028,
                        0.699321375538652,
                        -0.15035688699559735,
                        -0.1654112625400801,
                        -0.3444989900107378,
                        -0.061188164514458326,
                        1.1842538826580356,
                        -0.36525813909292953,
                        0.14243889877604843,
                        0.7150590225287539
                    ],
                    [
                        0.893311527465099,
                        -0.7013248921310306,
                        -0.46748300998562115,
                        0.9537018498246099,
                        0.13195629084695998,
                        0.2934451883908402,
                        0.1927290223357696,
                        0.14618973761767773,
                        -0.4292575752177976,
                        -0.6826933495176095
                    ],
                    [
                        0.3449260762277371,
                        -0.4476361886297922,
                        -0.5502729986951962,
                        -0.24013872551159565,
                        0.013778073027324454,
                        0.6797914962381457,
                        0.04873370490774964,
                        -0.01549241752437254,
                        -0.4457828874096821,
                        0.38233767649149253
                    ],
                    [
                        -0.5341874084265309,
                        -0.9678517982116421,
                        0.6564535053859828,
                        0.048320399568415155,
                        0.9920479849037775,
                        0.8767379784051557,
                        -0.4961169804994483,
                        0.6466217274898848,
                        -0.753883895829708,
                        0.45666611675844404
                    ],
                    [
                        0.4898704320318956,
                        -0.4690921096759,
                        0.31758939387631413,
                        0.5538427649045896,
                        -0.2673982428535646,
                        -0.5158173279137637,
                        -0.4705942407365633,
                        0.054117987245027456,
                        0.4480618915917521,
                        0.48188241695262524
                    ],
                    [
                        -0.4348012742266222,
                        0.17668311179412077,
                        0.455154091782148,
                        -0.8078086715559543,
                        0.7241928761857831,
                        -0.6042071211836568,
                        0.6564731665278991,
                        0.3921027380307558,
                        -0.6222795084894908,
                        -0.2957475291335119
                    ],
                    [
                        -0.18468111999818962,
                        -0.8931132088385041,
                        0.7973035170730554,
                        0.687845354697707,
                        -0.17670313683460415,
                        0.21662932608630237,
                        0.1312524149414931,
                        0.47422170643372996,
                        0.14970364983868256,
                        0.652464724049809
                    ],
                    [
                        -0.423298310999942,
                        -0.3385151109421616,
                        -0.7022340013896651,
                        -0.22483844090329663,
                        -0.900360390598806,
                        -0.3615909541741247,
                        -0.19379658825580104,
                        0.8174427490512335,
                        -0.3492345132597047,
                        0.5084044616907193
                    ],
                    [
                        0.5915135143398671,
                        -0.5241151988025704,
                        -0.026763531001642304,
                        1.0539806088390171,
                        0.8367193259857324,
                        0.34781749515745464,
                        -0.1939078397231503,
                        -0.16351254920846695,
                        -0.6045667631756741,
                        0.8213101131589285
                    ],
                    [
                        -0.7238805478057286,
                        -0.38403862164540037,
                        -0.2484938148608946,
                        0.5680685090702899,
                        -0.015244407771537016,
                        -0.4593781976484055,
                        0.9585100423911503,
                        -0.924776816693001,
                        0.3562367504577062,
                        -0.17675019039838769
                    ],
                    [
                        -0.1173301302926264,
                        -0.49659786368726566,
                        -0.3198332372362648,
                        -0.6309031761416506,
                        0.935738462857099,
                        0.17908921025786184,
                        -0.10621097516267852,
                        0.23678304372404124,
                        -0.02868309636797073,
                        -0.30590774005500754
                    ],
                    [
                        0.7670004729190458,
                        0.7650724045873141,
                        0.9103551440844941,
                        0.6841247274394056,
                        -0.8346956572444748,
                        -0.15466879247528476,
                        0.6981022600954528,
                        0.9474542154509151,
                        -0.021012321555205382,
                        -0.8131893704838318
                    ],
                    [
                        -0.6340536093038858,
                        -0.6725915780367406,
                        -0.033312259839142905,
                        0.2131632088265204,
                        -0.3267540669559599,
                        -0.05737699228558624,
                        -0.5317908925613379,
                        -0.6002009956339538,
                        0.9108736134090956,
                        -0.40529378545974093
                    ],
                    [
                        -0.4212614117930634,
                        0.7441638631341927,
                        -0.6433868190697701,
                        -0.30890552797615833,
                        -0.6680979042083695,
                        -0.8803008265318935,
                        0.26507701977034626,
                        0.2136591785559856,
                        -0.9798358168670716,
                        -0.9236323513247195
                    ],
                    [
                        0.8265640112701111,
                        0.9798383924080658,
                        -0.6386649597250338,
                        -0.641994014835264,
                        -0.13205801342110624,
                        -0.7636701781277588,
                        0.21387595879731008,
                        0.1663037431353449,
                        -1.0382752647026305,
                        -0.5222510067616207
                    ]
                ],
                [
                    [
                        -0.7306081433112205,
                        -0.12763463187063562,
                        0.6871975720430344,
                        0.36056462513594334
                    ],
                    [
                        -0.5143097990276575,
                        0.7092096591564869,
                        0.17612765794468754,
                        -0.6777886742688297
                    ],
                    [
                        0.25960044070423915,
                        0.8827095387012132,
                        -0.8683219996606725,
                        -0.3867085140135784
                    ],
                    [
                        -0.26180297324404656,
                        0.030323601808295603,
                        0.46580447574696143,
                        0.7075893890822607
                    ],
                    [
                        -0.6279137812515154,
                        -0.5190061758395852,
                        0.569463443672316,
                        0.904677886392361
                    ],
                    [
                        -0.22297874265321793,
                        0.6258744603023603,
                        -0.37573322520578745,
                        -0.3225530405576293
                    ],
                    [
                        0.3207806545991907,
                        -0.4097340967802249,
                        0.022866211978385342,
                        -0.29662611062406996
                    ],
                    [
                        -0.8697786793278744,
                        0.2561367871089256,
                        0.18256683472316015,
                        -0.7817874138801784
                    ],
                    [
                        -0.732802251215458,
                        -0.07826334179292904,
                        -0.021662445350460136,
                        0.763897903680493
                    ],
                    [
                        -0.32926893591910944,
                        0.9862300544692055,
                        -0.9425952331258138,
                        0.7662852523050869
                    ]
                ]
            ]
}