{
    "network_weights": [
                [
                    [
                        -0.31601044695511815,
                        0.3167405691402887,
                        0.9183153589822208,
                        0.029808983476677264,
                        0.8574281587962973,
                        0.19354833360834234,
                        0.39661447396621635,
                        0.7828531605355571,
                        -0.04898806269435996,
                        -0.6327818955555857,
                        -0.7456946034874108,
                        -0.8574218453967624,
                        -0.454115371164167,
                        0.3091562996787951,
                        -0.5050026191576515,
                        0.6953798045087192,
                        -0.4990564791343026,
                        0.6191739059083563,
                        0.8681696749909349,
                        -0.3032450942835343
                    ],
                    [
                        -0.7193153518384796,
                        -0.6262545979083523,
                        -0.4036035929921611,
                        -0.37999344057609036,
                        0.9941971672147121,
                        -0.8222634657013228,
                        0.8391416589967742,
                        0.6478571790185665,
                        0.5635910318277524,
                        -0.4106081556344483,
                        0.73030858941652,
                        -0.8794946527727032,
                        0.6584894571282021,
                        -0.744530345363186,
                        -0.9906570188534791,
                        0.9839684475662176,
                        0.22405297130713953,
                        -0.1245238951455642,
                        -0.12332272314229176,
                        0.8552962539674451
                    ],
                    [
                        0.2986105119963729,
                        0.6968877809337986,
                        0.5269743424981759,
                        -0.2818067371310741,
                        0.9979461113431141,
                        0.8939515851620821,
                        -0.4999709718610439,
                        0.054960848539360674,
                        0.3981930785595682,
                        0.6253994857422329,
                        -0.05404121460287392,
                        0.9722766578373241,
                        0.7548947467619767,
                        0.38051313792826424,
                        0.4211505677041454,
                        0.5266958894630456,
                        -0.612244865136921,
                        0.9076859130906594,
                        0.06673302245266277,
                        0.14073972192942463
                    ],
                    [
                        -0.011833512144396874,
                        0.41296126845487025,
                        -0.541691890812924,
                        -0.923085764402028,
                        -0.8250349613451009,
                        -0.8870956060362518,
                        0.6210986389266329,
                        0.0690981999012541,
                        0.44468998538385573,
                        0.6547035747690417,
                        0.804919856201872,
                        0.3881032717151567,
                        0.8648034755192564,
                        0.728119219335132,
                        -0.2864140402311459,
                        -0.6578505999788773,
                        0.0017941130911098835,
                        0.8192064064043889,
                        -0.23277137977693255,
                        -0.43342581441107786
                    ],
                    [
                        -0.3290825846794858,
                        -0.4091953941873332,
                        -0.6306858652810254,
                        0.6977515325822998,
                        0.5216137013965607,
                        0.4345126692076029,
                        -0.23307068310606316,
                        -0.5076894293835059,
                        0.05933093938075129,
                        -0.6385329364704992,
                        -0.2668046478475212,
                        -0.5809083640993511,
                        0.15738721416011514,
                        -0.8551609684712798,
                        0.2328732538098781,
                        0.2974148177628624,
                        -0.7352750808643918,
                        0.4190323817798336,
                        -0.17912189353189878,
                        0.3986097746214914
                    ],
                    [
                        -0.02208961145561407,
                        -0.38600243282750135,
                        0.8619063383048828,
                        0.6800696044614293,
                        0.15539476461596857,
                        -0.9412013058835502,
                        -0.7195586708827606,
                        0.030347115938454336,
                        -0.09821171217106084,
                        0.1812001616874126,
                        0.7097652148264899,
                        0.7328274450134289,
                        -0.5894267750778688,
                        -0.9729578655968176,
                        0.17369958296031252,
                        0.5396878213141858,
                        -0.956581223273574,
                        0.9914593480257368,
                        0.3227233259448796,
                        -0.6323542230024319
                    ],
                    [
                        0.4882441664849213,
                        -0.6450917347239278,
                        0.41778189026355816,
                        0.7675324253827627,
                        -0.8208449466784171,
                        -0.021328138440488642,
                        0.9932490056947647,
                        0.6653914192636328,
                        -0.20701716139385695,
                        -0.3495806594253772,
                        -0.04215896466005864,
                        0.758477604495789,
                        -0.6792748238820818,
                        0.6450320132395289,
                        0.850874703136596,
                        0.018152266658211902,
                        0.22725241148759046,
                        0.020580168378906194,
                        -0.8964530262820547,
                        -0.44101423171839693
                    ],
                    [
                        0.7848829179247123,
                        0.8191016776019229,
                        0.9268471060107994,
                        -0.9138170818136486,
                        0.65656218098132,
                        -0.8292823091178596,
                        0.43443558105603963,
                        0.21532575276235333,
                        0.5277096744570502,
                        0.6309597060973375,
                        0.5007660507113181,
                        0.3144774975352944,
                        0.5634415655066052,
                        -0.1507011391604023,
                        -0.31288069113494577,
                        0.5852557630666928,
                        0.9264361650399984,
                        0.7905389899078383,
                        -0.43597962417898506,
                        0.4059296327692432
                    ],
                    [
                        -0.4379365988726174,
                        -0.15100791626731946,
                        0.3418490118487192,
                        -0.7980390430961692,
                        0.8303475012573667,
                        -0.8186472470010697,
                        -0.04375956833491146,
                        0.09615830139462589,
                        -0.851792885778869,
                        0.21473457474641422,
                        -0.010390685487312812,
                        -0.9917373069262008,
                        -0.34591889654236363,
                        -0.26245530650238535,
                        -0.21467172831584902,
                        0.8689729633560219,
                        -0.5625600627975655,
                        -0.8677373842185463,
                        0.1290339128407163,
                        0.5811749917610052
                    ],
                    [
                        0.2184640903220847,
                        0.3506284808204656,
                        -0.1311920425390667,
                        -0.05145171737024867,
                        0.2685886248968654,
                        -0.8701682023763819,
                        -0.13631573360452465,
                        0.10601376977229116,
                        0.8650438554049897,
                        0.8692068890754834,
                        -0.10984422758399015,
                        -0.637620946508656,
                        0.6168466564621378,
                        -0.7787000451785384,
                        -0.9378065147220451,
                        -0.38488352961971417,
                        -0.9025773877555401,
                        0.5590240751509175,
                        -0.7457829555634905,
                        -0.40332234254653687
                    ],
                    [
                        0.4430316685556075,
                        0.9910179440891582,
                        0.9742145318659743,
                        0.17480556441948703,
                        -0.7457516429061946,
                        -0.9062724754058098,
                        0.7017142352185216,
                        0.6289858567297368,
                        0.10034417022660125,
                        0.9173673325338247,
                        -0.1912312987374094,
                        0.6022790430358902,
                        0.003831346586450124,
                        -0.9236133268051011,
                        -0.574110965632481,
                        0.4877756032763745,
                        0.015771672494646616,
                        0.04323216590194745,
                        -0.8294597975162659,
                        -0.32705696052219047
                    ],
                    [
                        0.8959214166099081,
                        0.48962962343287897,
                        -0.25134598414965925,
                        -0.7562676097581862,
                        -0.8792824115724449,
                        -0.14807853048269948,
                        -0.5423719860708898,
                        -0.7840014031420308,
                        0.5069004590052191,
                        -0.7541324547762773,
                        -0.14209341565521294,
                        0.7765018139462898,
                        0.5719911898454696,
                        0.1328639348687921,
                        -0.3255397888608975,
                        0.9201986745724624,
                        -0.812271597721882,
                        -0.8053413275405972,
                        0.3408061560755691,
                        0.8586165153195158
                    ],
                    [
                        0.9160519164025893,
                        -0.8613252606521913,
                        0.9159069817166812,
                        0.565063260778397,
                        0.8145356651945188,
                        0.9355493138296374,
                        0.15600311994443783,
                        -0.5696152313383296,
                        -0.7832331074040474,
                        0.16555232490329197,
                        0.19202943376699588,
                        0.41726773470385214,
                        -0.3721470800514479,
                        0.9554918921221038,
                        -0.8077879119400737,
                        -0.8383153767888123,
                        0.5528619822922947,
                        -0.6125439542349957,
                        0.554981802169968,
                        -0.1541556629652736
                    ],
                    [
                        0.24839369249948473,
                        0.35403197352499394,
                        0.5953514309632446,
                        0.4581052127131201,
                        0.6085740348245767,
                        0.7868697067375185,
                        -0.5997093138333103,
                        -0.7844230206091471,
                        -0.9328260625751907,
                        -0.13506420158996568,
                        -0.8972716813114083,
                        -0.9175238033954516,
                        0.6152778667060796,
                        -0.2492652648065674,
                        -0.8457982984303881,
                        0.9970538587735616,
                        0.4728683898401349,
                        0.28719847614067096,
                        -0.5539085151506427,
                        0.9781924813988825
                    ],
                    [
                        0.23522426301090782,
                        -0.25369314619300454,
                        -0.0006920270653612004,
                        0.2952115658762715,
                        0.49213497541687445,
                        -0.5308526229755626,
                        -0.45064655267339265,
                        0.9294505641852029,
                        -0.769526237807056,
                        0.04909486951718889,
                        -0.7681163902481067,
                        0.0333771984384489,
                        0.730981115466049,
                        -0.126946406971429,
                        -0.5787532193686848,
                        -0.8363075982757204,
                        0.7400650211702007,
                        0.014914668724800961,
                        -0.026586084576481372,
                        0.9131859074749689
                    ],
                    [
                        -0.1078175735609268,
                        -0.8044363556832814,
                        -0.20177596147699584,
                        0.20017652733284752,
                        -0.47534219454473847,
                        -0.24686190957583887,
                        0.3435403225922215,
                        0.39813429114533194,
                        0.8250966018700656,
                        -0.5376352801015922,
                        -0.35511164945413953,
                        -0.489113437507279,
                        0.03519835074200173,
                        0.8677704883660702,
                        -0.8761273909938276,
                        -0.7428225912697553,
                        -0.5293929550150582,
                        -0.895124370414309,
                        0.3575822295490412,
                        0.27659154954120924
                    ],
                    [
                        -0.7923189190723186,
                        -0.9790363225325449,
                        0.9186016772727448,
                        0.13196610294354771,
                        0.8338107513369319,
                        -0.48164450277653814,
                        -0.07327917966239295,
                        0.6036548194118065,
                        -0.46445310661756567,
                        0.6236854915173831,
                        -0.8823000746382437,
                        0.3053132970099546,
                        -0.03826178224889998,
                        0.2722101860635715,
                        -0.021745293205924554,
                        -0.10186786062097841,
                        -0.17449572010653158,
                        0.8896076281837433,
                        0.19331140186391793,
                        -0.9925458446936948
                    ],
                    [
                        0.9757122265537517,
                        0.8307985586913358,
                        -0.8874013494200226,
                        -0.4877651132086456,
                        -0.7439082245778401,
                        -0.14776187235996807,
                        0.602737439980447,
                        0.8472318867202404,
                        -0.7577673821104656,
                        -0.06670895932143739,
                        -0.05994965764696025,
                        0.8102772381065138,
                        0.8683847198128389,
                        -0.5838379497753288,
                        -0.49537228115532694,
                        0.14464501523533246,
                        -0.7439595660667169,
                        0.2583469129495992,
                        0.9021611362150928,
                        0.8172578636227903
                    ],
                    [
                        -0.5170817370223634,
                        -0.9221542659071693,
                        -0.6005527554152079,
                        0.7942098233208363,
                        0.5359905840620898,
                        -0.8137467050123028,
                        0.8185983021659584,
                        -0.4887924854549224,
                        0.6988697324930728,
                        -0.33036896742552013,
                        -0.20332219821053732,
                        -0.0689309575230701,
                        0.40323718910960915,
                        0.5734627224942959,
                        0.5511419097000327,
                        0.6491337221177877,
                        0.02532085033081688,
                        -0.5662489189641877,
                        -0.8815739081249803,
                        0.807627939593712
                    ],
                    [
                        -0.9503073977978662,
                        -0.016421499541096507,
                        0.1985114394811729,
                        0.8950822570172909,
                        -0.8117353035366657,
                        -0.07681662069081074,
                        0.5876293308905456,
                        0.057036639105068884,
                        0.10552290798028674,
                        -0.5228667787521206,
                        1.010114467107887,
                        -0.790200721979744,
                        -0.38350013400128247,
                        -0.5151873067515937,
                        -0.2206281868227744,
                        -0.7169721762605759,
                        0.9315549429249521,
                        -0.1999604630901819,
                        -0.054088673020305164,
                        -0.992560215253887
                    ],
                    [
                        -0.010240155715876664,
                        0.6035289931473196,
                        -0.004788310082127767,
                        0.8383219361263933,
                        -0.31290072297913585,
                        0.42856657107992735,
                        -0.9254119951584601,
                        -0.42810654341439536,
                        -0.21270391789771992,
                        0.7885616538380467,
                        0.05562994035400193,
                        -0.3134706449649587,
                        0.2105113811227457,
                        0.7017583846175253,
                        -0.7897915961008135,
                        -0.08691270216181834,
                        0.5933216703712572,
                        0.2850896580271576,
                        0.1849149805299724,
                        0.4496321961209089
                    ],
                    [
                        0.4146525256464966,
                        0.4929927893636106,
                        0.44932458224179284,
                        -0.7892357946224087,
                        0.8912514194285048,
                        0.23494451800658545,
                        -0.6562312436015174,
                        -0.4267081887127031,
                        0.18721199380975762,
                        -0.468167073297322,
                        0.13216104971645692,
                        -0.87851300327328,
                        -0.022555527205412762,
                        -0.49498160167785477,
                        0.3675076699172548,
                        0.2771203842732515,
                        -0.8493696376547857,
                        0.9135414302192093,
                        0.6008929044689031,
                        -0.483333163783904
                    ]
                ],
                [
                    [
                        -0.16309414059097577,
                        -0.06853298047387191,
                        0.661256615502555,
                        0.6916177859257726,
                        -0.2362063658593705,
                        -0.23450894882487283,
                        -0.012266070667856344,
                        0.7730010677364112,
                        -0.6181823407575748,
                        -0.7382528454352066
                    ],
                    [
                        -0.4291162780954474,
                        -0.4040457539754432,
                        0.2569094397993701,
                        -0.45520298608353577,
                        0.5307069219726848,
                        0.5081156477874889,
                        0.5105947176351042,
                        0.44624355353729683,
                        0.6865764306491406,
                        0.41329397757572717
                    ],
                    [
                        -0.6304506993949193,
                        -0.2501164740769768,
                        -0.9106448725220373,
                        0.34404997584164243,
                        -0.41413866690619505,
                        -0.4367522824223524,
                        -0.06146254813955543,
                        -0.4073204377450237,
                        0.6726292024963256,
                        -0.9496309136444896
                    ],
                    [
                        -0.1583712870315983,
                        0.5945839842581879,
                        -0.8384222844736609,
                        0.6079669451390135,
                        0.732375426654222,
                        -0.5431415822708416,
                        -0.6620525685876153,
                        0.23912303878357388,
                        0.85020765300142,
                        -0.2859493391976049
                    ],
                    [
                        -0.7360043202977686,
                        0.5969885211290882,
                        -0.31830248943580775,
                        -0.46287592047762915,
                        0.4654224701691281,
                        -0.3290443786004913,
                        -0.7005803468774453,
                        0.2224470534743841,
                        -0.012639605072246152,
                        -0.15201091294677593
                    ],
                    [
                        0.4212958008264316,
                        0.41176462939744796,
                        -0.8734182199176554,
                        -0.7185587831115252,
                        -0.28051993137675146,
                        -0.2455004775537264,
                        -0.6159014825213722,
                        0.8996065668936366,
                        0.5993967314519055,
                        0.6342751543160075
                    ],
                    [
                        -0.5173511983678667,
                        0.796615246497215,
                        -0.6260793807419995,
                        0.557161446751838,
                        0.2351333939261735,
                        0.7050425618190128,
                        -0.6918785799586977,
                        0.6265066304267899,
                        0.32056967114603996,
                        0.4202535530768019
                    ],
                    [
                        -0.4246662737955853,
                        0.5178241153027423,
                        0.40430348330442434,
                        -0.05832586342653845,
                        -0.6230605239826039,
                        0.4512194154708713,
                        0.40763637505585937,
                        -0.624667408731149,
                        -0.10386857762132226,
                        -0.7607704952469838
                    ],
                    [
                        -0.8851464509265385,
                        0.5161132414591187,
                        0.3201772550241144,
                        -0.8402329185824504,
                        -0.3505661531711324,
                        0.6140714540503083,
                        0.9693483115850412,
                        0.7236612051744369,
                        0.7250948893867264,
                        0.28191328090842527
                    ],
                    [
                        0.7613039419166812,
                        0.48823826073766075,
                        0.44046504770283135,
                        -0.32125697219575944,
                        0.41747500180619057,
                        -0.18149825615679704,
                        0.8213913367570278,
                        0.5637167316082072,
                        0.5088072991484243,
                        -0.8451987758050707
                    ],
                    [
                        -0.2614842297315225,
                        -0.9167933984485432,
                        0.4488782061986698,
                        -0.023466964548545022,
                        0.12866137765910368,
                        -0.42923377166793686,
                        0.10379659328644641,
                        -0.4997592505190894,
                        0.7990408179297372,
                        -0.6868547766352266
                    ],
                    [
                        -0.8359333621725562,
                        -0.23074118414458922,
                        -0.36066185923091476,
                        0.28129932591348017,
                        -0.8304868321929713,
                        -0.46916304916446516,
                        0.1204598329090194,
                        -0.910307457006523,
                        -0.17139572201216624,
                        -0.019593446181407792
                    ],
                    [
                        -0.9644483206215841,
                        0.009386324948322367,
                        0.3476063342003233,
                        -0.23580625148930423,
                        -0.3739935956494089,
                        -0.5589150518576158,
                        -0.035555567077492745,
                        -0.6786110221197219,
                        -0.6839298868337174,
                        -0.9811801163162801
                    ],
                    [
                        -0.006406889853099118,
                        -0.5504132696539978,
                        -0.9691330323030973,
                        0.26086714154925383,
                        0.40076305011512203,
                        0.09435658785176382,
                        0.957277230387533,
                        -0.46260719069444445,
                        0.6886644396798589,
                        0.07466961749169942
                    ],
                    [
                        -0.3230520454361341,
                        0.04675560046813643,
                        0.7037987986429077,
                        -0.9016552283706749,
                        -0.3822102351104988,
                        0.3493683586646883,
                        -0.13021605608413167,
                        -0.0835008998857747,
                        -0.9249656072220642,
                        -0.9501710558359071
                    ],
                    [
                        -0.5942419924294238,
                        0.9084199302602007,
                        -0.3429230039338125,
                        0.3168249796236471,
                        0.12977717888408136,
                        0.07570271021157793,
                        0.790065503627883,
                        -0.3127870278857052,
                        -0.5940553736619694,
                        0.7903894611351714
                    ],
                    [
                        -0.6058104961267654,
                        0.9327785617547946,
                        0.6134742559994897,
                        -0.9977421661446846,
                        -0.06621301785999356,
                        -0.0728150432537249,
                        -0.2845378720345253,
                        -0.05020223691518318,
                        -0.9595665197387835,
                        -0.5273194459492834
                    ],
                    [
                        -0.2572801379334222,
                        0.9426467873641491,
                        -0.4768060889432719,
                        -0.3561089761317118,
                        -0.9605591081340501,
                        -0.9280009036114931,
                        0.6086230324052988,
                        -0.24565977713057374,
                        -0.8954155077783779,
                        -0.9007774702926203
                    ],
                    [
                        -0.21033601884050945,
                        -0.12746581926127143,
                        0.4740084610423465,
                        -0.20901777772932295,
                        -0.15889023316340833,
                        0.8228986333791071,
                        -0.8901765758495555,
                        0.14884024645143978,
                        -0.6254078920793114,
                        -0.01629474354489252
                    ],
                    [
                        -0.17360982992278995,
                        -0.6460701740801815,
                        -0.5741670902295213,
                        0.6636166940305857,
                        -0.5680355729362621,
                        0.38612959835278193,
                        -0.1735018459334703,
                        -0.14946533577896703,
                        -0.19006613049046067,
                        0.31608520993960165
                    ]
                ],
                [
                    [
                        -0.0893906338261874,
                        -0.15538494467160446,
                        0.4897819377760988,
                        0.6243759479374174
                    ],
                    [
                        -0.21805298470096765,
                        0.44873681089409256,
                        -0.6286064800299707,
                        0.1250057325293248
                    ],
                    [
                        0.9928347691874408,
                        0.6748360137913205,
                        0.5986128569774067,
                        0.21839374856025007
                    ],
                    [
                        -0.24589414480232152,
                        -0.42704520666796664,
                        0.5418925721932573,
                        0.23061585132550322
                    ],
                    [
                        0.6855681633462394,
                        -0.25435276962481135,
                        0.9374779197238134,
                        0.02877461282629734
                    ],
                    [
                        0.04439365067272072,
                        -0.4579195721959204,
                        0.08488438472791615,
                        0.6934754770599423
                    ],
                    [
                        -0.6337923875725608,
                        0.7142636326878298,
                        0.10913875249921468,
                        -0.5721665048677789
                    ],
                    [
                        -0.26115973984048524,
                        0.17684689622364358,
                        0.5065267543515362,
                        -0.7696393103633401
                    ],
                    [
                        -0.5044757781313545,
                        0.1819379246830266,
                        0.9328566450760767,
                        0.4401563903674335
                    ],
                    [
                        -0.3205553636708842,
                        0.5486407078397355,
                        -0.01615792327939869,
                        0.36661827518999357
                    ]
                ]
            ]
}