{
    "network_weights": [
                [
                    [
                        -0.44377806735893466,
                        -0.5254650956155213,
                        1.0083997112754821,
                        0.046609787442112305,
                        0.33247013755114413,
                        -0.6835074073533204,
                        0.7784406112930071,
                        -0.4829523202482912,
                        0.3984543524241535,
                        0.7461363830996401,
                        -0.8952931070258707,
                        -0.2566692171150555,
                        -0.35669627942016363,
                        -0.13244623072326256,
                        -0.8207614233963472,
                        0.1921906475341635,
                        -0.2026250671204604,
                        0.6761728514571392,
                        0.3381566320224266,
                        0.3166097635424783
                    ],
                    [
                        0.22331346192349844,
                        -0.3815092708276316,
                        -0.3401590326706905,
                        0.17282173412135798,
                        0.2219453575300261,
                        0.22227181148162378,
                        -0.993866810270523,
                        -0.2973626137273988,
                        -0.6332146928305928,
                        0.009354498925696578,
                        -0.7141320453733332,
                        -0.9157967658091456,
                        -0.7755637636566381,
                        -0.3236766029008682,
                        -0.3222007473752386,
                        0.7539461803282653,
                        0.8172797569457677,
                        -0.5793642326392319,
                        0.1338250589566392,
                        -0.06693755387397941
                    ],
                    [
                        -0.29184353800925655,
                        0.16397397779466288,
                        0.9997939954443811,
                        0.012372835897660056,
                        -0.6160053301899664,
                        -0.5430058638161884,
                        -0.4410361475753797,
                        0.312368468814631,
                        0.9439862402892782,
                        0.08120990238591808,
                        -0.2752210940417499,
                        -0.38898287010202726,
                        -0.020640787362606557,
                        0.7898211981406461,
                        0.2679529973837447,
                        0.3298872049725756,
                        0.549043425382411,
                        -0.3773627379065676,
                        0.9441815009272183,
                        -0.8251347122162191
                    ],
                    [
                        0.86449826194874,
                        -0.11194446492099241,
                        -0.06099121958306277,
                        0.04957288507012403,
                        1.039879939108382,
                        -1.1763327503938048,
                        -0.3280167821078952,
                        0.3853851310519167,
                        0.452649008953244,
                        0.18413077991629612,
                        -0.4088204489869285,
                        -0.5392190164234539,
                        -0.4591424034188887,
                        -0.0898084656086422,
                        -0.8741512353274096,
                        0.014209305572569608,
                        -0.01162790030061607,
                        0.9647390860797764,
                        -0.893192069820365,
                        0.013339677451231324
                    ],
                    [
                        0.4475389702301467,
                        -0.37511967141211344,
                        0.31286275413973197,
                        -0.7181735895483448,
                        0.7883187487529721,
                        0.501407840399111,
                        0.9447121182956675,
                        0.6454084564845701,
                        0.48352002925822424,
                        0.8215071318999303,
                        -0.9851192400903048,
                        0.49354802232665307,
                        0.9330365585870344,
                        0.18280825686232824,
                        -0.22260412343816954,
                        0.9840355314775175,
                        -0.7773834676454494,
                        0.5445292043616012,
                        -0.3908979884848831,
                        0.7028335444313265
                    ],
                    [
                        -0.698319319264392,
                        0.04431306760229811,
                        0.26647039084831287,
                        -0.7753356692870474,
                        -0.9172093932164413,
                        -0.9321752392889886,
                        0.9047760636257817,
                        0.032069326205714455,
                        -0.9854739170268889,
                        -0.13128432074944385,
                        0.30001469658683244,
                        -0.5415130103330941,
                        -0.7958203984895189,
                        -0.9219050142298151,
                        0.7155840589671806,
                        0.7389658414644369,
                        0.543236474512732,
                        0.21269045126784802,
                        -0.9036671009294261,
                        0.5332967323882589
                    ],
                    [
                        -0.5204015884655906,
                        0.6691206087028452,
                        -0.24878588080555986,
                        -0.9847953926604813,
                        0.47657016482089865,
                        0.030430199065946552,
                        -0.5646427922589853,
                        -0.706659508231415,
                        -0.9047196601387719,
                        0.4080658802140025,
                        0.7008781375879929,
                        -0.9946962868781515,
                        -0.8627148346052498,
                        -0.051337905068712386,
                        0.7947095048409338,
                        -0.8029805752297161,
                        -0.9952595441565706,
                        -0.09288337583419179,
                        -0.36894096041361935,
                        -0.7347533279462164
                    ],
                    [
                        -0.48088837514055793,
                        0.2924732146307407,
                        0.03696264661726001,
                        0.9376631073401018,
                        -0.6006290857008731,
                        0.4328137902956988,
                        1.084298255286019,
                        -0.3359076448139118,
                        0.45280990450787817,
                        0.11648071766175083,
                        -0.057393380431091795,
                        -0.22333501282611265,
                        0.046876578191362706,
                        0.6619841431621722,
                        -0.2688857966298184,
                        -0.39171086660320387,
                        -0.9200037467086091,
                        0.7812285906350838,
                        0.08071701590091676,
                        -0.1343515025830424
                    ],
                    [
                        -0.8623849519059337,
                        -0.21462758643617663,
                        -0.10682355201924056,
                        -0.5009469105041906,
                        0.7553896566940077,
                        0.5686738656446386,
                        -0.6265266951594068,
                        1.0277050205154499,
                        0.3146617850877003,
                        -0.12224655699295872,
                        0.4853334558767566,
                        -0.6567061038633242,
                        -0.7166766901595356,
                        -0.9192938560873428,
                        -0.505393407909621,
                        0.7712870666716234,
                        0.32202843278362503,
                        -0.7045838007303125,
                        0.3120625570769924,
                        0.3282424153191965
                    ],
                    [
                        0.5911399645032223,
                        -0.3690310334169997,
                        0.18756464745529078,
                        0.6073318887981025,
                        -0.5084853705714163,
                        0.38570426604354924,
                        0.5061148829401445,
                        0.05947521327468475,
                        0.2712936755653801,
                        -0.7180735682261163,
                        -0.5471944736462564,
                        0.6470553280678857,
                        -0.18014329592061618,
                        0.13971308992816112,
                        -0.8201933107242214,
                        -0.9019703866026776,
                        0.978355377722077,
                        0.3750628719428436,
                        -0.1958858548043846,
                        0.722748901189241
                    ],
                    [
                        0.34094408430308354,
                        -0.5189541507410995,
                        -0.39606285390256696,
                        -0.4862119732539276,
                        0.3172998523823194,
                        0.9015240428960585,
                        0.47036722991752544,
                        -0.00024489166476548974,
                        0.6526277630602213,
                        0.3462385639140798,
                        -0.345807907674198,
                        -0.31262913852730445,
                        -0.5325306984131257,
                        -0.46328063677322595,
                        -0.23115877136683838,
                        0.13041443577467773,
                        0.7208435241079577,
                        -0.2973757531720747,
                        -0.12775747483662703,
                        0.3802918472817649
                    ],
                    [
                        -0.6643464922362927,
                        -0.596326180561419,
                        -0.8409523646248143,
                        -0.7812935615980137,
                        -0.379697249437027,
                        0.8721097853117228,
                        0.8066802862455551,
                        -0.022264319028450177,
                        -0.5558812473343103,
                        -0.7097286478562856,
                        0.029306563448027484,
                        0.4796813641993255,
                        0.9624232879727086,
                        0.13997504909802708,
                        0.9208007477841342,
                        -0.2002148602259152,
                        0.1926538916980343,
                        -0.1123185431527938,
                        0.15237834310019038,
                        -0.7097960625502038
                    ],
                    [
                        0.20521450446139544,
                        0.09150090938572064,
                        0.408753466501373,
                        0.6794465374460747,
                        0.591788487273239,
                        -0.04584579799613081,
                        -0.1639059892228092,
                        -0.41324457324027875,
                        -0.42594481187181055,
                        0.9405881157508391,
                        -0.7737848225909048,
                        0.7916462099109252,
                        0.10999861140789813,
                        -0.211197938328048,
                        0.8622177371556179,
                        -0.4042044783868648,
                        -0.8117682386097976,
                        -0.7295212226102814,
                        0.9114394567178514,
                        1.0051462643872502
                    ],
                    [
                        -0.2304294860566336,
                        0.7623749485545489,
                        -0.6233771772354086,
                        0.8017317695342627,
                        0.5832095464174913,
                        -0.8208715588922683,
                        -0.5195612966212153,
                        0.687899211089819,
                        -0.8481453489786229,
                        0.05985423496712139,
                        -0.708510309505431,
                        -0.3684386566477375,
                        0.08612739067207875,
                        0.46928222288907934,
                        0.4024560131411681,
                        0.31684999090894206,
                        0.7806929983986172,
                        -0.37801809331173164,
                        0.8116657387164861,
                        -0.03379117229098405
                    ],
                    [
                        -0.9105048305105546,
                        0.3944830560980912,
                        -0.565163944282906,
                        0.22500118728914242,
                        0.03910655361984361,
                        -0.7177184772873935,
                        -0.23876849603583317,
                        0.45249792915186204,
                        -0.4087989416322185,
                        0.8456765516391125,
                        0.6571411361676716,
                        -0.4872412866757119,
                        -0.9524408031220155,
                        0.257167157418696,
                        0.24037963490463957,
                        -0.5332317703388383,
                        0.3069318688914584,
                        -0.5896591061858152,
                        0.5571601163889444,
                        -0.8686214459065593
                    ],
                    [
                        -0.9075908545658025,
                        -0.17453950440983212,
                        0.2052097176057506,
                        -0.3350261204073719,
                        -0.7054081742515019,
                        -0.23968344743857503,
                        -0.2840207706577055,
                        -0.6842952729823146,
                        0.15721478775240483,
                        -0.9255024132136236,
                        -0.1738633094243817,
                        0.9041006677326229,
                        -0.0037460207982307203,
                        -0.4173685315061768,
                        0.43602293716468976,
                        -0.6349466414655752,
                        -0.2879086340657997,
                        0.34445938382510755,
                        0.6213891530010909,
                        0.12082581429761796
                    ],
                    [
                        0.8549250007520692,
                        -0.933195627368919,
                        0.6006919748940585,
                        -0.8221029544609892,
                        -0.7001497175999065,
                        -0.6046271806827873,
                        0.6075025633913469,
                        -0.0023585823720071054,
                        -0.19979663799604674,
                        0.05877165897586001,
                        -0.2524666028807496,
                        0.480287014941424,
                        0.14221951408757993,
                        -0.11864388381497237,
                        -0.8799461789192131,
                        -0.42038788416851647,
                        0.7460420235414162,
                        -0.6555359760511714,
                        0.8838484771081678,
                        0.7354877050621483
                    ],
                    [
                        0.8733497419925875,
                        -0.252522837244332,
                        0.7867790049762627,
                        0.4617341508960575,
                        0.1085477118329437,
                        -0.05723164066085004,
                        -0.875489380810764,
                        -0.5405833892242494,
                        -0.3916159367920917,
                        -0.07598052451215387,
                        0.2022274308570149,
                        -0.42365997199114536,
                        0.06773965614896316,
                        -0.8482128969097745,
                        -0.22769098156310164,
                        0.7503738885602338,
                        -0.3218403365197229,
                        0.7715333043306305,
                        0.23471816412763447,
                        0.88408643326482
                    ],
                    [
                        -0.9107888136891058,
                        -0.0702734224863315,
                        0.5801662822981175,
                        -0.7849807013940828,
                        0.6374493923362388,
                        0.9445487066045093,
                        -0.24203428501779412,
                        -0.7532958451453093,
                        0.03855843013258453,
                        -0.22596419289376443,
                        0.17627087218018134,
                        -0.34282779208544145,
                        -0.2397470934093917,
                        0.5923559613714781,
                        -0.5646615692418469,
                        -0.37060427652711203,
                        0.5261841285926998,
                        -0.952429053310046,
                        -0.8517999971862396,
                        0.4925571468489888
                    ],
                    [
                        0.3476771531613236,
                        0.7889834941953799,
                        -0.08858121096100557,
                        -0.6787462025026917,
                        0.8839116547159109,
                        -0.07242540200621894,
                        0.09317229590818354,
                        -0.5862893728857246,
                        -0.7413716898989435,
                        0.1598667712375354,
                        -0.15528483317365782,
                        -0.38583678290287393,
                        0.2913015240518013,
                        0.2850855814367277,
                        -0.7653976142632379,
                        0.8633722661915597,
                        0.10451604093239086,
                        -0.6410847066932497,
                        0.647855334461418,
                        -0.29107064772916935
                    ],
                    [
                        0.3118784824973886,
                        -0.7172965194003926,
                        -0.4864692120239642,
                        0.6306294858341022,
                        0.19814268101703458,
                        -0.7112906673219088,
                        0.14685383103549884,
                        0.43417868630917655,
                        0.7431337488911451,
                        0.26750108861690114,
                        -0.2808987293821652,
                        0.3000737659766892,
                        -0.021098570855588417,
                        -0.8661477134321058,
                        -0.51901466616813,
                        -0.18339645549066375,
                        0.9352507879018572,
                        0.953860742759923,
                        0.9070590898144243,
                        0.3588496542670996
                    ],
                    [
                        0.9767922851571209,
                        -0.9110321881073935,
                        0.2992309792522123,
                        -0.951716660545106,
                        0.9456010097012228,
                        -0.4478717398755101,
                        -0.9444044933244784,
                        0.858097283523483,
                        0.7098638195080221,
                        -0.06449679607205527,
                        -0.9417977388337126,
                        0.27138029953136256,
                        0.5643381860957716,
                        0.651260220403485,
                        -0.03581739149553553,
                        0.636591146961897,
                        -0.11583375865023182,
                        0.1387553797761058,
                        0.5593638566350911,
                        -0.9360138911623072
                    ]
                ],
                [
                    [
                        -0.30639586909992744,
                        0.6516825175212604,
                        -0.3571455229311622,
                        0.5091361774004282,
                        -0.25380690308828274,
                        -0.036379788571616396,
                        -0.38688789204018215,
                        0.6555882610166861,
                        -0.1512909103501643,
                        -0.33472200356077025
                    ],
                    [
                        -0.4932040489596081,
                        -0.4917184657612361,
                        -0.4424667401307255,
                        0.3488526383480577,
                        0.25106339955320534,
                        0.6710580889501185,
                        0.35406336856209064,
                        -0.4349861983083594,
                        -0.669257351336733,
                        0.05423305858181138
                    ],
                    [
                        -0.1824314434778096,
                        -0.8885958283310111,
                        0.22188422385512688,
                        0.8262132793865501,
                        0.24325941571167756,
                        0.6300650506808949,
                        0.5834212625276858,
                        -0.15325716710027315,
                        0.5765038047924094,
                        0.8813912497521696
                    ],
                    [
                        0.8950886716068529,
                        0.43580612934658913,
                        -0.48062783152445787,
                        0.3490457762492949,
                        -0.5053770961912221,
                        -0.3283740762210796,
                        1.0366998257891669,
                        0.9688971625776392,
                        -0.1263715057239816,
                        -0.007428669654160336
                    ],
                    [
                        -0.3470977844705725,
                        -0.8905874042252302,
                        -0.3573665389881624,
                        -0.7307215351355723,
                        -0.5119567920910371,
                        0.5151083380254087,
                        -0.7113258527211674,
                        -0.511556303998434,
                        1.0150332582211483,
                        0.7676423001564777
                    ],
                    [
                        0.7738921751608028,
                        0.5328702624362154,
                        -0.21934545618696905,
                        -0.04737083587337118,
                        -0.3444989900107378,
                        -0.11925938531651537,
                        0.9562541082993568,
                        -0.3406702552671742,
                        0.07359767649371346,
                        0.9174914766136558
                    ],
                    [
                        0.9516655647779315,
                        -0.7950794500891811,
                        -0.3365210207228593,
                        0.9679037217288646,
                        -0.21044796155432643,
                        0.2504088196462557,
                        0.2555299868179972,
                        0.3127227051498833,
                        -0.4292575752177976,
                        -0.6826933495176095
                    ],
                    [
                        0.4081998633102994,
                        -0.2690107802026436,
                        -0.6203409053041401,
                        -0.24013872551159565,
                        0.05504687716300838,
                        0.6797914962381457,
                        0.04873370490774964,
                        0.07243399901088865,
                        -0.42443481590994625,
                        0.3048433958518899
                    ],
                    [
                        -0.4971352794782453,
                        -0.9678517982116421,
                        0.6564535053859828,
                        -0.00819853924665805,
                        0.8998822702121863,
                        1.010081379714426,
                        -0.4826097519078122,
                        0.6616421963365677,
                        -0.8585948493539839,
                        0.38440388907023193
                    ],
                    [
                        0.4898704320318956,
                        -0.4697703938712244,
                        0.31758939387631413,
                        0.5538427649045896,
                        -0.2673982428535646,
                        -0.532052382649143,
                        -0.4705942407365633,
                        0.09442895110527716,
                        0.4480618915917521,
                        0.48188241695262524
                    ],
                    [
                        -0.644063944162083,
                        0.3395672024234371,
                        0.455154091782148,
                        -0.8078086715559543,
                        0.8547232996314162,
                        -0.6042071211836568,
                        0.6564731665278991,
                        0.4652476142425902,
                        -0.7312800344077555,
                        -0.2957475291335119
                    ],
                    [
                        -0.08085203834777976,
                        -0.6699081502413652,
                        0.7735095010113541,
                        0.687845354697707,
                        -0.17670313683460415,
                        0.21662932608630237,
                        0.24076997691504637,
                        0.5877267798813054,
                        0.14970364983868256,
                        0.6744516052800977
                    ],
                    [
                        -0.423298310999942,
                        -0.3385151109421616,
                        -0.7022340013896651,
                        -0.04714851672933351,
                        -0.900360390598806,
                        -0.3615909541741247,
                        -0.19379658825580104,
                        0.8174427490512335,
                        -0.4765154788701599,
                        0.5084044616907193
                    ],
                    [
                        0.5915135143398671,
                        -0.5241151988025704,
                        -0.026763531001642304,
                        0.9103258650783748,
                        0.7794332734040975,
                        0.28467916721382247,
                        -0.29404439618910966,
                        -0.08012159951464928,
                        -0.6045667631756741,
                        0.8229812696188791
                    ],
                    [
                        -0.7238805478057286,
                        -0.38403862164540037,
                        -0.2484938148608946,
                        0.5620406788949948,
                        -0.015244407771537016,
                        -0.38416582617918027,
                        0.9585100423911503,
                        -0.924776816693001,
                        0.4221712130961466,
                        -0.09041180633203955
                    ],
                    [
                        -0.1173301302926264,
                        -0.49659786368726566,
                        -0.3152320761085626,
                        -0.7544198114334516,
                        0.935738462857099,
                        0.17908921025786184,
                        0.025576517528436565,
                        0.27842996667572656,
                        -0.02868309636797073,
                        -0.15053508181275466
                    ],
                    [
                        0.7670004729190458,
                        0.7650724045873141,
                        0.8619336098739898,
                        0.6841247274394056,
                        -0.8346956572444748,
                        -0.19701031663591306,
                        0.6865465741766199,
                        0.9474542154509151,
                        -0.021012321555205382,
                        -0.8131893704838318
                    ],
                    [
                        -0.4318704924172967,
                        -0.6409604573434775,
                        -0.04865555454496166,
                        0.2320018242611872,
                        -0.5002795656218842,
                        -0.05737699228558624,
                        -0.39651165365203056,
                        -0.6002009956339538,
                        0.9108736134090956,
                        -0.4552759718192212
                    ],
                    [
                        -0.3297550076731639,
                        0.7441638631341927,
                        -0.5122792990659476,
                        -0.30890552797615833,
                        -0.6680979042083695,
                        -0.8803008265318935,
                        0.26507701977034626,
                        0.2136591785559856,
                        -0.9798358168670716,
                        -0.9236323513247195
                    ],
                    [
                        0.8299159363987428,
                        0.9798383924080658,
                        -0.6386649597250338,
                        -0.49637924796138866,
                        -0.13205801342110624,
                        -0.8802188033256093,
                        0.2473448933509992,
                        0.1806080610032368,
                        -1.0058737301999745,
                        -0.44386378684584965
                    ]
                ],
                [
                    [
                        -0.664563648743036,
                        -0.12763463187063562,
                        0.6871975720430344,
                        0.36056462513594334
                    ],
                    [
                        -0.5143097990276575,
                        0.792459960226082,
                        0.13521840845942698,
                        -0.7016528732188665
                    ],
                    [
                        0.3269029377569335,
                        0.8536921942796551,
                        -0.7723158059611555,
                        -0.6130814750335684
                    ],
                    [
                        -0.26180297324404656,
                        -0.06910848954406282,
                        0.4838060041510937,
                        0.7075893890822607
                    ],
                    [
                        -0.6279137812515154,
                        -0.3436800151134147,
                        0.6203779678482271,
                        0.9103934755815938
                    ],
                    [
                        -0.21336798293527937,
                        0.5624401754578938,
                        -0.4800023108026519,
                        -0.2902590879197784
                    ],
                    [
                        0.3207806545991907,
                        -0.26233287105722947,
                        -0.008987142396560163,
                        -0.4385435547828336
                    ],
                    [
                        -1.001063395078356,
                        0.17355525092569438,
                        0.2701194747396074,
                        -0.7817874138801784
                    ],
                    [
                        -0.5189418308400044,
                        -0.07826334179292904,
                        -0.06582184497434432,
                        0.6320231408132937
                    ],
                    [
                        -0.22577646675487928,
                        1.1938792632600204,
                        -0.9849216702935157,
                        0.7662852523050869
                    ]
                ]
        ]
}