{
    "network_weights": [
                [
                    [
                        -0.19603104192729515,
                        -0.6283756013728252,
                        0.31835635960204867,
                        -0.6795941995341854,
                        -0.08038612729983363,
                        -0.3231334025383297,
                        -0.9442841141752962,
                        -0.04557798705776994,
                        -0.37595572358761964,
                        -0.017895876307021174,
                        -0.17265929036698968,
                        -0.613789322721761,
                        0.8058162551993757,
                        0.09071126108992078,
                        -0.16123113613084963,
                        -0.38338188033094717,
                        0.41522333578773973,
                        -0.8031203380180747,
                        0.3073117436869784,
                        -0.06500891888688298
                    ],
                    [
                        -0.6465925092810471,
                        0.22350761242477057,
                        0.49768107120352467,
                        -0.042323645486043907,
                        0.1503046372318082,
                        0.5571112416476149,
                        1.0400890383791368,
                        -0.47315445796388134,
                        -0.21423884506329616,
                        -0.9973682307138806,
                        0.42652261572711536,
                        0.3499990053234219,
                        -0.9012213371326825,
                        0.24841772630475156,
                        0.20593070170704975,
                        -0.9126870011190287,
                        -0.10558344409242502,
                        0.7732049345573693,
                        0.13875344949722557,
                        -0.131471627687332
                    ],
                    [
                        -0.24851976970195164,
                        0.9722254672176867,
                        0.09943253172221955,
                        -0.6003173459720322,
                        0.2582198791480821,
                        0.8997236038339862,
                        -0.7635162413007468,
                        -0.5236242549255992,
                        0.870265436061769,
                        0.49800210222972785,
                        0.47166528652181783,
                        0.03306576301729126,
                        0.8245588045685945,
                        0.3394950487344579,
                        -0.2528091913792976,
                        -0.890334106881246,
                        -0.28095971850841606,
                        -0.5437344807105433,
                        0.04794990592319803,
                        -0.6584993158241099
                    ],
                    [
                        0.9514124933113901,
                        -0.25260773146301463,
                        -0.19529294035889366,
                        0.6262462917099303,
                        0.8202913316223426,
                        0.48780087530176286,
                        0.4184254678606023,
                        -0.6293536920856746,
                        0.21057920714428735,
                        -0.3255206213636994,
                        -0.5880712735228255,
                        0.5667788015598498,
                        -0.6803376637898384,
                        -0.6785951725482611,
                        -0.5856837345355046,
                        0.41045118978987033,
                        0.10014906262353152,
                        -0.6033511351232193,
                        -0.971955736298068,
                        0.8851389627669592
                    ],
                    [
                        -0.2812658029106072,
                        -0.8785208995063736,
                        -0.3783205856360491,
                        -0.049613236024060536,
                        0.447530995708747,
                        -0.14321742666189094,
                        -0.8024007339371515,
                        0.1714351888379808,
                        0.8928691228256864,
                        -0.3276248473276755,
                        -0.8913702697953685,
                        0.30324207847678575,
                        -0.778352728560652,
                        -0.8376414032646857,
                        0.8912469978893658,
                        -0.3246075773723842,
                        -0.3070126409671061,
                        0.8613563539306858,
                        0.14914956856925166,
                        0.20459779569450998
                    ],
                    [
                        -0.5957547748146945,
                        -0.8148902256891832,
                        -0.023385463406178843,
                        0.5696452105019856,
                        -0.07775197488197438,
                        0.022085021392631576,
                        0.7280214230668931,
                        -0.303264334239465,
                        -0.5813109840036574,
                        -0.7695509542988584,
                        -0.5804668770916612,
                        0.6939657929352816,
                        -0.6596509473516008,
                        0.49781627391889727,
                        0.024452623781195504,
                        0.3662258067283477,
                        0.08196058640068671,
                        0.24349470217581204,
                        0.40824954063410485,
                        0.822518870728199
                    ],
                    [
                        0.5389350672363766,
                        -0.44180535596490533,
                        0.9040579357036587,
                        0.0201157199358096,
                        -0.8339093847892858,
                        -0.16594297681768322,
                        0.3148177851693451,
                        -0.6430532194407164,
                        -0.7751338783768733,
                        0.8218875644166956,
                        0.22344761039736666,
                        -0.8585361117695389,
                        -0.4602307490861268,
                        -0.9430753777879469,
                        0.7179268230263207,
                        -0.8340554348511895,
                        0.3037931373414383,
                        -0.18393070559293384,
                        0.5419904375889119,
                        -0.6924207345830746
                    ],
                    [
                        -0.7244745902487746,
                        0.9690824305867816,
                        0.3443120014057157,
                        0.3208576339408306,
                        -0.9643532389371369,
                        -0.5237970427854024,
                        0.7272568398793016,
                        0.10058742470990234,
                        0.3385089403645752,
                        -0.30789409710893667,
                        0.6075062455168259,
                        0.1278230100197757,
                        0.12865087433974084,
                        0.16332732849206733,
                        -0.9349108968780017,
                        -0.6370555523209783,
                        -0.656194961558392,
                        0.692264535841767,
                        0.6377934084006078,
                        0.8453296415857503
                    ],
                    [
                        0.19231660559911903,
                        -0.16667767854367832,
                        0.7169859409448379,
                        -0.0561561587945294,
                        0.6904134647709161,
                        -0.9753191458104074,
                        -0.24754062413609734,
                        -0.24049880780666297,
                        -0.808060772296069,
                        -0.7418137676566284,
                        -0.6014100182683724,
                        0.5330854523812858,
                        0.09112330824599657,
                        0.8594598201712509,
                        -0.5512490568505596,
                        -0.09825542520792285,
                        -0.5675380484582966,
                        -1.0552803268878197,
                        -0.1251461022208048,
                        -0.510143628186177
                    ],
                    [
                        -0.2969361398965049,
                        0.4313038519935951,
                        -0.9919041267277893,
                        0.7857580132544189,
                        0.9758756917131908,
                        -0.7782098515288072,
                        -0.17030416392881387,
                        0.2831448558984245,
                        -0.6661285480911371,
                        0.09156671719455481,
                        0.9358554543911166,
                        -0.877417284158017,
                        0.44532392641110163,
                        -0.11326178740516055,
                        -0.18126981003087472,
                        0.8648570758418694,
                        -0.4025979226825074,
                        0.6797288931751262,
                        0.4981130246122388,
                        0.40346934016560176
                    ],
                    [
                        0.2711074387727398,
                        -0.7131441949681299,
                        0.45945420868740805,
                        -0.9920787460765343,
                        -0.220384684845377,
                        0.5351475236643234,
                        0.9155256142289581,
                        0.9284868256079855,
                        -0.49315557143458744,
                        -0.495341011280105,
                        0.048968517490593166,
                        0.6706467999377552,
                        -0.5481848083132933,
                        0.02184457200119394,
                        0.8510374139331132,
                        -0.006639157876381793,
                        -0.5509918954756443,
                        0.23080653992048772,
                        -0.37335038527765496,
                        0.2657381534975758
                    ],
                    [
                        -0.29525958144697884,
                        -0.19980461164197116,
                        0.5850684694488697,
                        -0.7862392233513253,
                        0.690467796466927,
                        0.5873467344298963,
                        -0.09553377222859405,
                        0.1864949762012147,
                        0.8375995386691488,
                        -0.8191183890778746,
                        0.5156305289279977,
                        -0.16008031452008598,
                        0.7174843316970647,
                        -0.23890091630810129,
                        0.1268034417195374,
                        0.20528550642637255,
                        -0.8349962965791955,
                        0.7125523799048015,
                        0.7318988873323442,
                        -0.8881894440834581
                    ],
                    [
                        0.2931026053493644,
                        0.27769878523547886,
                        -0.5829384197610716,
                        0.197046891149684,
                        -0.5455688474348523,
                        0.41872120436638727,
                        -0.6665469469886263,
                        -0.9189174152504724,
                        -0.621625402580371,
                        -0.5005904558875398,
                        0.35701544604748947,
                        0.8496667636573151,
                        0.15812852830726687,
                        0.016281109302625607,
                        0.07074919895083642,
                        -0.4464331585205797,
                        0.3920451215003171,
                        0.21458977290237877,
                        0.06886732159696374,
                        0.4356522429249954
                    ],
                    [
                        -0.5344965199089615,
                        -0.6822842573687464,
                        -0.9068824321890734,
                        0.3004784608482256,
                        0.5219279416270959,
                        -0.5460146676500295,
                        -0.8235847392979183,
                        -0.5455245495906668,
                        -0.9351698373568285,
                        -0.954150170611782,
                        0.3435143819849007,
                        0.022802237072400325,
                        0.7614262212876022,
                        -0.8215810401926529,
                        -0.7184605798940633,
                        -0.07062118282765867,
                        0.817240088987286,
                        -0.06859280013017743,
                        0.4127205748394065,
                        0.584683916118766
                    ],
                    [
                        -1.3126515481942078,
                        -0.5854230554445325,
                        0.20764377250456872,
                        0.9150564795183378,
                        0.8514417890221111,
                        0.14117970911698619,
                        0.5184406819923297,
                        -0.7060008678933574,
                        0.4438868480879308,
                        0.12536262585957103,
                        -0.8962832706056991,
                        -0.48591270837096484,
                        0.3720719522566329,
                        0.668659619464999,
                        -0.2736969622564324,
                        -0.047734941718100776,
                        -0.4461608401571,
                        -0.22719036576246787,
                        -0.4694911502247438,
                        -0.8963779469186657
                    ],
                    [
                        0.5598287136195188,
                        0.8597235654844173,
                        0.7781376712164245,
                        -0.8875381820748945,
                        -0.4189342370730914,
                        0.9444779894899351,
                        1.0426028357904273,
                        0.9058905928534281,
                        0.26973664590376445,
                        -0.9941553364646243,
                        0.5340126868049989,
                        -0.3901628815646907,
                        0.5637499953173633,
                        0.1426945697607243,
                        -0.28187144633944916,
                        0.9161817685389935,
                        -0.5413863033228196,
                        -0.662905352129733,
                        0.5728208988887584,
                        0.12082581429761796
                    ],
                    [
                        0.8328971220158625,
                        -1.0151233881924795,
                        0.6006919748940585,
                        -0.9850971341725037,
                        -0.7001497175999065,
                        -0.4040479297602515,
                        0.6075025633913469,
                        0.02570140918664328,
                        -0.23063634411686462,
                        0.016951264430309275,
                        -0.1575825189927055,
                        0.480287014941424,
                        0.14221951408757993,
                        -0.11864388381497237,
                        -0.8799461789192131,
                        -0.37487919291038474,
                        0.7460420235414162,
                        -0.6980924934941015,
                        0.9648846390555343,
                        0.541838119463116
                    ],
                    [
                        0.8733497419925875,
                        -0.022488027544483827,
                        0.7295167470305843,
                        0.4478941515378968,
                        0.6011316708056315,
                        -0.224958735921035,
                        -0.6884572183952035,
                        -0.9749944500588426,
                        -0.5767777138533798,
                        -0.20525763051412957,
                        0.15152799962241784,
                        -0.33707057498204046,
                        0.06773965614896316,
                        -0.7224821465598255,
                        -0.2652507296639153,
                        0.5765352237631484,
                        -0.3218403365197229,
                        0.6855558683417912,
                        0.05839491925513943,
                        0.88408643326482
                    ],
                    [
                        -0.7725840743647543,
                        -0.0702734224863315,
                        0.7760125312756226,
                        -0.6384402179586051,
                        0.6374493923362388,
                        0.8853839931740451,
                        -0.24203428501779412,
                        -0.7532958451453093,
                        0.008411994323658026,
                        -0.23896071667431462,
                        0.17627087218018134,
                        -0.4139110566112764,
                        -0.2086146054495268,
                        0.625712270225569,
                        -0.4912242512309748,
                        -0.37060427652711203,
                        0.5752193925418128,
                        -1.0541436164834972,
                        -0.8002731589348857,
                        0.44891671119212373
                    ],
                    [
                        -0.0522478541423721,
                        0.7889834941953799,
                        -0.2520789662337563,
                        -0.7460040075773651,
                        0.8015944308770514,
                        -0.06372569635100231,
                        -0.10351487524055385,
                        -0.5862893728857246,
                        -0.574272604750123,
                        0.12980661025841678,
                        -0.15528483317365782,
                        -0.30327109740282765,
                        0.2913015240518013,
                        0.2850855814367277,
                        -0.6077047531167595,
                        0.8633722661915597,
                        0.04796378279947141,
                        -0.6410847066932497,
                        0.5979400330829177,
                        -0.29107064772916935
                    ],
                    [
                        0.3118784824973886,
                        -0.5880534303016393,
                        -0.4864692120239642,
                        0.6306294858341022,
                        0.19814268101703458,
                        -0.9687631732035162,
                        0.2675282823253211,
                        0.6580154231767784,
                        0.7431337488911451,
                        0.26750108861690114,
                        -0.2808987293821652,
                        0.3000737659766892,
                        -0.021098570855588417,
                        -0.8661477134321058,
                        -0.3919511285522711,
                        0.10118723392929602,
                        0.9352507879018572,
                        0.7544800454265921,
                        0.9261021824681388,
                        0.3588496542670996
                    ],
                    [
                        0.9767922851571209,
                        -0.9110321881073935,
                        0.13982475243246736,
                        -0.951716660545106,
                        0.9200016720903281,
                        -0.5391685748047944,
                        -0.9444044933244784,
                        0.8245187459001189,
                        0.7671698955377562,
                        0.02087823440701693,
                        -0.9417977388337126,
                        0.10890076355858125,
                        0.6825902239204819,
                        0.651260220403485,
                        -0.09414993624872503,
                        0.636591146961897,
                        -0.23401184523446666,
                        0.23709069788191256,
                        0.5593638566350911,
                        -0.9872792007443785
                    ]
                ],
                [
                    [
                        -0.15249694788471768,
                        0.6328719602039261,
                        -0.3571455229311622,
                        0.5091361774004282,
                        -0.21570277340112853,
                        0.0014973495025001338,
                        -0.38688789204018215,
                        0.6555882610166861,
                        -0.1512909103501643,
                        -0.4074647085467037
                    ],
                    [
                        -0.4932040489596081,
                        -0.4917184657612361,
                        -0.3211290799145088,
                        0.3488526383480577,
                        0.21629274094971773,
                        0.6488083906208323,
                        0.35406336856209064,
                        -0.4349861983083594,
                        -0.585201900605022,
                        -0.07130163307969126
                    ],
                    [
                        -0.1824314434778096,
                        -0.8848702493322824,
                        0.5084885175288765,
                        0.7639684031854188,
                        0.2985496689585869,
                        0.5424691766255677,
                        0.36251494697402514,
                        -0.15325716710027315,
                        0.4035832176689941,
                        0.8158650884753198
                    ],
                    [
                        0.8950886716068529,
                        0.43580612934658913,
                        -0.48062783152445787,
                        0.27450390987393525,
                        -0.4430441354385281,
                        -0.0620152921353335,
                        1.0993752025467827,
                        0.9688971625776392,
                        -0.07677428403419188,
                        -0.0107605810750597
                    ],
                    [
                        -0.3487253999359447,
                        -0.8905874042252302,
                        -0.4542087750977639,
                        -0.7307215351355723,
                        -0.5119567920910371,
                        0.5151083380254087,
                        -0.7627875735738303,
                        -0.4140303547897579,
                        0.7071503452527159,
                        0.7499549497284748
                    ],
                    [
                        0.7738921751608028,
                        0.5328702624362154,
                        -0.15035688699559735,
                        -0.1654112625400801,
                        -0.3444989900107378,
                        -0.11925938531651537,
                        0.8574251559372349,
                        -0.5761633801146356,
                        0.100875933174814,
                        0.6196070304832031
                    ],
                    [
                        0.9972626993143691,
                        -0.7950794500891811,
                        -0.3365210207228593,
                        0.9537018498246099,
                        0.021393442429330056,
                        0.2504088196462557,
                        0.030513191298695747,
                        0.2499105990305368,
                        -0.43410465892581845,
                        -0.6826933495176095
                    ],
                    [
                        0.3449260762277371,
                        -0.2950387102942949,
                        -0.5502729986951962,
                        -0.23561383487251084,
                        0.03166464889124487,
                        0.6797914962381457,
                        0.04873370490774964,
                        -0.07298815021335985,
                        -0.4457828874096821,
                        0.3048433958518899
                    ],
                    [
                        -0.54625235893575,
                        -0.9678517982116421,
                        0.7259264949234067,
                        -0.01258250901529201,
                        0.8998822702121863,
                        0.8587238591156203,
                        -0.4961169804994483,
                        0.6616421963365677,
                        -0.79986095479573,
                        0.38440388907023193
                    ],
                    [
                        0.4868544832700865,
                        -0.5781454380311534,
                        0.31758939387631413,
                        0.5154378678625575,
                        -0.14615130716280997,
                        -0.5416952118298393,
                        -0.6621729962694481,
                        0.26946207668401584,
                        0.35937813843022803,
                        0.48188241695262524
                    ],
                    [
                        -0.6408540625702644,
                        0.3395672024234371,
                        0.44419486597312985,
                        -0.7100314195008863,
                        0.8547232996314162,
                        -0.6042071211836568,
                        0.6623481937877131,
                        0.41157742349948223,
                        -0.5534427416915545,
                        -0.2981402935881787
                    ],
                    [
                        -0.09764163723453861,
                        -0.7570349689121252,
                        0.5873419237351201,
                        0.687845354697707,
                        -0.295059899253027,
                        0.21662932608630237,
                        0.1312524149414931,
                        0.4072979953103484,
                        0.14970364983868256,
                        0.6744516052800977
                    ],
                    [
                        -0.39085527385864516,
                        -0.3385151109421616,
                        -0.7022340013896651,
                        -0.18864665348134751,
                        -0.8388716836528884,
                        -0.3834839890701445,
                        -0.19379658825580104,
                        0.6538919266826562,
                        -0.44261072548185076,
                        0.5084044616907193
                    ],
                    [
                        0.5915135143398671,
                        -0.1431849503017932,
                        -0.026763531001642304,
                        0.978661544568824,
                        0.7434112401535193,
                        0.41296745466503365,
                        -0.2054852919734099,
                        0.016209077566795526,
                        -0.6889481728957014,
                        0.9239289510140494
                    ],
                    [
                        -0.7238805478057286,
                        -0.38403862164540037,
                        -0.2484938148608946,
                        0.5680685090702899,
                        -0.015244407771537016,
                        -0.38416582617918027,
                        0.9585100423911503,
                        -0.924776816693001,
                        0.4237755531477969,
                        -0.17675019039838769
                    ],
                    [
                        -0.1173301302926264,
                        -0.49659786368726566,
                        -0.3198332372362648,
                        -0.5146411080317783,
                        0.935738462857099,
                        0.17908921025786184,
                        -0.10621097516267852,
                        0.34210094667685387,
                        -0.02868309636797073,
                        -0.30590774005500754
                    ],
                    [
                        0.7670004729190458,
                        0.7650724045873141,
                        0.8619336098739898,
                        0.6973960859071227,
                        -0.8346956572444748,
                        -0.15466879247528476,
                        0.7094627237365941,
                        0.9474542154509151,
                        -0.021012321555205382,
                        -0.8131893704838318
                    ],
                    [
                        -0.4642622322031633,
                        -0.6409604573434775,
                        -0.08202456056606003,
                        0.2131632088265204,
                        -0.3267540669559599,
                        0.19190700557408108,
                        -0.39651165365203056,
                        -0.6002009956339538,
                        0.9108736134090956,
                        -0.4552759718192212
                    ],
                    [
                        -0.3297550076731639,
                        0.7441638631341927,
                        -0.6433868190697701,
                        -0.30890552797615833,
                        -0.6680979042083695,
                        -0.8803008265318935,
                        0.3472223644354099,
                        0.2136591785559856,
                        -0.9798358168670716,
                        -0.9236323513247195
                    ],
                    [
                        0.8265640112701111,
                        0.9789128555252123,
                        -0.6386649597250338,
                        -0.49637924796138866,
                        -0.13205801342110624,
                        -0.8802188033256093,
                        0.21387595879731008,
                        0.1806080610032368,
                        -0.8152803502164109,
                        -0.5222510067616207
                    ]
                ],
                [
                    [
                        -0.664563648743036,
                        -0.12763463187063562,
                        0.6871975720430344,
                        0.42590067395115916
                    ],
                    [
                        -0.5143097990276575,
                        0.7092096591564869,
                        0.08628075405570423,
                        -0.6777886742688297
                    ],
                    [
                        0.3211246013838489,
                        0.8222863858932138,
                        -0.7884292528060437,
                        -0.3323041061819661
                    ],
                    [
                        -0.26180297324404656,
                        -0.03348941110780611,
                        0.5808868071451152,
                        0.7075893890822607
                    ],
                    [
                        -0.6279137812515154,
                        -0.3436800151134147,
                        0.569463443672316,
                        0.9190335420594825
                    ],
                    [
                        -0.22297874265321793,
                        0.5624401754578938,
                        -0.37573322520578745,
                        -0.3225530405576293
                    ],
                    [
                        0.3207806545991907,
                        -0.4097340967802249,
                        0.022866211978385342,
                        -0.29662611062406996
                    ],
                    [
                        -0.9014454830577463,
                        0.2531370368368912,
                        0.18256683472316015,
                        -0.6725703192158825
                    ],
                    [
                        -0.5103734923869709,
                        -0.07826334179292904,
                        0.060431088837216373,
                        0.6887156024839918
                    ],
                    [
                        -0.32926893591910944,
                        0.9862300544692055,
                        -1.1242897668286138,
                        0.7662852523050869
                    ]
                ]
            ]
}