{
    "network_weights": [
                [
                    [
                        -0.918982934166872,
                        0.04466168563562527,
                        -0.16147929631901414,
                        0.2732295820823257,
                        0.4353647697249581,
                        0.3698961879879586,
                        -0.5052127865937324,
                        0.6594923381022597,
                        -0.3599867258708825,
                        -0.23830930489024774,
                        0.9773482096929689,
                        0.18833098473744145,
                        -0.3914253198900039,
                        0.2587613292967028,
                        0.7139430403773763,
                        -0.6153361954695906,
                        -0.2662705284071195,
                        0.5991317602348754,
                        0.3641558405542613,
                        0.3166097635424783
                    ],
                    [
                        0.31302441261194786,
                        -0.26386447067366925,
                        -0.1437438419646994,
                        0.3767910772851326,
                        0.09388972835059922,
                        0.160907033620413,
                        -1.0139605011850432,
                        -0.2973626137273988,
                        -0.8182008474713209,
                        -0.9318602418248587,
                        0.4450449422597116,
                        0.29716738466450177,
                        -0.9012213371326825,
                        0.24841772630475156,
                        0.1652389441269078,
                        -0.8908075620569069,
                        -0.1329703882441647,
                        0.7732049345573693,
                        0.13875344949722557,
                        -0.21696046069262284
                    ],
                    [
                        -0.2911021682770374,
                        0.9722254672176867,
                        0.09943253172221955,
                        -0.39083897225956976,
                        0.2582198791480821,
                        0.9320298165884129,
                        -0.7635162413007468,
                        -0.6335105891902,
                        0.7679509316316175,
                        0.4452158299594841,
                        0.4849115788748992,
                        0.09089155225292345,
                        0.8611416508820353,
                        0.3394950487344579,
                        -0.1973624878432692,
                        -0.9037565053427186,
                        -0.1717477604025651,
                        -0.5475913956483486,
                        0.04794990592319803,
                        -0.6584993158241099
                    ],
                    [
                        0.36486996541374744,
                        0.9881999757857279,
                        0.35925432982025374,
                        -0.5877230798044712,
                        -0.22121923681539135,
                        0.5740896417837311,
                        -0.3731150577731015,
                        -0.24626910252736578,
                        0.8894276046492697,
                        -0.9729495457320758,
                        0.29355530218930526,
                        0.5152212040586672,
                        -0.5203067089070184,
                        -0.20477808007206078,
                        -0.21167076589655268,
                        0.46625241936065276,
                        0.10139757572189867,
                        -0.6033511351232193,
                        -0.971955736298068,
                        0.8851389627669592
                    ],
                    [
                        -0.06326518714676133,
                        -0.925784579862542,
                        -0.3305869020391745,
                        -0.2449411437279725,
                        0.447530995708747,
                        -0.2540445239924469,
                        -0.8024007339371515,
                        0.1714351888379808,
                        0.9956286180050979,
                        -0.3276248473276755,
                        -0.8529308235344077,
                        0.30324207847678575,
                        -0.778352728560652,
                        -0.8376414032646857,
                        0.8912469978893658,
                        -0.3246075773723842,
                        -0.3070126409671061,
                        0.7410064234736584,
                        0.14914956856925166,
                        0.15259473557139147
                    ],
                    [
                        -0.4722613114817659,
                        -0.8148902256891832,
                        -0.008385661124531575,
                        0.5696452105019856,
                        -0.051437834389165375,
                        -0.04996935577664717,
                        0.7280214230668931,
                        -0.60950779057992,
                        -0.5813109840036574,
                        -0.6224864222390076,
                        -0.5804668770916612,
                        0.8584605954366584,
                        -0.7025853039933359,
                        0.5847824646799091,
                        -0.8927178952001975,
                        -0.6309322111837632,
                        -0.7525566715051855,
                        0.8612811886596752,
                        -0.6590709242881161,
                        0.7817213357566499
                    ],
                    [
                        -0.6005101148128572,
                        -0.2222799787634101,
                        -0.29369507484803203,
                        -0.7807174164815152,
                        -0.13690998031378454,
                        0.15887374322548634,
                        0.46937938753051434,
                        -0.8754326951659948,
                        -0.3496799021041517,
                        -0.890431173727527,
                        0.9847671595068368,
                        -0.21144906043471323,
                        -0.016127680528294386,
                        -0.7875350179018559,
                        -0.3706960082760009,
                        -0.9877002338985179,
                        0.2844311315398617,
                        -0.6815593046054689,
                        -0.20503749786422176,
                        -0.5104757924675538
                    ],
                    [
                        -0.28648096199982387,
                        0.30100282410081636,
                        -0.3809985736404974,
                        0.39751294393253667,
                        -0.059626101275326304,
                        0.34377839005444066,
                        0.900351191161159,
                        0.19278327294575526,
                        0.34082985495144524,
                        -0.09432053423895082,
                        0.6075062455168259,
                        0.1278230100197757,
                        0.12865087433974084,
                        0.16332732849206733,
                        -1.0555811024650386,
                        -0.7493888634447681,
                        -0.8881993602222568,
                        0.692264535841767,
                        0.7028767738665589,
                        0.8220366548316547
                    ],
                    [
                        0.3562343170721037,
                        -0.16667767854367832,
                        0.7169859409448379,
                        -0.0561561587945294,
                        0.6904134647709161,
                        -0.8660290576339551,
                        -0.24754062413609734,
                        -0.24049880780666297,
                        -0.808060772296069,
                        -0.7418137676566284,
                        -0.6014100182683724,
                        0.5330854523812858,
                        0.056833219843675016,
                        0.8594598201712509,
                        -0.4990910659170862,
                        -0.09825542520792285,
                        -0.5675380484582966,
                        -0.9379886331344022,
                        0.10370259186566207,
                        0.3388932160791911
                    ],
                    [
                        0.5321882530038256,
                        -0.3396031529763912,
                        1.0235346260091416,
                        -0.2980553534117458,
                        0.2759094399691502,
                        -0.23955299656602902,
                        0.7466363388709414,
                        0.2934559861864955,
                        0.5120638620521857,
                        0.7619962008814607,
                        0.17371692639913738,
                        0.2464217332899722,
                        0.00958576042969983,
                        0.803793905437739,
                        -0.7693865029037346,
                        -0.7522395157790449,
                        -0.2380772318738615,
                        0.1161361346414731,
                        0.3321406662494393,
                        0.540947842952927
                    ],
                    [
                        0.39557495659411346,
                        0.2061255820000878,
                        0.677291514155326,
                        0.5117700745649769,
                        -0.7038732192266179,
                        0.4646486253843585,
                        -0.9881162513792044,
                        -0.9453794855315181,
                        -0.7729554848558702,
                        -0.9101517646028509,
                        -0.4634410991885418,
                        -0.6542678875039525,
                        0.3095674286527659,
                        -0.15204492581549586,
                        -0.22966783517677714,
                        -0.9945735922902512,
                        -0.3451941306632121,
                        0.6044545639992008,
                        -0.19831436220626797,
                        0.4435152303695078
                    ],
                    [
                        -0.7030895633311183,
                        -0.3196622044692018,
                        -0.7803116870764527,
                        0.8293713621930798,
                        0.7157492851613818,
                        0.4447860061917226,
                        1.0634033437013302,
                        0.0009867416485622726,
                        0.861009685964814,
                        0.14205546036542338,
                        0.6296918558938234,
                        0.8492992282906054,
                        0.12646603745493712,
                        0.4111306409979862,
                        0.1669398754914634,
                        0.20528550642637255,
                        -0.8612478296018085,
                        0.7125523799048015,
                        0.7318988873323442,
                        -0.7355708259450153
                    ],
                    [
                        0.2931026053493644,
                        0.27769878523547886,
                        -0.5559419631233806,
                        0.2829026929728098,
                        -0.6128257713576066,
                        0.5145756066206466,
                        -0.711144506098565,
                        -0.9189174152504724,
                        -0.49270515776663837,
                        -0.5005904558875398,
                        0.6856035297959993,
                        0.8496667636573151,
                        0.1567664354523312,
                        -0.16182392844215215,
                        0.07074919895083642,
                        -0.5732125469427707,
                        0.3920451215003171,
                        0.21458977290237877,
                        -0.09632287387833924,
                        0.5436873187941131
                    ],
                    [
                        -0.6376195331516106,
                        -0.7736364022632014,
                        -0.9068824321890734,
                        0.3004784608482256,
                        0.35948616844887615,
                        -0.5372934695356781,
                        -0.8235847392979183,
                        -0.36547741827314356,
                        -0.9335356703789073,
                        -0.8279913127201802,
                        0.3435143819849007,
                        -0.05740798965452032,
                        0.8340028532976609,
                        -0.7557691187277252,
                        -0.8462923626715533,
                        0.18168491159209074,
                        0.8853120177916107,
                        -0.06859280013017743,
                        0.45658401746982874,
                        0.5040906071850035
                    ],
                    [
                        -0.9550515015849763,
                        -0.5328137354017177,
                        0.13648824527192396,
                        0.7882362890580596,
                        0.9709200223828626,
                        0.14117970911698619,
                        0.45349998413417514,
                        -0.6881869205458266,
                        0.520418214261677,
                        0.12536262585957103,
                        -0.8962832706056991,
                        -0.48064470047498314,
                        0.3720719522566329,
                        0.668659619464999,
                        -0.4671747296258608,
                        0.10928761075260324,
                        -0.4461608401571,
                        -0.2003320894043412,
                        -0.5194602237882737,
                        -0.8963779469186657
                    ],
                    [
                        0.4635371441637153,
                        0.9130427140215093,
                        0.7781376712164245,
                        -1.0157160915894878,
                        -0.5102681205337966,
                        0.9444779894899351,
                        0.9498353503849044,
                        0.7593508041008872,
                        0.26973664590376445,
                        -1.1361940090047693,
                        0.23817544425008988,
                        -0.4515653177401173,
                        0.5637499953173633,
                        0.1426945697607243,
                        -0.28187144633944916,
                        0.8026202463261574,
                        -0.5413863033228196,
                        -0.5478198916501372,
                        0.536925161200122,
                        0.12082581429761796
                    ],
                    [
                        0.8328971220158625,
                        -0.9525188359432681,
                        0.6006919748940585,
                        -0.8676231628794842,
                        -0.7001497175999065,
                        -0.4040479297602515,
                        0.6826908396500418,
                        0.12663085294606516,
                        -0.19979663799604674,
                        0.05877165897586001,
                        -0.2524666028807496,
                        0.480287014941424,
                        0.2581529968702169,
                        -0.11864388381497237,
                        -0.8799461789192131,
                        -0.42038788416851647,
                        0.7460420235414162,
                        -0.7130794373310716,
                        0.9648846390555343,
                        0.5583346818311149
                    ],
                    [
                        0.8733497419925875,
                        -0.252522837244332,
                        0.7295167470305843,
                        0.4617341508960575,
                        0.36839818181571604,
                        -0.21621584981765982,
                        -0.8800026096708213,
                        -0.8291973076401067,
                        -0.696389512192434,
                        -0.07598052451215387,
                        0.029636688856124638,
                        -0.5128884627045451,
                        0.06773965614896316,
                        -0.8026532883575486,
                        -0.24369397512985713,
                        0.7503738885602338,
                        -0.3218403365197229,
                        0.7715333043306305,
                        0.21376769315102329,
                        0.88408643326482
                    ],
                    [
                        -0.9107888136891058,
                        -0.0702734224863315,
                        0.5077056013329561,
                        -0.7849807013940828,
                        0.6374493923362388,
                        0.9032811762844405,
                        -0.24203428501779412,
                        -0.7969111995432772,
                        0.2606822192547612,
                        -0.14085810417738515,
                        0.17627087218018134,
                        -0.34282779208544145,
                        -0.2086146054495268,
                        0.69560164287505,
                        -0.4912242512309748,
                        -0.46059208074123636,
                        0.6444734278391168,
                        -0.8678635654096731,
                        -0.8930900932107905,
                        0.5172668040541903
                    ],
                    [
                        0.2618995759316194,
                        0.7889834941953799,
                        -0.08858121096100557,
                        -0.7147757024836661,
                        0.8839116547159109,
                        -0.07242540200621894,
                        0.09317229590818354,
                        -0.615678227184302,
                        -0.5023674576889787,
                        0.16832533783793568,
                        -0.15528483317365782,
                        -0.38583678290287393,
                        0.2913015240518013,
                        0.28066746158254346,
                        -0.7653976142632379,
                        0.8633722661915597,
                        -0.02528803434606744,
                        -0.5357931049470128,
                        0.5979400330829177,
                        -0.29107064772916935
                    ],
                    [
                        0.3118784824973886,
                        -0.7087348492247372,
                        -0.4864692120239642,
                        0.6293305318071638,
                        0.19814268101703458,
                        -0.5500715560643399,
                        0.2675282823253211,
                        0.43417868630917655,
                        0.9083445122074627,
                        0.26750108861690114,
                        -0.49851778659624196,
                        0.23699390411948762,
                        -0.021098570855588417,
                        -0.6744267255472325,
                        -0.4836993988973388,
                        -0.18339645549066375,
                        0.9352507879018572,
                        0.7544800454265921,
                        0.843196651174045,
                        0.24755707342078878
                    ],
                    [
                        0.9767922851571209,
                        -0.8442105539265992,
                        0.2376901585735337,
                        -0.951716660545106,
                        0.9316594696335686,
                        -0.4478717398755101,
                        -1.1257250971719603,
                        0.7356168871289207,
                        0.7800977767934,
                        0.00015863806199632735,
                        -0.9417977388337126,
                        0.27138029953136256,
                        0.5643381860957716,
                        0.651260220403485,
                        -0.09414993624872503,
                        0.636591146961897,
                        -0.11583375865023182,
                        0.08567464960043517,
                        0.5593638566350911,
                        -0.9360138911623072
                    ]
                ],
                [
                    [
                        -0.11089585295108545,
                        0.5910521745231709,
                        -0.3571455229311622,
                        0.47475094703654985,
                        -0.16171313739770282,
                        -0.036379788571616396,
                        -0.38688789204018215,
                        0.6555882610166861,
                        -0.28862737457857235,
                        -0.4571366076687622
                    ],
                    [
                        -0.4932040489596081,
                        -0.4917184657612361,
                        -0.1481283862819624,
                        0.3488526383480577,
                        0.21629274094971773,
                        0.6105404064447808,
                        0.35406336856209064,
                        -0.4349861983083594,
                        -0.5845266344873009,
                        0.05423305858181138
                    ],
                    [
                        -0.1824314434778096,
                        -0.8817180646590728,
                        0.2056537041096054,
                        0.7096191817908595,
                        0.2985496689585869,
                        0.6300650506808949,
                        0.3841749078646779,
                        -0.22790654715104924,
                        0.5765038047924094,
                        0.8158650884753198
                    ],
                    [
                        0.8950886716068529,
                        0.43580612934658913,
                        -0.6309303598424629,
                        0.12119882724404296,
                        -0.5053770961912221,
                        -0.1992438927899789,
                        0.969591317952726,
                        1.00516071692587,
                        -0.1263715057239816,
                        0.24057298416919992
                    ],
                    [
                        -0.09474682298454218,
                        -0.8905874042252302,
                        -0.39471576475890435,
                        -0.7307215351355723,
                        -0.5119567920910371,
                        0.5235693222740243,
                        -0.7113258527211674,
                        -0.4140303547897579,
                        0.8724668754167058,
                        0.6555758039195518
                    ],
                    [
                        0.7738921751608028,
                        0.5328702624362154,
                        -0.15035688699559735,
                        -0.1654112625400801,
                        -0.3444989900107378,
                        -0.11925938531651537,
                        0.9562541082993568,
                        -0.34614944701155376,
                        0.15619558034217884,
                        0.7196977428247684
                    ],
                    [
                        0.8749951940582049,
                        -0.7950794500891811,
                        -0.3365210207228593,
                        0.9679037217288646,
                        0.021393442429330056,
                        0.2504088196462557,
                        0.332515375369954,
                        0.32264045661272184,
                        -0.4292575752177976,
                        -0.6826933495176095
                    ],
                    [
                        0.3449260762277371,
                        -0.2690107802026436,
                        -0.5502729986951962,
                        -0.24013872551159565,
                        0.03166464889124487,
                        0.6797914962381457,
                        0.04873370490774964,
                        0.08455098404363852,
                        -0.5388698282935678,
                        0.1786162785307663
                    ],
                    [
                        -0.5561074042818934,
                        -0.969468270968259,
                        0.1640427599517571,
                        -0.01258250901529201,
                        0.8998822702121863,
                        0.9294422751432576,
                        -0.6653288192567447,
                        0.7736035830492086,
                        -0.7737276971633144,
                        0.23699655960697893
                    ],
                    [
                        0.4898704320318956,
                        -0.5875994742750862,
                        0.2986086817695135,
                        0.7428526373303755,
                        -0.36994433598423776,
                        -0.5158173279137637,
                        -0.4017782333857287,
                        0.013522387598584013,
                        0.5698241513097911,
                        0.5083385316963719
                    ],
                    [
                        -0.644063944162083,
                        0.3395672024234371,
                        0.44419486597312985,
                        -0.8078086715559543,
                        0.8547232996314162,
                        -0.6042071211836568,
                        0.763168102711325,
                        0.3921027380307558,
                        -0.6222795084894908,
                        -0.3671349382964408
                    ],
                    [
                        -0.08085203834777976,
                        -0.5933829590518542,
                        0.6210074679764086,
                        0.6507357427083551,
                        -0.14659816340851073,
                        0.21662932608630237,
                        0.1312524149414931,
                        0.47422170643372996,
                        0.14970364983868256,
                        0.6744516052800977
                    ],
                    [
                        -0.423298310999942,
                        -0.3491007438506242,
                        -0.7022340013896651,
                        -0.22483844090329663,
                        -1.0623978822920426,
                        -0.31890106206741836,
                        -0.19379658825580104,
                        0.8484949786082386,
                        -0.44261072548185076,
                        0.5084044616907193
                    ],
                    [
                        0.7715123758347592,
                        -0.221536623679937,
                        -0.026763531001642304,
                        0.9103258650783748,
                        0.8367193259857324,
                        0.25196029859671554,
                        -0.28270467883438377,
                        0.05390617060911863,
                        -0.6045667631756741,
                        0.9239289510140494
                    ],
                    [
                        -0.7238805478057286,
                        -0.38403862164540037,
                        -0.2484938148608946,
                        0.5680685090702899,
                        -0.04193015777827164,
                        -0.38416582617918027,
                        1.1431860775497282,
                        -0.9066547253416488,
                        0.3889480115051279,
                        -0.17675019039838769
                    ],
                    [
                        -0.1173301302926264,
                        -0.5213652240128656,
                        -0.16111652664174636,
                        -0.7397022686644654,
                        0.8116223143310313,
                        0.0005344138730951076,
                        -0.10621097516267852,
                        0.34210094667685387,
                        0.04010652382824827,
                        -0.15053508181275466
                    ],
                    [
                        0.7670004729190458,
                        0.6556286348205476,
                        0.989169938785015,
                        0.8619070321557818,
                        -0.8346956572444748,
                        -0.15466879247528476,
                        0.6865465741766199,
                        0.8512662594602235,
                        -0.061044231943758125,
                        -0.8131893704838318
                    ],
                    [
                        -0.550227451035358,
                        -0.7112471041755435,
                        -0.27610362137276623,
                        0.2859747451833398,
                        -0.3267540669559599,
                        0.03056074963821659,
                        -0.39651165365203056,
                        -0.6002009956339538,
                        0.9108736134090956,
                        -0.47115218430858474
                    ],
                    [
                        -0.4563602072118431,
                        0.7266400609875037,
                        -0.8234663409608614,
                        -0.30890552797615833,
                        -0.5849127978091195,
                        -0.9235586165888012,
                        0.5227396507408771,
                        -0.08377939751183494,
                        -0.987407476300442,
                        -0.9236323513247195
                    ],
                    [
                        0.8265640112701111,
                        0.9798383924080658,
                        -0.6386649597250338,
                        -0.49637924796138866,
                        -0.21256154398542648,
                        -0.8802188033256093,
                        0.3951044218294686,
                        -0.07610486040063263,
                        -0.9404537018264068,
                        -0.41506470203536683
                    ]
                ],
                [
                    [
                        -0.664563648743036,
                        -0.0579636840516357,
                        0.8614054499385535,
                        0.36056462513594334
                    ],
                    [
                        -0.4698352359822972,
                        0.7315512329244102,
                        0.08628075405570423,
                        -0.7016528732188665
                    ],
                    [
                        0.3211246013838489,
                        0.8536921942796551,
                        -0.741047787371334,
                        -0.3867085140135784
                    ],
                    [
                        -0.26180297324404656,
                        -0.09921953684201346,
                        0.5808868071451152,
                        0.5056125776458709
                    ],
                    [
                        -0.781658284518633,
                        -0.42355936620014095,
                        0.569463443672316,
                        0.9825260292287133
                    ],
                    [
                        -0.22297874265321793,
                        0.5624401754578938,
                        -0.37573322520578745,
                        -0.2902590879197784
                    ],
                    [
                        0.4180939902431483,
                        -0.19740153923296225,
                        0.022866211978385342,
                        -0.29662611062406996
                    ],
                    [
                        -0.9014454830577463,
                        0.22537333546803895,
                        0.18256683472316015,
                        -0.7817874138801784
                    ],
                    [
                        -0.5189418308400044,
                        0.004118973777872459,
                        0.060431088837216373,
                        0.7507744215484591
                    ],
                    [
                        -0.32926893591910944,
                        0.9862300544692055,
                        -1.1451173342211745,
                        0.7662852523050869
                    ]
                ]
            ]
}