{
    "network_weights": [
                [
                    [
                        -0.4246143256638548,
                        -0.454505248868008,
                        -1.069567285120492,
                        -0.38334585698938595,
                        -0.0053358024069209975,
                        -0.2177170057769593,
                        0.2518145219757313,
                        0.44788990646986426,
                        -0.3408342712993395,
                        -0.048745418253835826,
                        0.7884743478122953,
                        -0.534391298176748,
                        0.8058162551993757,
                        -0.0878557666621411,
                        -0.23312023006836835,
                        -0.31950958246696004,
                        0.40222139931383094,
                        -0.848190614533852,
                        0.32042095448806607,
                        -0.06500891888688298
                    ],
                    [
                        -0.6932259924100006,
                        0.22350761242477057,
                        0.49768107120352467,
                        -0.03196395418050069,
                        0.11620839173564385,
                        0.5582070117908613,
                        0.7236950452372364,
                        -0.5762700619340986,
                        -0.21423884506329616,
                        -0.9906983585625613,
                        0.42652261572711536,
                        0.3556971408767503,
                        -0.9012213371326825,
                        0.19748189121945509,
                        0.09600041862666699,
                        -0.7348312887519376,
                        -0.19766222205313067,
                        0.7732049345573693,
                        -0.0007468364405834871,
                        -0.17522102862476907
                    ],
                    [
                        -0.2911021682770374,
                        0.9722254672176867,
                        0.09943253172221955,
                        -0.4900592592920088,
                        0.37321570396765197,
                        0.8997236038339862,
                        -0.8315780404555877,
                        -0.6662078273639914,
                        0.7679509316316175,
                        0.49800210222972785,
                        0.3859854924130155,
                        0.09089155225292345,
                        0.8245588045685945,
                        0.3394950487344579,
                        -0.2528091913792976,
                        -0.7761146805148944,
                        -0.1717477604025651,
                        -0.5475913956483486,
                        0.09878096438399023,
                        -0.6584993158241099
                    ],
                    [
                        0.23162767309547763,
                        0.99926243560353,
                        0.35925432982025374,
                        -0.5877230798044712,
                        -0.40146527559437417,
                        0.5907291266266494,
                        -0.406877089661564,
                        -0.1378143511967732,
                        0.8571815276391516,
                        -0.9729495457320758,
                        0.36495154108337896,
                        0.5152212040586672,
                        -0.5203067089070184,
                        -0.20477808007206078,
                        -0.27542549686972656,
                        0.46625241936065276,
                        -0.18364775827864105,
                        -0.5639990039018754,
                        -0.971955736298068,
                        0.8851389627669592
                    ],
                    [
                        -0.06326518714676133,
                        -0.9040989201957145,
                        -0.3750376163545082,
                        -0.2449411437279725,
                        0.29723078197206254,
                        -0.34666797668256116,
                        -0.8024007339371515,
                        0.1714351888379808,
                        0.9956286180050979,
                        -0.3276248473276755,
                        -0.6441994223680925,
                        0.30324207847678575,
                        -0.6890806871196777,
                        -0.7590455938737871,
                        0.8912469978893658,
                        -0.3246075773723842,
                        -0.3070126409671061,
                        0.806387536353508,
                        0.14914956856925166,
                        0.33573273870646414
                    ],
                    [
                        -0.49599571841292805,
                        -0.8148902256891832,
                        -0.031169849188622534,
                        0.5796606069211775,
                        -0.05145063394116746,
                        0.1704766409432899,
                        0.8279397257822887,
                        -0.3990183073219294,
                        -0.6388069308236456,
                        -0.6654426487540642,
                        -0.5804668770916612,
                        0.7523246797091994,
                        -0.7025853039933359,
                        0.6922986344845248,
                        0.024452623781195504,
                        0.4643109322292507,
                        0.08196058640068671,
                        0.24349470217581204,
                        0.40824954063410485,
                        0.8175157628477061
                    ],
                    [
                        0.4864461487179588,
                        -0.4833037856113974,
                        0.9884765664117361,
                        -0.05209046973337017,
                        -0.8339093847892858,
                        -0.1812271614203147,
                        0.39033318029348185,
                        -0.2661397436381904,
                        -0.7751338783768733,
                        0.6037991178381398,
                        0.20509543974523314,
                        -0.8211861872441752,
                        -0.30858408334354004,
                        -0.950559508492403,
                        0.5226710803112793,
                        -0.9054859712300498,
                        0.3883660478562809,
                        -0.3052249954955868,
                        0.5027366794345607,
                        -0.7054336104939863
                    ],
                    [
                        -0.683449006720149,
                        0.9690824305867816,
                        0.3399356497950587,
                        0.1304379235106108,
                        -0.18133954369470962,
                        0.18434819066832245,
                        -0.2396900167944458,
                        -0.7858250583600896,
                        0.5901240652471837,
                        -0.728798792642436,
                        0.5541632442745357,
                        -0.9248599743401036,
                        0.9420052576612864,
                        -0.24714722430465802,
                        0.3489391516210252,
                        -0.23459901150035778,
                        0.7308291491127705,
                        0.01576190405686595,
                        -0.2689722340931763,
                        -0.18730547669844597
                    ],
                    [
                        0.3875554837217534,
                        0.5335499059639122,
                        -0.484823741339508,
                        0.7423909579759465,
                        -0.9891684856586884,
                        0.1989294386978171,
                        -0.2238936509934777,
                        -0.855222459343471,
                        0.26774505671934445,
                        0.9797397097744134,
                        0.16882503510242608,
                        0.21675836167540696,
                        -0.6734747352942704,
                        0.67514406293713,
                        -0.30618675045522825,
                        -0.10046194386922647,
                        -0.8055232239209666,
                        -0.21866152221389418,
                        -0.6894390223306641,
                        0.6794259860441152
                    ],
                    [
                        0.06133248904968269,
                        0.7617754661952738,
                        0.8272485889032285,
                        0.8398888771295869,
                        -0.9119120745744209,
                        0.48645011656273307,
                        -0.36929195203029397,
                        0.8196932315341727,
                        0.817658288504406,
                        -0.24946420149728388,
                        0.2306943382160409,
                        -0.7832621623234508,
                        0.8684557343488573,
                        -0.7917398445051187,
                        0.4701491051112898,
                        0.5751300608620104,
                        0.8215493162453411,
                        0.9852466722623361,
                        -0.9131106668044183,
                        -0.3030913536064552
                    ],
                    [
                        0.42035021686117013,
                        -0.8179168097726417,
                        -0.06185708807912741,
                        -0.6603999778566272,
                        0.8733748141251083,
                        -0.4141356360017332,
                        -0.8689375355803746,
                        -0.040279157505078045,
                        -0.057482566564613854,
                        -0.3954755688792071,
                        -0.4634410991885418,
                        -0.6542678875039525,
                        0.32591421341777416,
                        -0.15204492581549586,
                        -0.22966783517677714,
                        -0.9945735922902512,
                        -0.6487336924250232,
                        0.6044545639992008,
                        -0.17270101073081195,
                        0.4435152303695078
                    ],
                    [
                        -0.7030895633311183,
                        -0.3598025267306837,
                        -0.6996701051707149,
                        0.514267653785925,
                        0.7157492851613818,
                        0.4447860061917226,
                        0.9625439347127769,
                        -0.11915079544712348,
                        0.8165926794006766,
                        -0.10375359136414361,
                        0.6296918558938234,
                        0.8448069305703072,
                        0.12646603745493712,
                        0.4384795521126892,
                        -0.01296178324577918,
                        0.20528550642637255,
                        -0.8349962965791955,
                        0.7002804801470162,
                        0.678140237953722,
                        -0.8881894440834581
                    ],
                    [
                        0.25748850007621205,
                        0.13280602818717294,
                        -0.5829384197610716,
                        0.3269963318243342,
                        -0.6128257713576066,
                        0.41872120436638727,
                        -0.711144506098565,
                        -0.7305586170094812,
                        -0.49270515776663837,
                        -0.36478469408262537,
                        0.697022880428966,
                        0.7436957107291322,
                        0.15812852830726687,
                        0.0018747888210152545,
                        0.07074919895083642,
                        -0.5150223214742066,
                        0.33564486197195387,
                        0.07531013848391543,
                        0.11233394638735608,
                        0.6161505961602836
                    ],
                    [
                        -0.5373498860563151,
                        -0.6822842573687464,
                        -0.9068824321890734,
                        0.3004784608482256,
                        0.4915446134970234,
                        -0.5460146676500295,
                        -0.8235847392979183,
                        -0.39154062499666265,
                        -1.0846931819737293,
                        -0.5713484043527789,
                        0.3435143819849007,
                        -0.05740798965452032,
                        0.8340028532976609,
                        -0.8113712600720305,
                        -0.7184605798940633,
                        0.022565573640065117,
                        0.8853120177916107,
                        -0.06859280013017743,
                        0.4127205748394065,
                        0.5040906071850035
                    ],
                    [
                        -0.9929608710904185,
                        -0.5328137354017177,
                        0.30181569323319474,
                        0.9039364716182383,
                        0.867498804664746,
                        0.2232553786298412,
                        0.4310924194051573,
                        -0.8759642516832407,
                        0.4438868480879308,
                        0.12536262585957103,
                        -0.9960919270315269,
                        -0.44924182494745635,
                        0.3720719522566329,
                        0.668659619464999,
                        -0.4249330699927989,
                        0.007126988514952519,
                        -0.4461608401571,
                        -0.22719036576246787,
                        -0.394127288272491,
                        -0.8553807918252958
                    ],
                    [
                        0.5598287136195188,
                        0.8597235654844173,
                        0.7781376712164245,
                        -0.564658511983364,
                        -0.2518319589351883,
                        0.9026725596635535,
                        0.9498353503849044,
                        0.7593508041008872,
                        0.1212404300569074,
                        -0.9941553364646243,
                        0.402882139313655,
                        -0.4515653177401173,
                        0.5759627504191436,
                        0.7316179100629261,
                        -0.3054086247802086,
                        0.9966860667000683,
                        -0.5181398805152047,
                        -0.662905352129733,
                        0.6213891530010909,
                        0.12082581429761796
                    ],
                    [
                        0.8328971220158625,
                        -1.1374693719522149,
                        0.6006919748940585,
                        -0.8676231628794842,
                        -0.7001497175999065,
                        -0.4040479297602515,
                        0.6594720809352727,
                        -0.15785226310972922,
                        -0.19979663799604674,
                        0.05877165897586001,
                        -0.25333791551208684,
                        0.5107208120177924,
                        0.09288009747237112,
                        -0.09845636894474272,
                        -0.8536932093812898,
                        -0.3543548227303327,
                        0.7460420235414162,
                        -0.595411930355344,
                        1.0423660583427816,
                        0.587547229441409
                    ],
                    [
                        0.8733497419925875,
                        -0.252522837244332,
                        0.7261083646027864,
                        0.46253282694361003,
                        0.36839818181571604,
                        -0.0447676843583209,
                        -0.8800026096708213,
                        -0.8098971736839998,
                        -0.696389512192434,
                        -0.07598052451215387,
                        0.2022274308570149,
                        -0.46329225081412195,
                        -0.03435163786539949,
                        -1.0479662603170399,
                        -0.24096191404947898,
                        0.7503738885602338,
                        -0.2495193586108886,
                        0.9004780851910453,
                        0.25154746335353945,
                        0.88408643326482
                    ],
                    [
                        -0.9107888136891058,
                        -0.0702734224863315,
                        0.712991382691318,
                        -0.7849807013940828,
                        0.6374493923362388,
                        0.9445487066045093,
                        -0.24203428501779412,
                        -0.8343529915239032,
                        0.13954052554408775,
                        -0.050906360779608834,
                        0.2467104706168512,
                        -0.49400738372705943,
                        -0.2086146054495268,
                        0.7450457946710224,
                        -0.28299411315642375,
                        -0.30405999785246174,
                        0.3352991064350858,
                        -0.8678635654096731,
                        -0.8517999971862396,
                        0.41585778431412346
                    ],
                    [
                        0.130521746499138,
                        0.8349050408358839,
                        -0.08858121096100557,
                        -0.7460040075773651,
                        0.8839116547159109,
                        -0.07242540200621894,
                        0.09317229590818354,
                        -0.5862893728857246,
                        -0.5023674576889787,
                        0.1664934494387986,
                        -0.15528483317365782,
                        -0.38583678290287393,
                        0.1772258502933245,
                        0.2850855814367277,
                        -0.7653976142632379,
                        0.8756994389619991,
                        -0.11770858965077993,
                        -0.5833183771000471,
                        0.6084508801358732,
                        -0.29107064772916935
                    ],
                    [
                        0.3184179541678865,
                        -0.7172965194003926,
                        -0.4864692120239642,
                        0.6306294858341022,
                        0.19814268101703458,
                        -0.6072349808681426,
                        0.5490862146360831,
                        0.5924714539992164,
                        0.6200641922984453,
                        0.26750108861690114,
                        -0.2808987293821652,
                        0.3000737659766892,
                        -0.021098570855588417,
                        -0.8661477134321058,
                        -0.4850173119971339,
                        -0.13858645110198511,
                        0.8796259207152409,
                        0.7179407073273701,
                        0.843196651174045,
                        0.3588496542670996
                    ],
                    [
                        0.9767922851571209,
                        -0.9110321881073935,
                        0.2672430507615129,
                        -1.1083814991776877,
                        1.0388736140520327,
                        -0.46485202686057836,
                        -0.9444044933244784,
                        0.858097283523483,
                        0.845452586887197,
                        -0.11350370290976006,
                        -0.7817258141411423,
                        0.27138029953136256,
                        0.368193427063009,
                        0.6490386150215287,
                        -0.24136872155256514,
                        0.636591146961897,
                        -0.051598215022315375,
                        0.1387553797761058,
                        0.5391552803394896,
                        -0.9493178445837362
                    ]
                ],
                [
                    [
                        -0.12777323323541268,
                        0.6328719602039261,
                        -0.23119436741183388,
                        0.41291288063260345,
                        -0.21570277340112853,
                        -0.036379788571616396,
                        -0.38688789204018215,
                        0.5426031286858072,
                        -0.1925420399657377,
                        -0.6558239273811216
                    ],
                    [
                        -0.3876047781753753,
                        -0.4917184657612361,
                        -0.3211290799145088,
                        0.3488526383480577,
                        0.21629274094971773,
                        0.5768504409769001,
                        0.35406336856209064,
                        -0.5784368315062458,
                        -0.5590177482291254,
                        0.05423305858181138
                    ],
                    [
                        -0.29742550032183546,
                        -0.9548484281570115,
                        0.2056537041096054,
                        0.7096191817908595,
                        0.12851591799515916,
                        0.6300650506808949,
                        0.5380950487570711,
                        -0.10033128533238944,
                        0.5765038047924094,
                        0.9138145777520424
                    ],
                    [
                        1.0735458462796577,
                        0.43580612934658913,
                        -0.3275956479678442,
                        0.3490457762492949,
                        -0.5053770961912221,
                        -0.14777258199969553,
                        0.969591317952726,
                        0.9685306520608383,
                        -0.1263715057239816,
                        0.25277667431767203
                    ],
                    [
                        -0.3377654465531805,
                        -0.8905874042252302,
                        -0.3573665389881624,
                        -0.7307215351355723,
                        -0.558509897541465,
                        0.5151083380254087,
                        -0.7113258527211674,
                        -0.45610686780813464,
                        0.8724668754167058,
                        0.7137713649613209
                    ],
                    [
                        0.7738921751608028,
                        0.699321375538652,
                        -0.15035688699559735,
                        -0.1654112625400801,
                        -0.3444989900107378,
                        -0.061188164514458326,
                        1.1842538826580356,
                        -0.36525813909292953,
                        0.14243889877604843,
                        0.8734994416834637
                    ],
                    [
                        0.893311527465099,
                        -0.7013248921310306,
                        -0.3365210207228593,
                        0.9399871225216263,
                        0.13195629084695998,
                        0.2934451883908402,
                        0.1927290223357696,
                        0.2499105990305368,
                        -0.4292575752177976,
                        -0.7997594660185695
                    ],
                    [
                        0.3449260762277371,
                        -0.4476361886297922,
                        -0.5502729986951962,
                        -0.24013872551159565,
                        0.03166464889124487,
                        0.6797914962381457,
                        0.04873370490774964,
                        -0.01488849941347549,
                        -0.49628387142774255,
                        0.3048433958518899
                    ],
                    [
                        -0.5561074042818934,
                        -0.6656672126676613,
                        0.6564535053859828,
                        0.11154700291449547,
                        0.8998822702121863,
                        0.9294422751432576,
                        -0.4961169804994483,
                        0.6716941307823106,
                        -0.8821487442171084,
                        0.38440388907023193
                    ],
                    [
                        0.4466916109490606,
                        -0.4690921096759,
                        0.18498900601689056,
                        0.5323274179840111,
                        -0.3331469789012972,
                        -0.5158173279137637,
                        -0.4705942407365633,
                        0.09442895110527716,
                        0.4480618915917521,
                        0.48188241695262524
                    ],
                    [
                        -0.644063944162083,
                        0.3395672024234371,
                        0.44419486597312985,
                        -0.8072650844754765,
                        0.8993610251650703,
                        -0.6042071211836568,
                        0.836107913670555,
                        0.3921027380307558,
                        -0.6222795084894908,
                        -0.2957475291335119
                    ],
                    [
                        -0.056498731538559215,
                        -0.8696464342414262,
                        0.6210074679764086,
                        0.687845354697707,
                        -0.17836435854825425,
                        0.21662932608630237,
                        0.1312524149414931,
                        0.4072979953103484,
                        0.04629835476007829,
                        0.6744516052800977
                    ],
                    [
                        -0.423298310999942,
                        -0.03361463340681187,
                        -0.7022340013896651,
                        -0.19658299669224583,
                        -0.900360390598806,
                        -0.3615909541741247,
                        -0.19379658825580104,
                        0.8174427490512335,
                        -0.41999694067203563,
                        0.5084044616907193
                    ],
                    [
                        0.5915135143398671,
                        -0.29710472398759946,
                        -0.026763531001642304,
                        0.9103258650783748,
                        0.8163096849693416,
                        0.25196029859671554,
                        -0.22512098363167243,
                        0.15629744951794772,
                        -0.6045667631756741,
                        0.9239289510140494
                    ],
                    [
                        -0.4753830289446516,
                        -0.38403862164540037,
                        -0.2484938148608946,
                        0.6887391716319012,
                        -0.04613061010618988,
                        -0.3842467804419072,
                        0.9585100423911503,
                        -0.7805218056152139,
                        0.4237755531477969,
                        -0.17675019039838769
                    ],
                    [
                        -0.1173301302926264,
                        -0.49659786368726566,
                        -0.08997279499550134,
                        -0.6309031761416506,
                        0.935738462857099,
                        0.3708880429501502,
                        -0.10621097516267852,
                        0.41964214434974423,
                        -0.03192091699545821,
                        -0.15053508181275466
                    ],
                    [
                        0.776128396744262,
                        0.7650724045873141,
                        0.8844228795865424,
                        0.8295585293281145,
                        -0.8430690426231695,
                        -0.15466879247528476,
                        0.6865465741766199,
                        0.9474542154509151,
                        -0.021012321555205382,
                        -0.7264853909883923
                    ],
                    [
                        -0.3686578738017461,
                        -0.6409604573434775,
                        -0.16159125334425717,
                        0.24591774398018973,
                        -0.3267540669559599,
                        -0.05737699228558624,
                        -0.27407067241076843,
                        -0.6002009956339538,
                        0.9108736134090956,
                        -0.4552759718192212
                    ],
                    [
                        -0.2709195113576449,
                        0.7441638631341927,
                        -0.7480489176829038,
                        -0.23132960136207575,
                        -0.7312084421133853,
                        -0.9065876682049172,
                        0.4056685474255542,
                        0.3231951443255454,
                        -0.9980068152277124,
                        -0.9236323513247195
                    ],
                    [
                        0.8265640112701111,
                        0.9798383924080658,
                        -0.6386649597250338,
                        -0.49637924796138866,
                        -0.21256154398542648,
                        -0.8802188033256093,
                        0.3951044218294686,
                        0.3702776646729384,
                        -0.9404537018264068,
                        -0.41506470203536683
                    ]
                ],
                [
                    [
                        -0.664563648743036,
                        -0.1355610849517747,
                        0.8614054499385535,
                        0.36056462513594334
                    ],
                    [
                        -0.49596791359575587,
                        0.7092096591564869,
                        0.08628075405570423,
                        -0.7625364241777486
                    ],
                    [
                        0.3211246013838489,
                        0.8536921942796551,
                        -0.7723158059611555,
                        -0.33976517091264413
                    ],
                    [
                        -0.3407773189196588,
                        -0.03213627736046934,
                        0.4242576273581825,
                        0.7075893890822607
                    ],
                    [
                        -0.6279137812515154,
                        -0.244367180153619,
                        0.569463443672316,
                        0.904677886392361
                    ],
                    [
                        -0.24364206415760625,
                        0.6722243335853076,
                        -0.2866007530404445,
                        -0.28713430304052706
                    ],
                    [
                        0.3207806545991907,
                        -0.47791478390775,
                        0.022866211978385342,
                        -0.26026525658478
                    ],
                    [
                        -0.9014454830577463,
                        0.22537333546803895,
                        0.18256683472316015,
                        -0.7817874138801784
                    ],
                    [
                        -0.450754802812677,
                        -0.12683876696960933,
                        -0.04850230488327267,
                        0.7507744215484591
                    ],
                    [
                        -0.32926893591910944,
                        0.9907649403021678,
                        -1.010487468743974,
                        0.7662852523050869
                    ]
                ]
            ]
}