{
    "network_weights": [
                [
                    [
                        -0.44377806735893466,
                        -0.5254650956155213,
                        0.9586365706770739,
                        0.046609787442112305,
                        0.38344078279395605,
                        -0.6023666765927937,
                        0.6550477476487189,
                        -0.3031470467359429,
                        0.3984543524241535,
                        0.9255040303094769,
                        -0.8952931070258707,
                        -0.2566692171150555,
                        -0.41517218774934705,
                        -0.13244623072326256,
                        -0.9232212462447491,
                        0.22532354460654336,
                        -0.09283448486615069,
                        0.5991317602348754,
                        0.3641558405542613,
                        0.3530255554075772
                    ],
                    [
                        0.26085216050900006,
                        -0.26386447067366925,
                        -0.3401590326706905,
                        0.45588762848432407,
                        0.15518942545866182,
                        0.22227181148162378,
                        -0.993866810270523,
                        -0.2973626137273988,
                        -0.8182008474713209,
                        -0.8483230382300402,
                        0.4834985349338259,
                        0.3499990053234219,
                        -0.9012213371326825,
                        0.24841772630475156,
                        0.09600041862666699,
                        -0.7570078686522718,
                        -0.11060779867371351,
                        0.917275520899001,
                        0.13875344949722557,
                        -0.1966287518417204
                    ],
                    [
                        -0.2911021682770374,
                        0.9722254672176867,
                        0.09943253172221955,
                        -0.39083897225956976,
                        0.2582198791480821,
                        0.8135026480603235,
                        -0.7635162413007468,
                        -0.6335105891902,
                        0.7679509316316175,
                        0.49800210222972785,
                        0.4849115788748992,
                        0.09089155225292345,
                        0.8245588045685945,
                        0.3394950487344579,
                        -0.2528091913792976,
                        -0.7761146805148944,
                        -0.1717477604025651,
                        -0.5475913956483486,
                        -0.04710549452651015,
                        -0.6652266535866751
                    ],
                    [
                        0.32191721588680333,
                        0.9881999757857279,
                        0.35925432982025374,
                        -0.5877230798044712,
                        -0.3649120009682252,
                        0.5740896417837311,
                        -0.3731150577731015,
                        -0.34986422687428265,
                        0.8894276046492697,
                        -0.9729495457320758,
                        0.29355530218930526,
                        0.5152212040586672,
                        -0.5203067089070184,
                        -0.059278079585004,
                        -0.26354745087491227,
                        0.46625241936065276,
                        0.10014906262353152,
                        -0.6033511351232193,
                        -0.971955736298068,
                        0.8851389627669592
                    ],
                    [
                        -0.01785275868070868,
                        -0.8785208995063736,
                        -0.3305869020391745,
                        -0.2449411437279725,
                        0.4198006181045228,
                        -0.34666797668256116,
                        -0.8024007339371515,
                        0.1714351888379808,
                        0.9956286180050979,
                        -0.3276248473276755,
                        -0.8203645766864954,
                        0.30324207847678575,
                        -0.778352728560652,
                        -0.968251018136545,
                        0.8912469978893658,
                        -0.3246075773723842,
                        -0.3070126409671061,
                        0.806387536353508,
                        0.19064836102935617,
                        0.15259473557139147
                    ],
                    [
                        -0.5957547748146945,
                        -0.660054773255359,
                        -0.372432090528431,
                        0.5696452105019856,
                        -0.07775197488197438,
                        0.022085021392631576,
                        0.7280214230668931,
                        -0.4074270281164477,
                        -0.8789160994118638,
                        -0.41040203693983335,
                        -0.5804668770916612,
                        0.8584605954366584,
                        -0.6826754212019349,
                        0.7890602204353784,
                        0.05394425138527809,
                        0.3662258067283477,
                        0.1348901307917609,
                        0.26361322734324244,
                        0.40824954063410485,
                        0.822518870728199
                    ],
                    [
                        0.5389350672363766,
                        -0.44035490940861544,
                        0.9040579357036587,
                        0.0201157199358096,
                        -0.8339093847892858,
                        -0.16594297681768322,
                        0.2395675000761056,
                        -0.4587697881223993,
                        -0.7751338783768733,
                        0.8218875644166956,
                        0.22344761039736666,
                        -0.8585361117695389,
                        -0.30858408334354004,
                        -0.950559508492403,
                        0.5226710803112793,
                        -0.9092077756662106,
                        0.4355803075517579,
                        -0.3052249954955868,
                        0.5620291468700063,
                        -0.6924207345830746
                    ],
                    [
                        -0.6546049284622713,
                        0.9438532214184168,
                        0.3024662333327464,
                        0.3208576339408306,
                        -0.9026161738506873,
                        -0.5237970427854024,
                        0.7272568398793016,
                        0.19278327294575526,
                        0.34082985495144524,
                        -0.09432053423895082,
                        0.674808326084982,
                        0.1883090484491371,
                        0.10958743473081686,
                        0.29654422210740805,
                        -0.9143043436837226,
                        -0.7838451818623786,
                        -0.656194961558392,
                        0.347606722279874,
                        0.5111277268474925,
                        -0.472001474962898
                    ],
                    [
                        0.8216843152503575,
                        -0.9423610900253772,
                        0.06813083313984336,
                        -0.31276253433775336,
                        -0.08419312464475959,
                        0.844486829904511,
                        0.8924862711853723,
                        0.341852516897292,
                        -0.8416385925665855,
                        -0.6577857872462474,
                        0.45833564996657516,
                        0.7643454995795634,
                        0.8953621817404895,
                        0.897186773694606,
                        0.7594957023845154,
                        -0.09997759043757606,
                        0.6154929531982747,
                        0.2633416104570343,
                        -0.8413072663264485,
                        0.5032774794494392
                    ],
                    [
                        0.8549602492880497,
                        -0.9676523441447744,
                        0.3714104539407344,
                        -0.2980553534117458,
                        0.2759094399691502,
                        -0.23955299656602902,
                        0.8314199442388139,
                        0.4242145567266354,
                        0.35372002306939354,
                        0.7619962008814607,
                        0.17371692639913738,
                        0.2464217332899722,
                        -0.01946706147316828,
                        0.6353937146631422,
                        -0.7693865029037346,
                        -0.6507744383276217,
                        -0.31339436599994475,
                        0.14305341616974315,
                        0.3321406662494393,
                        0.6527750698759838
                    ],
                    [
                        0.17998496582923262,
                        0.3100639681724543,
                        0.677291514155326,
                        0.5289902191048039,
                        -0.7791443814424839,
                        0.5453390321345138,
                        -0.9881162513792044,
                        -0.9453794855315181,
                        -0.7729554848558702,
                        -0.8517048368909554,
                        -0.4634410991885418,
                        -0.6542678875039525,
                        0.32316698196210986,
                        -0.13391336699852266,
                        -0.22966783517677714,
                        -1.1504855883464078,
                        -0.6218610112247758,
                        0.6044545639992008,
                        -0.17170475030718688,
                        0.4435152303695078
                    ],
                    [
                        -0.757792947554231,
                        -0.3598025267306837,
                        -0.8433381450425016,
                        0.6327462711215717,
                        0.6740139883137901,
                        0.4447860061917226,
                        0.9625439347127769,
                        -0.11915079544712348,
                        0.9723619498618713,
                        0.09069659770757768,
                        0.6296918558938234,
                        0.8448069305703072,
                        0.12646603745493712,
                        0.4384795521126892,
                        0.10780118140962025,
                        0.20528550642637255,
                        -0.8349962965791955,
                        0.7125523799048015,
                        0.6696034236724028,
                        -0.8881894440834581
                    ],
                    [
                        0.2931026053493644,
                        -0.11853870535054783,
                        -0.6588138154309495,
                        0.3269963318243342,
                        -0.6128257713576066,
                        0.3453161273986121,
                        -0.711144506098565,
                        -0.9189174152504724,
                        -0.49270515776663837,
                        -0.36478469408262537,
                        0.6503574857398722,
                        0.8336220830248086,
                        0.24241482528000965,
                        0.08292177670280296,
                        0.07074919895083642,
                        -0.46437774424490796,
                        0.40969943907767914,
                        0.190527003077688,
                        -0.005806365477877662,
                        0.6161505961602836
                    ],
                    [
                        -0.5344965199089615,
                        -0.811310674741212,
                        -0.9068824321890734,
                        0.3004784608482256,
                        0.3702799322358987,
                        -0.5460146676500295,
                        -0.8235847392979183,
                        -0.39154062499666265,
                        -0.9351698373568285,
                        -0.7827714949236892,
                        0.3435143819849007,
                        -0.05740798965452032,
                        0.711941615392495,
                        -0.8113712600720305,
                        -0.702901100906811,
                        0.2006078095508126,
                        0.8853120177916107,
                        -0.06859280013017743,
                        0.4127205748394065,
                        0.5040906071850035
                    ],
                    [
                        -0.9929608710904185,
                        -0.5328137354017177,
                        0.26437466089137374,
                        0.7882362890580596,
                        0.867498804664746,
                        0.14117970911698619,
                        0.5183015312568011,
                        -0.7060008678933574,
                        0.4438868480879308,
                        0.12536262585957103,
                        -0.9346508407999039,
                        -0.4266456759725888,
                        0.3720719522566329,
                        0.668659619464999,
                        -0.4249330699927989,
                        0.10205520188547207,
                        -0.4461608401571,
                        -0.249407231030605,
                        -0.6361022061249966,
                        -0.9939380256616892
                    ],
                    [
                        0.5598287136195188,
                        0.8597235654844173,
                        0.7781376712164245,
                        -0.7629859656929593,
                        -0.2518319589351883,
                        0.9286485438411639,
                        0.9498353503849044,
                        0.7593508041008872,
                        0.26973664590376445,
                        -1.2338147871034828,
                        0.402882139313655,
                        -0.3236276690981713,
                        0.6494742554895174,
                        0.553107756765213,
                        -0.3054086247802086,
                        0.9161817685389935,
                        -0.5181398805152047,
                        -0.8324220823814703,
                        0.5839472007337553,
                        0.2945646477433994
                    ],
                    [
                        0.8853547213085621,
                        -0.9750730599348945,
                        0.6006919748940585,
                        -0.8676231628794842,
                        -0.7001497175999065,
                        -0.4040479297602515,
                        0.6075025633913469,
                        -0.1038482135122244,
                        -0.19979663799604674,
                        0.05877165897586001,
                        -0.2524666028807496,
                        0.480287014941424,
                        0.14221951408757993,
                        -0.11864388381497237,
                        -1.0571130699447198,
                        -0.42038788416851647,
                        0.7460420235414162,
                        -0.6980924934941015,
                        1.2844375020048158,
                        0.587547229441409
                    ],
                    [
                        0.8733497419925875,
                        -0.22911960862337893,
                        0.7295167470305843,
                        0.4617341508960575,
                        0.3467451198886937,
                        0.018567302811594757,
                        -0.8846423802686685,
                        -0.8295029547814444,
                        -0.696389512192434,
                        -0.07598052451215387,
                        0.2022274308570149,
                        -0.46329225081412195,
                        0.18559010905113407,
                        -0.8026532883575486,
                        -0.15731802017277766,
                        0.7503738885602338,
                        -0.32098015375651745,
                        0.7715333043306305,
                        0.25154746335353945,
                        0.88235630367907
                    ],
                    [
                        -1.1399507960127233,
                        -0.0702734224863315,
                        0.5801662822981175,
                        -0.8012070972255737,
                        0.6374493923362388,
                        0.9445487066045093,
                        -0.14335231942197546,
                        -1.011385176326754,
                        0.03855843013258453,
                        -0.23896071667431462,
                        0.16500758339897495,
                        -0.34282779208544145,
                        -0.2086146054495268,
                        0.6389846074061986,
                        -0.36883741080746385,
                        -0.7348245053551427,
                        0.6372014169577583,
                        -0.8678635654096731,
                        -0.8517999971862396,
                        0.5172668040541903
                    ],
                    [
                        0.2618995759316194,
                        0.7889834941953799,
                        -0.08858121096100557,
                        -0.652192354948505,
                        0.8839116547159109,
                        -0.07242540200621894,
                        0.09317229590818354,
                        -0.615678227184302,
                        -0.41888181655056056,
                        0.14911332587190695,
                        -0.15528483317365782,
                        -0.38583678290287393,
                        0.3105338697748834,
                        0.2856804154324618,
                        -0.7653976142632379,
                        0.8633722661915597,
                        0.10451604093239086,
                        -0.6410847066932497,
                        0.5461640461010013,
                        -0.20061294968576146
                    ],
                    [
                        0.3118784824973886,
                        -0.7223671995420708,
                        -0.48563217776001405,
                        0.6370571295980207,
                        0.19814268101703458,
                        -0.7112906673219088,
                        0.2675282823253211,
                        0.4692671828864796,
                        0.7431337488911451,
                        0.26750108861690114,
                        -0.2808987293821652,
                        0.4266322013321273,
                        -0.021098570855588417,
                        -0.8661477134321058,
                        -0.4836993988973388,
                        -0.18339645549066375,
                        0.9352507879018572,
                        0.7544800454265921,
                        0.7900144751819373,
                        0.3588496542670996
                    ],
                    [
                        0.9767922851571209,
                        -0.8727015985117046,
                        0.2992309792522123,
                        -0.7878614689695045,
                        0.9456010097012228,
                        -0.3481293910188791,
                        -0.9036231215745478,
                        0.858097283523483,
                        0.715046297397225,
                        -0.06449679607205527,
                        -0.9417977388337126,
                        0.3339845427428227,
                        0.6434621564722403,
                        0.651260220403485,
                        -0.09414993624872503,
                        0.636591146961897,
                        -0.11583375865023182,
                        0.3968434358364083,
                        0.34682512547539274,
                        -0.8213167219548367
                    ]
                ],
                [
                    [
                        -0.16091365066878927,
                        0.6328719602039261,
                        -0.3185364236834982,
                        0.6248114533411508,
                        -0.2518034793427827,
                        0.0014973495025001338,
                        -0.38688789204018215,
                        0.6555882610166861,
                        -0.1512909103501643,
                        -0.2671265746675505
                    ],
                    [
                        -0.5018546238012909,
                        -0.6047753497814606,
                        -0.3211290799145088,
                        0.2868011474098373,
                        0.21629274094971773,
                        0.686747679368206,
                        0.35406336856209064,
                        -0.29579694007200114,
                        -0.5590177482291254,
                        0.05423305858181138
                    ],
                    [
                        -0.1824314434778096,
                        -0.8182114826625314,
                        0.543927591367919,
                        0.7096191817908595,
                        0.0303908586145753,
                        0.6300650506808949,
                        0.3841749078646779,
                        -0.15325716710027315,
                        0.3871671856439753,
                        0.8158650884753198
                    ],
                    [
                        1.0366322667228431,
                        0.43580612934658913,
                        -0.34852032416911627,
                        0.3490457762492949,
                        -0.4056668554780123,
                        -0.1992438927899789,
                        1.0366998257891669,
                        0.9688971625776392,
                        -0.1263715057239816,
                        0.25277667431767203
                    ],
                    [
                        -0.20724102385013254,
                        -0.871492702457521,
                        -0.3573665389881624,
                        -0.7307215351355723,
                        -0.5119567920910371,
                        0.5938626381862259,
                        -0.7828713837406273,
                        -0.5256957494516561,
                        0.9798120013119749,
                        0.7610822843769416
                    ],
                    [
                        0.7256013589705471,
                        0.4501030985627797,
                        -0.016255359648856847,
                        -0.1654112625400801,
                        -0.3444989900107378,
                        -0.22492140466082292,
                        0.9562541082993568,
                        -0.3406702552671742,
                        0.11052294871487026,
                        0.6101720300116542
                    ],
                    [
                        0.9516655647779315,
                        -0.7950794500891811,
                        -0.2609691758673571,
                        0.9679037217288646,
                        0.021393442429330056,
                        0.2504088196462557,
                        0.332515375369954,
                        0.2499105990305368,
                        -0.4292575752177976,
                        -0.5384168867909953
                    ],
                    [
                        0.3059929190774995,
                        -0.2690107802026436,
                        -0.43061100392912965,
                        -0.24013872551159565,
                        -0.11904040105323735,
                        0.6797914962381457,
                        -0.01583678720598576,
                        0.07243399901088865,
                        -0.4457828874096821,
                        0.3048433958518899
                    ],
                    [
                        -0.5561074042818934,
                        -0.9678517982116421,
                        0.6564535053859828,
                        -0.01258250901529201,
                        0.8998822702121863,
                        0.9294422751432576,
                        -0.4961169804994483,
                        0.636556096070713,
                        -0.8585948493539839,
                        0.23699655960697893
                    ],
                    [
                        0.43584754671726533,
                        -0.4087274721445352,
                        0.2986086817695135,
                        0.5538427649045896,
                        -0.21491337653952164,
                        -0.7456199000311994,
                        -0.4705942407365633,
                        0.010250630107855646,
                        0.543893490404085,
                        0.5605756521938334
                    ],
                    [
                        -0.7331566901768827,
                        0.3395672024234371,
                        0.44419486597312985,
                        -0.8078086715559543,
                        0.7665299985148205,
                        -0.6042071211836568,
                        0.6564731665278991,
                        0.517615778873907,
                        -0.6222795084894908,
                        -0.2469341134118899
                    ],
                    [
                        -0.01764052344073956,
                        -0.5962304772595087,
                        0.5459801062992229,
                        0.687845354697707,
                        -0.12214370339950291,
                        0.28375103049267425,
                        0.1312524149414931,
                        0.47422170643372996,
                        -0.1281282492352827,
                        0.6744516052800977
                    ],
                    [
                        -0.32537687461570886,
                        -0.3385151109421616,
                        -0.7022340013896651,
                        -0.14807847692164744,
                        -0.900360390598806,
                        -0.3615909541741247,
                        -0.32268039215249733,
                        0.8174427490512335,
                        -0.5462538372660857,
                        0.5155276482477621
                    ],
                    [
                        0.5915135143398671,
                        -0.3619403729503947,
                        -0.026763531001642304,
                        0.9103258650783748,
                        0.9265778050453984,
                        0.17375636317149978,
                        -0.3105681350121392,
                        0.013182613977281266,
                        -0.6045667631756741,
                        0.9239289510140494
                    ],
                    [
                        -0.7238805478057286,
                        -0.38403862164540037,
                        -0.2484938148608946,
                        0.5680685090702899,
                        0.009925101034665026,
                        -0.5740997005963406,
                        0.8728413571493634,
                        -1.0201061347151423,
                        0.4237755531477969,
                        -0.17675019039838769
                    ],
                    [
                        -0.1173301302926264,
                        -0.5288516972949175,
                        -0.3198332372362648,
                        -0.4712143461864543,
                        0.935738462857099,
                        0.17908921025786184,
                        -0.257725103442308,
                        0.34094358516691536,
                        -0.02868309636797073,
                        -0.3335863398237956
                    ],
                    [
                        0.7670004729190458,
                        0.7252037700607595,
                        0.8619336098739898,
                        0.6841247274394056,
                        -0.8275971976568858,
                        -0.15466879247528476,
                        0.6865465741766199,
                        0.9474542154509151,
                        -0.021012321555205382,
                        -0.8131893704838318
                    ],
                    [
                        -0.4642622322031633,
                        -0.6409604573434775,
                        -0.047494384679948126,
                        0.2677481930719386,
                        -0.5008770113838827,
                        -0.05737699228558624,
                        -0.39651165365203056,
                        -0.6002009956339538,
                        0.9108736134090956,
                        -0.4552759718192212
                    ],
                    [
                        -0.24159221535945932,
                        0.7441638631341927,
                        -0.720446948800153,
                        -0.30890552797615833,
                        -0.6680979042083695,
                        -0.8803008265318935,
                        0.3316427579469192,
                        0.2136591785559856,
                        -0.9581625393252481,
                        -0.9236323513247195
                    ],
                    [
                        0.8265640112701111,
                        1.0328152954571894,
                        -0.635036400132102,
                        -0.49637924796138866,
                        -0.31451376762390426,
                        -0.9770723798353026,
                        0.3951044218294686,
                        0.1806080610032368,
                        -0.9404537018264068,
                        -0.34427954736925326
                    ]
                ],
                [
                    [
                        -0.7565766904307909,
                        -0.12763463187063562,
                        0.8614054499385535,
                        0.36056462513594334
                    ],
                    [
                        -0.5143097990276575,
                        0.7092096591564869,
                        0.03352675646259454,
                        -0.7016528732188665
                    ],
                    [
                        0.3211246013838489,
                        0.8536921942796551,
                        -0.7723158059611555,
                        -0.3867085140135784
                    ],
                    [
                        -0.26180297324404656,
                        -0.09921953684201346,
                        0.5808868071451152,
                        0.7075893890822607
                    ],
                    [
                        -0.6279137812515154,
                        -0.44893326722125143,
                        0.5892814064624395,
                        0.904677886392361
                    ],
                    [
                        -0.22297874265321793,
                        0.5624401754578938,
                        -0.5356709116907747,
                        -0.2902590879197784
                    ],
                    [
                        0.3207806545991907,
                        -0.26233287105722947,
                        0.022866211978385342,
                        -0.29662611062406996
                    ],
                    [
                        -0.9014454830577463,
                        0.22537333546803895,
                        0.07550972439334806,
                        -0.7817874138801784
                    ],
                    [
                        -0.5189418308400044,
                        0.035325228598582226,
                        0.060431088837216373,
                        0.7507744215484591
                    ],
                    [
                        -0.32926893591910944,
                        0.9862300544692055,
                        -1.1451173342211745,
                        0.6296972030201125
                    ]
                ]
            ]
}